64 100
# -0.00037871336 0.0011249194 0.0156425 -0.013371785 -0.0015370335 -0.0040021157 0.0050010215 -0.01269467 0.016026761 -0.005382757 -0.006612147 -0.0025125968 -0.0063474183 -0.008991209 0.005154538 -0.0134523725 0.0023540438 0.013446358 -0.009896512 -0.0031724328 0.004549405 0.0020282038 -0.013282574 -0.0030546268 -0.009665358 -0.017024215 -0.0039835367 -0.012757559 0.001540888 0.004173177 0.0021713823 0.011642166 -0.0042971023 0.014649685 -0.0029789107 -0.0014486023 0.007831441 0.00022032508 0.0009577874 -0.0027054185 0.004445145 0.011675082 0.011695896 0.0017406314 -0.0005719712 0.012863121 0.01286496 -0.00081335846 0.015246132 0.017259285 0.008499015 -0.01108931 0.0006361031 0.0021724263 0.0024768282 -0.009981755 -0.009870634 -6.7509594e-05 -0.0077455896 -0.004054727 0.008214495 -0.0032468366 -0.012450588 0.0073058885 0.011775877 -0.011974536 0.015346237 -0.011471884 0.0015540066 -0.0012272755 -0.011661084 0.00056032254 0.017986476 -0.000610551 0.0060823327 0.002009853 -0.016858445 0.006966507 -0.013697773 -0.0020042006 -0.013059728 -0.006309183 0.00919697 -0.012194634 -0.0034225937 -0.003366789 -0.015200554 -0.006997486 0.0014062794 -0.0012397703 0.009918247 -0.012826475 -0.0074132946 0.0017303725 0.0020633386 -0.00040578132 -0.0034158556 0.0013580493 0.0076761623 0.010942168
Word2vec 0.0053791977 0.017451927 0.0016935377 -0.010410308 0.010392415 -0.0050493353 0.012407893 -0.006915764 0.007382117 -0.016864441 0.009734162 0.0038357144 -0.015414373 -0.013219183 0.0020540315 -0.0008545789 0.015820516 0.0070033055 -0.014895619 0.0068046255 -0.0015044855 -3.9475155e-05 -0.01096878 -0.0039452882 -0.0041826097 -0.0013293336 -0.013896496 -0.009436401 -0.008160169 0.009581302 0.008759635 0.0069914116 -0.008835068 0.007814492 -0.0034517185 -0.017014518 0.0109547805 0.0048916247 0.01580747 -0.014072613 0.012072583 0.002214768 -0.0019700662 0.012380061 0.0031797274 0.009869644 0.009745513 -0.008181279 0.0016572686 0.016730882 0.0052784462 -0.0013488474 -0.0010557151 0.0011636482 -0.0008056194 -0.015892217 0.0014956947 0.0112438565 -0.012084369 -0.010766948 0.01522118 -0.00423258 -0.0075645098 0.00087662425 0.013635277 -0.0021047536 0.015874548 -0.013285359 -0.0013973019 0.012371463 -0.01792049 0.015963564 0.0003339426 0.017000033 0.015281584 -0.0016270344 -0.000122020836 0.0015974774 -0.0007934158 0.01452446 0.0033891103 -0.013967811 0.00409922 -0.0067123715 -0.003245439 0.01750832 -0.017349074 0.0045304755 -0.0012696396 0.0017784835 0.009200667 -0.01713829 -0.00796658 0.015604676 0.0075445687 0.009344648 -0.0144464625 -0.008437492 0.012765784 0.012799668
Pytorch 0.020561123 0.013765148 0.008130232 -0.011723281 0.021193149 -0.0115469685 0.010235815 -0.01868977 0.017192088 -0.014218523 0.017356355 -0.019268164 -0.017087145 -0.011339053 -0.0023748039 -0.021783764 0.006539156 0.01890061 -0.01115887 0.017816147 0.022642944 0.014277816 -0.010390026 -0.008614099 -0.00536677 -0.019368533 -0.0044418518 -0.008589157 -0.0020591293 0.00876599 0.016131606 0.0023760824 -0.019917084 0.0052124783 -0.00043419213 -0.001498922 0.0037539434 0.018555848 0.01492095 -0.013246509 0.022968737 0.018052112 0.022169158 0.018960271 0.008012285 0.012914388 0.01968629 -0.017594006 0.014346043 0.019915123 0.0140159 -0.01978531 0.012193935 0.02073702 -0.0047185034 -0.02018583 -0.009828438 0.0025589012 -0.009605582 -0.011062542 0.013480503 -0.019378034 -0.0024697909 0.015135874 0.02014807 -0.017386453 0.017470375 -0.0081357965 -0.019790936 0.012400392 -0.020484688 0.00843321 0.004876903 0.023330867 0.0050706193 -0.013841349 -0.0055864905 0.022005169 -0.0044794125 0.0078444835 -0.01346669 -0.017874438 0.008889794 -0.0206893 -0.012555909 1.9118655e-05 -0.009815331 0.00754661 -0.01680547 0.0046571903 0.014294627 -0.014070697 -0.007743063 0.021845425 0.02053213 0.018129671 -0.017868822 -0.0108935945 0.018746484 0.0080775125
Fast 0.033058114 0.032784067 0.022351831 -0.027912939 0.022421615 -0.019820955 0.032099303 -0.024802934 0.025872653 -0.023995765 0.022986244 -0.027412815 -0.026950575 -0.024634603 -0.03179837 -0.025744956 0.024469437 0.017498292 -0.026590873 0.021628516 0.01511536 0.03046652 -0.028981954 -0.01669525 -0.017734786 -0.01633864 -0.03015527 -0.02290289 -0.02770789 0.031606972 0.034908693 0.025266021 -0.030021934 0.024369376 -0.015180161 -0.016709719 0.03105967 0.0212811 0.026263336 -0.01703391 0.02223968 0.018834732 0.024912938 0.020517254 0.015632134 0.021236027 0.03388738 -0.024679989 0.018099815 0.013834406 0.02377363 -0.02516188 0.025982827 0.027495056 -0.027848866 -0.029702464 -0.033525698 0.0185599 -0.026831498 -0.022779131 0.028780192 -0.019363204 -0.019065289 0.02605116 0.026197061 -0.024311135 0.030165741 -0.028040228 -0.034787342 0.022035863 -0.031205134 0.031641237 0.027975569 0.02702109 0.031712946 -0.025429966 -0.03246397 0.03123538 -0.015973724 0.018091302 -0.02680691 -0.012487145 -0.0042555234 -0.029851152 -0.033151325 0.029580984 -0.025580792 -0.022516709 -0.012435446 0.020451522 0.030699084 -0.0182036 -0.033904716 0.025748432 0.031505793 0.032415595 -0.02437915 -0.031984273 0.032439098 0.034037247
word2vec 0.019955315 0.026084589 0.023976296 -0.023757515 0.023635559 -0.008287881 0.03000758 -0.022226721 0.024677243 -0.007937576 0.027243342 -0.028724933 -0.011859656 -0.013451796 -0.02256304 -0.027823303 0.013455343 0.0046838215 -0.0286632 0.021998208 0.027150165 0.024043187 -0.021890689 -0.010920221 -0.015847912 -0.014669465 -0.012223272 -0.02582622 -0.023694295 0.023221217 0.029594013 0.018743997 -0.023718396 0.00959085 -0.026326027 -0.026708066 0.023972154 0.023022085 0.022359999 -0.022022117 0.028359557 0.029883925 0.012857589 0.017409172 0.0263808 0.0122074615 0.010962516 -0.005627633 0.014288803 0.017859029 0.022726364 -0.025545228 0.011024166 0.026388684 -0.011523824 -0.0126066115 -0.008158873 0.028858038 -0.022365551 -0.030046593 0.017595585 -0.021111073 -0.022397187 0.020822207 0.019759819 -0.018399335 0.026669385 -0.019760411 -0.016700557 0.015105813 -0.02127617 0.012366064 0.02149857 0.015811399 0.022458296 -0.02005334 -0.023881862 0.027754985 -0.017821008 0.022239871 -0.020703955 -0.003828445 -0.0020305845 -0.022998266 -0.02724577 0.008909635 -0.011706896 -0.013243366 -0.005006575 0.021036655 0.010218078 -0.007434586 -0.018647993 0.028958118 0.012620943 0.021815188 -0.024052907 -0.019238597 0.022117281 0.026468357
implementation 0.03168372 0.022048658 0.011091166 -0.027536178 0.0169462 -0.0131233875 0.017554622 -0.02607111 0.032627232 -0.0327438 0.016328547 -0.01574105 -0.014390168 -0.030526653 -0.01457612 -0.024243455 0.029433692 0.027830845 -0.015890118 0.017164078 0.027618404 0.024843238 -0.018206421 -0.012003588 -0.018387573 -0.025433296 -0.030519718 -0.025435384 -0.02371229 0.030929055 0.018000962 0.021292804 -0.025216699 0.01244825 -0.026597526 -0.021529399 0.030054111 0.031147374 0.020229915 -0.018262813 0.01323704 0.019465158 0.022586435 0.028528057 0.016708342 0.020727955 0.026401356 -0.02116444 0.018981125 0.015095416 0.030542364 -0.030566197 0.028016796 0.029512564 -0.031626355 -0.01871443 -0.019244932 0.023400888 -0.02057685 -0.032607023 0.02705892 -0.01272382 -0.026925221 0.03244409 0.013199997 -0.026305044 0.030650798 -0.03199412 -0.013137778 0.02545752 -0.030145034 0.031933814 0.030891763 0.025585847 0.021745315 -0.02291364 -0.024289599 0.01668532 -0.02981878 0.01909373 -0.031148273 -0.017953467 0.014167918 -0.025042497 -0.031239547 0.023662847 -0.02599016 -0.013627205 -0.015968917 0.02735247 0.01656479 -0.015171909 -0.015343127 0.020990789 0.026827374 0.013771334 -0.027245369 -0.017747289 0.022507237 0.026971372
at 0.024418885 0.029131146 0.025155937 -0.028245611 0.019498007 -0.03170066 0.016414387 -0.03577139 0.026442526 -0.017762257 0.0144316405 -0.015374377 -0.033041786 -0.032168362 -0.009890136 -0.032618113 0.03074703 0.021110602 -0.030724643 0.015259211 0.02164314 0.028593894 -0.02377326 -0.02654166 -0.031357933 -0.017955473 -0.02112522 -0.031123508 -0.014540945 0.01810632 0.034569643 0.026317917 -0.029530935 0.026340263 -0.03376833 -0.018891526 0.01984705 0.018320475 0.03346196 -0.016189981 0.019370798 0.023939725 0.018688677 0.030185275 0.034539264 0.015217609 0.021399627 -0.016557824 0.021677326 0.02144472 0.033854824 -0.018630084 0.025273416 0.020821977 -0.01683242 -0.027409952 -0.012200321 0.01997698 -0.028643304 -0.027281549 0.026788194 -0.027154215 -0.02803125 0.029123144 0.025369212 -0.035177175 0.020083893 -0.030010443 -0.031741932 0.02816126 -0.024316441 0.014484559 0.022863572 0.027702028 0.03315233 -0.02355875 -0.03518278 0.035433836 -0.028136486 0.028722873 -0.024666848 -0.010960837 0.013540223 -0.03026817 -0.018176146 0.026375769 -0.032529783 -0.016895458 -0.021474538 0.024175497 0.028879892 -0.02285548 -0.019001123 0.024497226 0.017144758 0.016836146 -0.03327201 -0.0356548 0.028453857 0.033337213
competitive 0.029387906 0.031598207 0.031764403 -0.031793363 0.029522102 -0.02212025 0.03268489 -0.027400777 0.031581245 -0.023167819 0.017053325 -0.020842174 -0.025412615 -0.01686692 -0.010714229 -0.024164412 0.030625034 0.01784058 -0.018431064 0.020538738 0.03202074 0.020565765 -0.027418194 -0.026790317 -0.017892806 -0.029594108 -0.028278623 -0.025043499 -0.027807526 0.024525553 0.025713472 0.03157016 -0.0348727 0.026669092 -0.025314527 -0.028981658 0.019990899 0.0219376 0.023350859 -0.027477704 0.01318381 0.019652462 0.021355292 0.02186298 0.017426262 0.01728445 0.022789206 -0.023173233 0.022093551 0.023212109 0.0283982 -0.031295236 0.02580451 0.022585297 -0.03216245 -0.006200892 -0.0149052525 0.03010005 -0.030755928 -0.014267944 0.03286126 -0.028659882 -0.010281951 0.026560687 0.018656729 -0.01981261 0.030568328 -0.024293117 -0.03282933 0.026878627 -0.028505629 0.032066975 0.030283298 0.025139607 0.015783656 -0.018549968 -0.029276524 0.01627344 -0.021973832 0.03016096 -0.026754156 -0.02883985 0.0141687365 -0.017074704 -0.034523427 0.020507805 -0.031679086 -0.017785335 -0.019051902 0.031240927 0.032572545 -0.013927191 -0.03385187 0.017727334 0.016044816 0.03297659 -0.030415758 -0.0284856 0.023681873 0.02362986
speed 0.03339912 0.030820506 0.021236174 -0.027577465 0.018828977 -0.030652268 0.03209384 -0.029693536 0.015610747 -0.026673527 0.030779572 -0.024327798 -0.022750543 -0.03111206 -0.023675816 -0.018810313 0.03897052 0.019571824 -0.033470515 0.032432977 0.023606997 0.03613473 -0.018169958 -0.027547512 -0.02827792 -0.03062062 -0.017902467 -0.030977262 -0.032911055 0.021314742 0.03747147 0.024687627 -0.033736058 0.028770223 -0.024335831 -0.024998944 0.021158138 0.02757943 0.03407149 -0.027041443 0.01702658 0.02558447 0.021474738 0.028589528 0.021044396 0.028653165 0.015278824 -0.032866858 0.024052363 0.022677906 0.038126033 -0.031770688 0.028190313 0.027232453 -0.018595407 -0.032138765 -0.013627764 0.035227537 -0.037332322 -0.036642455 0.034389444 -0.02300489 -0.02086808 0.026113456 0.017574128 -0.036233198 0.03577351 -0.030701555 -0.025125805 0.01871754 -0.025352374 0.030155556 0.02337761 0.034548286 0.030948933 -0.031707913 -0.03591804 0.019289522 -0.020447373 0.02396947 -0.03296805 -0.015049852 0.010546892 -0.034462735 -0.036540136 0.029441938 -0.023070892 -0.0074044475 -0.024546772 0.029029585 0.03190684 -0.03461395 -0.03842553 0.0373464 0.023817029 0.032537773 -0.037695598 -0.024958495 0.03261296 0.020048665
compared 0.016908493 0.039044287 0.02561976 -0.023007715 0.020354236 -0.016931469 0.02664486 -0.025382636 0.037512504 -0.021304894 0.021791192 -0.031904407 -0.032833517 -0.02207656 -0.013229027 -0.01889532 0.019617828 0.029636951 -0.028531715 0.01199644 0.021587824 0.025878713 -0.027637087 -0.023016475 -0.030054066 -0.022166476 -0.021911519 -0.020709988 -0.027098285 0.027192151 0.025745004 0.032457963 -0.035814136 0.032298703 -0.011623476 -0.035435956 0.037742794 0.03288113 0.03235411 -0.02409923 0.028531492 0.01981181 0.025739687 0.021068636 0.025267474 0.0282833 0.027403278 -0.032918405 0.028460598 0.03263962 0.035614047 -0.035648298 0.01872251 0.026454786 -0.018905824 -0.0153775215 -0.028754596 0.01504895 -0.038523525 -0.030643534 0.018751651 -0.020296624 -0.014037564 0.03474681 0.0294113 -0.035454776 0.033195812 -0.033420134 -0.029146913 0.027516168 -0.035960406 0.029449016 0.033222552 0.029594865 0.03943508 -0.03107947 -0.018609703 0.03023797 -0.02274493 0.018420165 -0.024387978 -0.012516962 0.00048027805 -0.020849627 -0.024416775 0.012132614 -0.03885234 -0.014349074 -0.026784739 0.017080503 0.023530059 -0.029922875 -0.029208861 0.030835658 0.031093527 0.030860633 -0.024403943 -0.037361953 0.023092706 0.038587637
with 0.038164336 0.048870362 0.036485773 -0.04216882 0.031612854 -0.039995868 0.034334958 -0.04179976 0.02960614 -0.040548004 0.0365769 -0.034518737 -0.040668648 -0.046055213 -0.038391683 -0.03828956 0.044272996 0.029974684 -0.029587546 0.037276436 0.029280234 0.0423563 -0.045404974 -0.028326793 -0.03582334 -0.047242705 -0.03240883 -0.04292797 -0.04447704 0.04821368 0.04300259 0.04043941 -0.047624104 0.035290096 -0.03801238 -0.04372462 0.048457228 0.041818134 0.045440283 -0.03055238 0.029668642 0.03195867 0.036005355 0.041927636 0.03804937 0.040474433 0.04165997 -0.043893673 0.028922115 0.029245451 0.046723235 -0.04279241 0.028743196 0.03395317 -0.03733521 -0.029778603 -0.031152593 0.032982867 -0.039678935 -0.031338945 0.04013858 -0.035559814 -0.041368023 0.04747356 0.040268045 -0.04883075 0.046332885 -0.043101255 -0.035670917 0.0403241 -0.041704934 0.044341404 0.04787428 0.031091604 0.04783676 -0.03847809 -0.039806526 0.047810875 -0.025524769 0.049029823 -0.03218958 -0.031034563 0.0006385265 -0.044089165 -0.049043693 0.035784774 -0.039524212 -0.027513908 -0.035572577 0.035071224 0.040210765 -0.037457153 -0.028878933 0.0444596 0.040772345 0.049795225 -0.047567617 -0.03844131 0.037635602 0.045426387
fasttext. 0.03674439 0.021376006 0.034614846 -0.04097422 0.035145268 -0.019115316 0.025771 -0.031977106 0.037628673 -0.025008844 0.028865712 -0.036953885 -0.028896106 -0.029117212 -0.026850723 -0.03108382 0.02335553 0.023490997 -0.036362115 0.026266476 0.030638414 0.038890768 -0.03494921 -0.029942451 -0.038447075 -0.018191058 -0.023868777 -0.029009884 -0.02290311 0.03401508 0.039156757 0.035916217 -0.04026433 0.025868624 -0.024447128 -0.023900038 0.02737774 0.028649764 0.03643144 -0.021371758 0.028530143 0.031164361 0.036823083 0.02329013 0.027010398 0.03857518 0.03330479 -0.020718183 0.03597342 0.030591588 0.02596774 -0.023981363 0.02746699 0.035624705 -0.034253705 -0.027147323 -0.009824931 0.029499821 -0.027950874 -0.019469569 0.040135667 -0.034932546 -0.03248567 0.03684661 0.029420255 -0.031778377 0.02588157 -0.026419131 -0.03262078 0.03728106 -0.038780242 0.022956006 0.024509573 0.029187078 0.03335092 -0.025541913 -0.03250812 0.0327188 -0.023237687 0.022468932 -0.029412067 -0.03285592 0.0065081855 -0.039624326 -0.027571313 0.021398272 -0.029857174 -0.019785441 -0.031289756 0.02656933 0.021895915 -0.023850964 -0.035976246 0.0386496 0.030533642 0.023831422 -0.02996485 -0.025062045 0.034885153 0.03751268
The 0.032725446 0.04458926 0.031754114 -0.035204835 0.03380058 -0.03416645 0.029894995 -0.045664422 0.030845426 -0.04335035 0.020428402 -0.02761784 -0.0320152 -0.04000868 -0.035177145 -0.037071645 0.022921614 0.025960788 -0.040098034 0.027164273 0.04030272 0.042771835 -0.029318828 -0.024743184 -0.027082505 -0.025273135 -0.03171193 -0.036489174 -0.03953273 0.045657344 0.03905735 0.0360989 -0.027227597 0.024430178 -0.03640007 -0.04142038 0.043441582 0.024891108 0.029533014 -0.038727008 0.03444665 0.036824893 0.038026832 0.029978856 0.04085025 0.023935214 0.035416175 -0.028204793 0.036780573 0.03660799 0.039014377 -0.034544233 0.030521663 0.039420646 -0.02332535 -0.03097402 -0.019163294 0.039022394 -0.04510763 -0.03545062 0.034175053 -0.0414495 -0.03685549 0.03220379 0.030914191 -0.043449357 0.039092988 -0.024759287 -0.033883832 0.02416637 -0.027297245 0.038725305 0.028661052 0.0388323 0.045809522 -0.03241244 -0.044115685 0.04507349 -0.039873987 0.035615433 -0.04358602 -0.02278008 -0.004833852 -0.02855615 -0.040467963 0.040149305 -0.039726485 -0.019649722 -0.038138803 0.04123594 0.035560075 -0.033792872 -0.045405634 0.041461214 0.041894514 0.025372582 -0.0411653 -0.040738314 0.027202168 0.036142666
slowest 0.017586907 0.032559592 0.03169746 -0.034397945 0.02138067 -0.032093156 0.022016516 -0.015449345 0.028683634 -0.01750608 0.018441087 -0.015953902 -0.026468176 -0.020093672 -0.022476425 -0.028406745 0.028694857 0.023060687 -0.023795407 0.015202692 0.018032508 0.031780206 -0.017962156 -0.034773547 -0.03357498 -0.017439257 -0.016209299 -0.03486531 -0.024228217 0.03305739 0.016731177 0.026358418 -0.03203712 0.033388868 -0.030594502 -0.021122564 0.019015199 0.032961767 0.026808184 -0.020247893 0.024820479 0.024795065 0.027109046 0.025078073 0.015275585 0.017316388 0.024919553 -0.026901638 0.011108024 0.017802697 0.033620417 -0.030405898 0.020736488 0.019336417 -0.031119512 -0.020742029 -0.01502499 0.01494882 -0.024660908 -0.033466782 0.026239857 -0.020906558 -0.019194162 0.027906358 0.031988747 -0.020431753 0.023676602 -0.02940543 -0.03414677 0.03401416 -0.033353716 0.034177534 0.016902868 0.026422175 0.01632064 -0.023842279 -0.01629801 0.018709684 -0.013397454 0.016045624 -0.032935556 -0.021803483 0.004995848 -0.02331533 -0.02083015 0.020221958 -0.027744655 -0.018885095 -0.02391514 0.021677552 0.02535236 -0.034313496 -0.02206931 0.030583804 0.016211163 0.016725488 -0.022182727 -0.031419914 0.017205365 0.019992594
part 0.036155928 0.035020873 0.04221886 -0.042283133 0.038174145 -0.045246184 0.030822411 -0.04360306 0.047159895 -0.040228706 0.02289556 -0.04560413 -0.043424536 -0.048380524 -0.03028668 -0.04385764 0.035467 0.038643107 -0.03877344 0.031813063 0.03943608 0.042324644 -0.026799057 -0.03245422 -0.036545288 -0.026855716 -0.033635568 -0.0443364 -0.03218437 0.03237335 0.048992056 0.03664117 -0.044772428 0.031656563 -0.032295566 -0.042137783 0.04311828 0.040734485 0.03818129 -0.03924286 0.03685276 0.033881012 0.037442323 0.03831837 0.039567467 0.028079363 0.032380767 -0.045198668 0.040509563 0.046710677 0.03439477 -0.0463577 0.034454376 0.03516374 -0.039055713 -0.0396778 -0.02619411 0.03833161 -0.036449425 -0.042607833 0.048525438 -0.043268424 -0.03089501 0.040305477 0.028927963 -0.03610846 0.037490446 -0.033006314 -0.03529522 0.036555693 -0.045683414 0.049021862 0.048136417 0.040896684 0.04614545 -0.027766954 -0.044498358 0.033944376 -0.029634533 0.041234724 -0.028555743 -0.036576595 0.02168435 -0.032069843 -0.049671244 0.046034005 -0.030605497 -0.027285205 -0.024362836 0.03146272 0.03342749 -0.041178785 -0.049664877 0.045601785 0.040991995 0.029096073 -0.0396204 -0.03326587 0.045752123 0.028846445
is 0.035215333 0.039442617 0.026977057 -0.021232847 0.028607666 -0.035419777 0.036639743 -0.027113996 0.033361122 -0.03481785 0.02781485 -0.024344033 -0.027897142 -0.03680934 -0.024368498 -0.036657266 0.031400774 0.023444189 -0.030564733 0.041843448 0.036990885 0.038061783 -0.029327603 -0.032134444 -0.029325346 -0.024097612 -0.039663047 -0.025254104 -0.022063335 0.025170052 0.03691606 0.030759506 -0.02938227 0.029538961 -0.024289504 -0.03884881 0.026092872 0.03689322 0.023576653 -0.034757026 0.036145892 0.038509227 0.04075091 0.032785054 0.025747266 0.022667605 0.036225077 -0.025714844 0.03950414 0.021115277 0.02975711 -0.026881326 0.039067216 0.02567439 -0.026353793 -0.037449233 -0.025956288 0.034527745 -0.039082628 -0.034472734 0.024875315 -0.03378103 -0.037140083 0.02722093 0.04126969 -0.022334656 0.039548483 -0.022387115 -0.035652325 0.038028743 -0.023945753 0.03799484 0.037198197 0.038302697 0.039230723 -0.033262704 -0.03892279 0.034868736 -0.025703758 0.035617255 -0.030572986 -0.01920603 -0.0019518986 -0.031379674 -0.028645597 0.018973222 -0.038106795 -0.025013031 -0.029918619 0.038394827 0.029276561 -0.041560154 -0.029561063 0.031603318 0.03025677 0.040845286 -0.025362125 -0.040598597 0.028705707 0.023063757
the 0.04580385 0.05450329 0.04220985 -0.05040018 0.04469521 -0.052148852 0.044599593 -0.037524883 0.044094365 -0.048152905 0.054927025 -0.04487556 -0.042151567 -0.044185754 -0.046574395 -0.04118017 0.049679935 0.04149614 -0.047764897 0.04189682 0.051337354 0.049678113 -0.03950687 -0.03839311 -0.051591307 -0.047942538 -0.042080857 -0.05070327 -0.041619975 0.05625874 0.050586034 0.05414811 -0.05398055 0.05077978 -0.033174876 -0.047548812 0.051321562 0.054974776 0.051542614 -0.050370853 0.04719765 0.04298521 0.046953943 0.037356704 0.042992588 0.05226413 0.04397789 -0.044939533 0.04894495 0.042802673 0.050874367 -0.05064054 0.05010274 0.05272436 -0.05048916 -0.03967971 -0.036330704 0.040099494 -0.04490587 -0.047172975 0.053878095 -0.04006187 -0.04684773 0.04645382 0.05187742 -0.05414199 0.03915683 -0.046339557 -0.05358322 0.050536953 -0.054562975 0.043269318 0.048331063 0.047475453 0.05539902 -0.04622273 -0.039013527 0.054353025 -0.044877574 0.049874958 -0.04936158 -0.041613508 -0.00086449925 -0.054595847 -0.047879886 0.038629815 -0.03888813 -0.0290936 -0.04112813 0.05266081 0.054754034 -0.050530706 -0.047894694 0.055602267 0.04861332 0.054544494 -0.039990045 -0.053579252 0.054758247 0.053643584
python 0.021084456 0.03790529 0.019514468 -0.031884503 0.036905136 -0.02208867 0.031014824 -0.034226518 0.029792283 -0.021879777 0.017708365 -0.018830707 -0.02799464 -0.033107243 -0.023625767 -0.020553349 0.032218017 0.020910433 -0.03625669 0.028002264 0.036112696 0.02147738 -0.033861827 -0.033548366 -0.015889768 -0.01946108 -0.03948034 -0.026604239 -0.030698996 0.03475208 0.036410112 0.038186584 -0.024479823 0.034136582 -0.036655404 -0.037669484 0.03186646 0.020482067 0.021919295 -0.035416223 0.024552532 0.026436139 0.034500703 0.020618659 0.02712892 0.020658882 0.024176542 -0.030718679 0.020797528 0.025816295 0.028675757 -0.03401882 0.02186961 0.025684383 -0.031510666 -0.021067174 -0.012497742 0.03285782 -0.021419361 -0.027459145 0.026006987 -0.025363406 -0.033626184 0.021456381 0.017270189 -0.02537316 0.025107179 -0.028062418 -0.034810964 0.029814228 -0.035711423 0.030946998 0.03322575 0.025970453 0.03257692 -0.031069335 -0.031371575 0.022053443 -0.027503857 0.031219976 -0.025808204 -0.025853513 -0.004715152 -0.03562792 -0.039172783 0.031751975 -0.03251524 -0.010636162 -0.027546698 0.03975627 0.026108237 -0.032668225 -0.02953591 0.026647191 0.024022985 0.037652034 -0.03888773 -0.033689097 0.031284273 0.022153743
data 0.021288145 0.03627816 0.02665409 -0.040467735 0.02747778 -0.03297127 0.021504242 -0.030299911 0.03203162 -0.026119638 0.024012856 -0.0356573 -0.034356605 -0.04082791 -0.016531864 -0.03473899 0.028921654 0.019352887 -0.03923649 0.02206485 0.031733688 0.03998881 -0.03575144 -0.023443492 -0.028515302 -0.02974864 -0.01865258 -0.03561312 -0.025745472 0.04064575 0.026326153 0.028466387 -0.039361168 0.020229084 -0.026432855 -0.019534308 0.031768046 0.020586565 0.032204475 -0.037069246 0.028824361 0.0363297 0.03551023 0.032666296 0.035893165 0.030430071 0.03587753 -0.021778047 0.022167774 0.032836486 0.035708025 -0.03477603 0.03303485 0.023865039 -0.035733797 -0.027468229 -0.013229079 0.027092226 -0.035957143 -0.035769247 0.032763384 -0.024805149 -0.040286656 0.015440204 0.025535263 -0.027990194 0.027525056 -0.035569817 -0.033706184 0.019473625 -0.03683955 0.027602289 0.025446411 0.023475185 0.036901563 -0.039552838 -0.0334524 0.037965067 -0.013621372 0.024489723 -0.019681778 -0.015455404 -0.010228341 -0.03826944 -0.027019912 0.018740904 -0.02822698 -0.014598044 -0.021051196 0.028425397 0.029872807 -0.035648193 -0.025349677 0.033820573 0.03289066 0.03874327 -0.032961227 -0.025441827 0.021908201 0.03203657
loader. 0.037340533 0.028365972 0.024042139 -0.03471076 0.029136844 -0.020622171 0.029318955 -0.03526463 0.013776463 -0.03258667 0.023115346 -0.03473363 -0.024043728 -0.01882346 -0.022969518 -0.035009403 0.020555794 0.02155575 -0.020178534 0.025945107 0.01882968 0.032836083 -0.030340504 -0.019322824 -0.033643287 -0.036138613 -0.036943894 -0.03118329 -0.020345291 0.027218617 0.03769309 0.03747179 -0.028073017 0.03543229 -0.028667828 -0.026932938 0.039100263 0.03757253 0.030915288 -0.021336015 0.03685896 0.028580435 0.032156378 0.022465562 0.02963956 0.017256813 0.03625306 -0.029143313 0.032544956 0.030027475 0.026432145 -0.03973227 0.03200686 0.031763945 -0.0184373 -0.02041825 -0.034880783 0.020317914 -0.030835845 -0.025069457 0.029883172 -0.02864361 -0.025313534 0.03190264 0.03943348 -0.033405293 0.033713587 -0.018550597 -0.035209455 0.036484577 -0.024861082 0.027969845 0.029933041 0.035621937 0.018580874 -0.02488228 -0.03926333 0.038743984 -0.022174476 0.02575266 -0.027853524 -0.03020221 0.012671479 -0.02862888 -0.030473733 0.024084494 -0.024105532 -0.025623603 -0.017434042 0.02048473 0.038969886 -0.025907772 -0.02678274 0.036492676 0.025149038 0.036932115 -0.025462322 -0.02818368 0.033114634 0.028893232
Indeed, 0.051163398 0.0418247 0.040302433 -0.044810757 0.041062478 -0.04836968 0.03712064 -0.03890627 0.036582317 -0.053757172 0.032697476 -0.033167668 -0.044754148 -0.052452467 -0.038647745 -0.03850877 0.044092294 0.0416433 -0.036287535 0.047301024 0.0375723 0.03869843 -0.033613946 -0.046649266 -0.04066501 -0.044431012 -0.042988848 -0.042159855 -0.03455435 0.03709957 0.034686886 0.051367983 -0.037949294 0.045093838 -0.031378295 -0.03720295 0.034262743 0.043164767 0.04807032 -0.04353439 0.048622992 0.043808464 0.03502339 0.043947607 0.045577172 0.04368315 0.041734587 -0.0410771 0.03722187 0.04694132 0.05530462 -0.04141612 0.03682994 0.03700914 -0.038885236 -0.033979878 -0.02660045 0.042752713 -0.041737568 -0.03947507 0.04783394 -0.047359865 -0.045172773 0.05179223 0.052679464 -0.036258496 0.052683517 -0.03568624 -0.043809857 0.04749319 -0.04818105 0.052663423 0.055383936 0.05350011 0.0406095 -0.04528467 -0.035710324 0.037881594 -0.044847865 0.03628487 -0.041822355 -0.036723062 0.01664632 -0.03995729 -0.035846688 0.043532934 -0.05192871 -0.03381832 -0.044093747 0.03448192 0.0465181 -0.04563254 -0.053827148 0.041190747 0.048254743 0.041574396 -0.035485703 -0.040848296 0.05180938 0.039163698
Python 0.040413797 0.039270718 0.039193217 -0.033583146 0.034528118 -0.033854973 0.038664497 -0.043735314 0.031689096 -0.032605328 0.033818472 -0.03340776 -0.03264016 -0.038775396 -0.022356717 -0.03673069 0.04135338 0.03451101 -0.042876422 0.033180002 0.03500308 0.027483355 -0.03959318 -0.028439345 -0.024377134 -0.038291357 -0.04154494 -0.028013378 -0.029482614 0.027550116 0.031815473 0.027144987 -0.04161588 0.039068207 -0.0398315 -0.03402308 0.036102314 0.02889831 0.03130674 -0.032960385 0.027222868 0.026257597 0.025778936 0.03469929 0.04059736 0.036693767 0.028284475 -0.039472427 0.027929379 0.035907667 0.043188713 -0.04539175 0.04123481 0.03655052 -0.03719792 -0.029746689 -0.018639829 0.035725355 -0.039313693 -0.034239464 0.030734448 -0.03988332 -0.0392325 0.039011087 0.027628368 -0.025162157 0.040754993 -0.0351239 -0.03699429 0.026791776 -0.030200623 0.04515802 0.03796896 0.041380286 0.029233502 -0.023550231 -0.04361055 0.03797063 -0.03852521 0.041390166 -0.029455474 -0.028728545 -0.004606691 -0.02944647 -0.03445511 0.032489974 -0.036994223 -0.042393975 -0.028474825 0.032003574 0.04422357 -0.028604781 -0.043095224 0.040440504 0.035115242 0.041029792 -0.033687145 -0.041989774 0.031981934 0.0308381
isn't 0.025106426 0.025658228 0.035677418 -0.035562605 0.03131646 -0.032967325 0.025127305 -0.038469046 0.030090831 -0.021656794 0.024408692 -0.034018453 -0.03798461 -0.02904622 -0.01539459 -0.02739377 0.031352546 0.014133473 -0.024053408 0.03194645 0.023300687 0.018481513 -0.01711096 -0.03268939 -0.019418098 -0.021821927 -0.019788263 -0.025663594 -0.034026228 0.028417224 0.020864679 0.02725964 -0.021858316 0.029114524 -0.019627469 -0.023980832 0.028369807 0.020671127 0.03595324 -0.019501219 0.030946562 0.031607177 0.028178558 0.016277596 0.035544954 0.030960754 0.030137982 -0.031677313 0.032709785 0.025064198 0.034094732 -0.02080752 0.019698411 0.021903053 -0.025633354 -0.02344646 -0.021654181 0.02004418 -0.03636025 -0.02947484 0.026907142 -0.020057134 -0.02671102 0.017592827 0.021411115 -0.020623412 0.02970346 -0.021969406 -0.02600118 0.018040432 -0.023569131 0.021400014 0.03286886 0.01969087 0.03181073 -0.02252194 -0.018278472 0.03222441 -0.02226333 0.033248074 -0.027791012 -0.008452637 -0.0009543919 -0.021859124 -0.024017595 0.032560162 -0.015259247 -0.023405757 -0.022306925 0.017764615 0.023681602 -0.022685762 -0.03146609 0.023551004 0.027885895 0.017904727 -0.034746848 -0.027342537 0.01933973 0.02144522
fastest 0.05333428 0.04021859 0.05069771 -0.037703816 0.049280025 -0.042586464 0.049299125 -0.044789743 0.053267356 -0.044169508 0.04803833 -0.049191102 -0.043815605 -0.048708063 -0.02320114 -0.05247807 0.0491388 0.031219054 -0.037309416 0.034500804 0.043378636 0.03896606 -0.050764926 -0.043136485 -0.05303397 -0.053786784 -0.036731295 -0.055030044 -0.04402735 0.051822253 0.05277166 0.045715336 -0.03977901 0.03725671 -0.031939737 -0.044742614 0.04887397 0.05408188 0.04863765 -0.041119155 0.051076677 0.046944566 0.055818453 0.05042696 0.053363062 0.042745337 0.053208113 -0.04751313 0.047006167 0.036453627 0.042684954 -0.044802196 0.027381353 0.040512506 -0.046859093 -0.046540923 -0.035100557 0.040790074 -0.05500396 -0.04667624 0.044957623 -0.037895646 -0.031704698 0.037897006 0.03923322 -0.049386792 0.04452594 -0.040616307 -0.046900433 0.05370412 -0.050189268 0.047292843 0.055656094 0.05308696 0.05548353 -0.031688366 -0.0487692 0.055516873 -0.039728664 0.038275316 -0.034857422 -0.030149726 0.010838991 -0.04625541 -0.04344502 0.040720407 -0.045005392 -0.023116617 -0.03171949 0.047204897 0.038724303 -0.04636159 -0.054776642 0.05049073 0.04587988 0.045258086 -0.05250207 -0.042406753 0.053001832 0.036254622
programming 0.047041893 0.0494544 0.033687763 -0.03679684 0.039642714 -0.036882743 0.040632375 -0.042600483 0.029530492 -0.049813513 0.034026325 -0.039412543 -0.034912292 -0.036878835 -0.039817084 -0.03113153 0.036666486 0.038501456 -0.038377587 0.038935844 0.04108792 0.03950484 -0.04269094 -0.029509343 -0.03996348 -0.047196414 -0.035498615 -0.04358402 -0.032385476 0.03705079 0.036902145 0.030784266 -0.04003629 0.026240917 -0.04649219 -0.04101708 0.037450865 0.043028444 0.039093923 -0.036404237 0.043673556 0.044519342 0.040762924 0.03677099 0.038691018 0.04268178 0.043133475 -0.028245173 0.045085058 0.027265565 0.04468209 -0.047487743 0.035937123 0.04242278 -0.043681994 -0.028996224 -0.027755484 0.040154245 -0.03514264 -0.0469847 0.049602658 -0.04370359 -0.036747728 0.031274524 0.046129838 -0.037361395 0.030716825 -0.030162606 -0.032400347 0.04126908 -0.031114066 0.04733387 0.048185483 0.047197975 0.037239194 -0.028193772 -0.03298698 0.044183794 -0.028641809 0.04741343 -0.04734323 -0.02174386 0.031135997 -0.049971424 -0.045235384 0.036868267 -0.04427917 -0.034753032 -0.03622514 0.045024473 0.04655917 -0.036454313 -0.046167508 0.03985617 0.03880787 0.029416118 -0.04107064 -0.033893064 0.04993364 0.036130223
language, 0.040470246 0.043943487 0.031298745 -0.026353663 0.024045369 -0.025134888 0.03792602 -0.0348166 0.041743625 -0.027295042 0.028420718 -0.038291167 -0.03755473 -0.034327596 -0.020637223 -0.028058767 0.03555557 0.03406578 -0.042026468 0.034628954 0.028653594 0.025539186 -0.025641957 -0.026221808 -0.037694708 -0.03798854 -0.041700266 -0.030916683 -0.031411048 0.03542598 0.04261961 0.032409936 -0.029459119 0.033009097 -0.030676242 -0.034709588 0.040520616 0.0417639 0.045695763 -0.03493088 0.03125784 0.03088342 0.03909053 0.033512577 0.034286704 0.025129415 0.035371777 -0.037295885 0.040207364 0.04149924 0.028653506 -0.036748137 0.025852397 0.023590345 -0.023172997 -0.030446758 -0.033256155 0.021689389 -0.03800174 -0.036727652 0.03265882 -0.03325284 -0.037502687 0.032750696 0.03808988 -0.029739337 0.0378963 -0.028670544 -0.04156783 0.026125971 -0.044216428 0.04247467 0.04196699 0.039814837 0.032221157 -0.039604634 -0.0328342 0.04291319 -0.020023156 0.043551907 -0.03747019 -0.010889981 0.0016811641 -0.03898981 -0.029876696 0.023560107 -0.04344516 -0.029510183 -0.03570253 0.02129202 0.043314062 -0.027682273 -0.04283913 0.040942088 0.028368851 0.033884846 -0.035398822 -0.02669347 0.027809745 0.03756217
maybe 0.033319067 0.031102931 0.02628181 -0.04250359 0.033066303 -0.03274527 0.038119853 -0.039789986 0.039763488 -0.032843422 0.034271467 -0.035036504 -0.03529875 -0.036402155 -0.02097283 -0.022233967 0.027868807 0.0312315 -0.040669046 0.039406445 0.027227694 0.03627619 -0.03868072 -0.032654602 -0.03515097 -0.022558058 -0.02928171 -0.028129099 -0.02213209 0.0332723 0.04047965 0.032478593 -0.041004475 0.038028736 -0.016982721 -0.023891978 0.04050671 0.030089322 0.023861354 -0.024810357 0.032228176 0.0397477 0.02227007 0.040760037 0.03821604 0.03702795 0.021089198 -0.030787196 0.021544416 0.026717242 0.041449986 -0.031761304 0.03712505 0.035122074 -0.03120445 -0.03603209 -0.030727783 0.034234375 -0.038054183 -0.041548826 0.025444726 -0.0303864 -0.029578857 0.032382257 0.03402524 -0.038914293 0.03280532 -0.034165658 -0.037524685 0.034356568 -0.035018083 0.03433078 0.02606948 0.025133217 0.042687498 -0.02606771 -0.040071394 0.02702555 -0.022545712 0.037823197 -0.02283384 -0.014591922 -0.008377194 -0.041221853 -0.040952194 0.024708418 -0.02442178 -0.012775956 -0.022136219 0.03401491 0.039702684 -0.038124535 -0.041304402 0.025119701 0.033662897 0.033907823 -0.027179155 -0.040179286 0.025420386 0.0356017
you 0.037748165 0.040977154 0.029993217 -0.021000072 0.022936454 -0.028623994 0.030876406 -0.031997576 0.020186804 -0.035695296 0.030501869 -0.0144305825 -0.03313287 -0.041373853 -0.015675174 -0.03068683 0.037649337 0.029656364 -0.024228644 0.024218148 0.028049547 0.028859308 -0.022979027 -0.037449043 -0.031589746 -0.028837394 -0.028431512 -0.020919826 -0.034655724 0.029016644 0.036254063 0.036933593 -0.039134666 0.029867092 -0.019142479 -0.031832673 0.029848382 0.03049983 0.021681864 -0.031378005 0.038479548 0.029157167 0.03071702 0.026476072 0.028418148 0.028898722 0.027911164 -0.018172173 0.029835397 0.029571837 0.021884264 -0.030078579 0.025861466 0.028802857 -0.034793954 -0.03137714 -0.015215075 0.03310334 -0.02232818 -0.023463527 0.035797648 -0.030678142 -0.024926053 0.014729355 0.0367765 -0.02288397 0.038401637 -0.024723697 -0.04109438 0.024105389 -0.021673782 0.032744687 0.028474737 0.040633246 0.036172595 -0.018503647 -0.036040712 0.03397519 -0.02539561 0.03403499 -0.031210268 -0.018366925 0.008217569 -0.02822132 -0.032912716 0.034214832 -0.037305433 -0.007037452 -0.019232765 0.021941265 0.04074368 -0.014007107 -0.02766525 0.04093744 0.027799929 0.025049556 -0.020474546 -0.021807909 0.02098392 0.025090758
can 0.043937117 0.032323267 0.04091934 -0.035960507 0.038292203 -0.034042 0.023762917 -0.036174856 0.029823672 -0.04507021 0.03097355 -0.030056175 -0.03178706 -0.041232124 -0.025448645 -0.04166722 0.044358853 0.030688684 -0.040238596 0.03813863 0.03134473 0.040903315 -0.030775074 -0.030947842 -0.02718887 -0.031287767 -0.033932764 -0.03475393 -0.039715458 0.047993846 0.04664469 0.042608883 -0.046654206 0.037470162 -0.04117118 -0.04526913 0.037518732 0.03124056 0.04435608 -0.029696561 0.03261628 0.024710255 0.035534494 0.04169315 0.030152598 0.031430386 0.039523505 -0.038073856 0.025715241 0.02989567 0.03471771 -0.04790762 0.04036356 0.03611421 -0.02146791 -0.03897594 -0.016657267 0.033141363 -0.02823533 -0.036740556 0.04408726 -0.027718827 -0.023836805 0.030830521 0.041268807 -0.031699337 0.03198913 -0.03920073 -0.026531989 0.03496827 -0.035970658 0.041592225 0.03463113 0.038605757 0.041339483 -0.026380464 -0.024025438 0.043995846 -0.036514066 0.0344093 -0.028227653 -0.01938274 0.011717158 -0.03732944 -0.039939567 0.018568682 -0.041071393 -0.02453161 -0.0364015 0.044185195 0.04559707 -0.041523293 -0.039068382 0.038190812 0.037920535 0.038176436 -0.039063364 -0.039804436 0.040837083 0.027585352
improve 0.021529574 0.02492824 0.031106533 -0.0326223 0.026685309 -0.028896065 0.023453014 -0.024623916 0.024713883 -0.026999103 0.013818053 -0.018090643 -0.02081108 -0.026079886 -0.028747616 -0.018246742 0.02019272 0.01932496 -0.02805754 0.017103579 0.019695913 0.02908948 -0.028310439 -0.026391935 -0.022976551 -0.018351372 -0.025455011 -0.030714402 -0.018193204 0.033300743 0.036719304 0.020103589 -0.022881525 0.025818583 -0.027110914 -0.033428077 0.02483267 0.023649137 0.026780197 -0.022285443 0.027104326 0.016041033 0.03324392 0.023354117 0.025438873 0.028979927 0.029241808 -0.015714247 0.01439395 0.027514003 0.01842412 -0.026299866 0.027202055 0.025001215 -0.019649666 -0.02704959 -0.02971357 0.015164312 -0.017593311 -0.03555679 0.027098792 -0.019864094 -0.02953396 0.013123979 0.025779992 -0.027822027 0.020956308 -0.027150147 -0.016967138 0.02841106 -0.024293479 0.021958666 0.031807445 0.0346901 0.02765024 -0.016504234 -0.025592044 0.026292846 -0.029428318 0.018555073 -0.021394007 -0.0050102496 0.00042318937 -0.03507974 -0.021243984 0.01800195 -0.02756109 -0.017006498 -0.02590406 0.023217801 0.026328677 -0.029873997 -0.018916052 0.024437198 0.01847847 0.029129826 -0.020394903 -0.028627433 0.031204691 0.035526805
code 0.038384996 0.03715685 0.024968926 -0.035351768 0.024119766 -0.029075926 0.03390596 -0.04090851 0.031636816 -0.033822276 0.019519286 -0.037627287 -0.035490423 -0.039057046 -0.026776442 -0.035948463 0.03547086 0.04123107 -0.029518755 0.023779245 0.024853421 0.043442205 -0.04064553 -0.02473532 -0.02788492 -0.030924022 -0.02520879 -0.029744048 -0.018962577 0.04240114 0.03303688 0.031957604 -0.036059074 0.025249409 -0.030163422 -0.02666843 0.042808678 0.040379327 0.032661103 -0.02898312 0.043159362 0.02403387 0.026641147 0.02596784 0.03401475 0.030897543 0.03275293 -0.02636724 0.025960159 0.03130633 0.038696293 -0.02744412 0.03339286 0.034406085 -0.037074868 -0.029830465 -0.01667644 0.037265588 -0.041426826 -0.02610971 0.037466146 -0.024140757 -0.022015207 0.027556024 0.029364135 -0.036556628 0.023069836 -0.02432361 -0.040802468 0.03885514 -0.04058996 0.027212135 0.03544306 0.032433577 0.029829947 -0.025544778 -0.040195275 0.03463841 -0.019230295 0.023003763 -0.030079223 -0.021393513 0.014840815 -0.025418894 -0.04164153 0.022628129 -0.028202526 -0.0064553106 -0.03549271 0.037150785 0.031764507 -0.036611807 -0.041484337 0.039156694 0.035133902 0.035866793 -0.024249945 -0.032313284 0.04098999 0.02789119
:) 0.029619383 0.028041633 0.035701465 -0.021968678 0.029654989 -0.024464367 0.03545826 -0.021062732 0.035915975 -0.035500452 0.023482045 -0.023010544 -0.039558664 -0.038997557 -0.016510459 -0.03318629 0.0369354 0.033523396 -0.03679515 0.025793774 0.039765105 0.031251952 -0.020130446 -0.028643003 -0.020256314 -0.03816212 -0.03912681 -0.03960494 -0.019545877 0.03281664 0.033387452 0.0283692 -0.0378199 0.025533278 -0.018139431 -0.02793311 0.03179575 0.029391414 0.025975442 -0.03866448 0.034793694 0.03307688 0.033681687 0.026643867 0.018882087 0.029152574 0.022268245 -0.030749066 0.026385378 0.036554407 0.036005355 -0.03155226 0.016611107 0.03457869 -0.027306294 -0.02034412 -0.02575507 0.017848806 -0.03306826 -0.026459498 0.028913785 -0.02727692 -0.033801753 0.040654663 0.036839023 -0.036962435 0.022257872 -0.0363658 -0.031108577 0.039989494 -0.03434716 0.019751523 0.034655116 0.039814193 0.038430333 -0.03864611 -0.023404494 0.026717914 -0.030138098 0.028676378 -0.023411008 -0.02229833 -0.00023502298 -0.035601933 -0.024298316 0.03025195 -0.028244937 -0.0054390244 -0.03522633 0.021820394 0.032098524 -0.023733603 -0.038624667 0.022021323 0.035397567 0.023291504 -0.038154695 -0.039703846 0.037768576 0.036176093
## -0.0011604117 0.0004170913 0.008790663 -0.010106025 0.0076178084 -0.011881484 -0.004397273 0.0051813656 0.004775561 0.0032849354 0.0036413595 -0.0052070133 -0.012048425 -0.00015843869 -0.01024421 -0.012722091 0.011336299 0.010795981 -0.010009071 0.0038275728 0.010709383 0.007708195 -0.0050319657 0.005428469 -0.007884155 0.000116151874 -0.0023044287 -0.001984334 -0.007133855 0.004816123 -0.00028566434 0.0040473426 -0.012462137 0.010501843 -0.003578601 -0.011598219 -0.00080466375 0.0052760225 0.00079135364 -0.011435808 0.0057305344 -0.0029434022 0.008184152 0.013951574 0.003867708 -0.001887378 -0.002153215 -0.007889402 -0.0039735874 0.008617172 0.0015080973 -0.01188239 0.0057412474 0.00047606416 -0.0086614285 -0.011865789 0.0025916253 -0.0045818863 0.00028544117 0.0006918019 0.005088908 0.0024071126 0.005416085 0.008984174 0.002281845 -0.013077087 0.010807205 -0.0028306842 0.0014215827 0.013290297 -0.01396639 -0.001500966 0.012660663 -0.0033467172 0.00018569513 0.0037273206 -0.0053332793 -0.004600473 -0.012933534 -0.0011867865 -0.0023328243 -0.009800496 -6.611529e-05 -0.010202809 0.005823115 0.0025864146 -0.007823294 -0.0025740722 -0.009905222 -0.0017175546 0.00024870387 -0.01183454 -0.0027666332 0.010233935 -0.0046770466 -0.0055093816 -0.0062653054 0.005780247 -0.0057155066 -0.0037123563
Advantages 0.0038055591 -0.002102646 -0.0060901237 -0.0017679142 0.0009767272 -0.0038255225 0.010615941 -0.010909286 0.004148987 0.0027105212 -0.005830249 0.0063554794 -0.007101413 -0.0021255282 -0.004598297 0.008253743 -0.0020641657 0.005220461 -0.01096615 0.0037986916 0.00706335 -0.0040543084 -0.0044711246 0.0024087487 -0.0044304724 -0.0006925203 -0.0023366166 -0.0012412405 0.0030684294 -0.0027349284 -0.0015250514 0.0005678693 -0.005377444 0.0057485215 0.0013232168 0.008736286 -0.0059228535 0.0010621825 0.0023353808 -0.008114582 7.883599e-05 0.0048053954 -0.00054457097 -0.0071670744 -0.0011862118 0.0014071522 0.007937884 0.008084303 0.0009213089 0.0035474189 0.0043208 -0.0011169986 0.0054175914 -0.007924837 0.0036527049 0.0008639003 -0.0069332155 0.0010213325 -0.0035726856 0.0040398715 0.0040424075 0.0013930224 -0.0063710846 -0.0071168356 0.00627242 0.0037073405 0.0053067077 -0.005078946 0.007137296 -0.008861399 0.0035535176 -0.00247436 -0.0019353745 -0.008133417 -0.006405677 0.006767663 0.002504584 0.0051494613 0.005551474 0.006511342 -7.942959e-05 0.0008306146 -0.0010285038 0.0054053077 -0.008268217 0.0007318902 0.0008163487 -0.007360837 -0.0024292395 -0.0034037959 -0.005098092 -0.010878205 0.00458278 -0.007383489 0.00761775 0.0005218915 0.0049351593 0.006623652 0.0019697035 0.0016258166
* 0.018413898 0.020728406 0.026804626 -0.014538258 0.0094351955 -0.012349419 0.012874518 -0.0076735253 0.027378537 -0.02153238 0.010176668 -0.012226351 -0.022072764 -0.025191147 -0.015755458 -0.009879326 0.023745222 0.00815815 -0.025328724 0.025687383 0.010665155 0.020115927 -0.013568352 -0.025892481 -0.018509148 -0.026457764 -0.0154071245 -0.0073345494 -0.021206865 0.028875466 0.01582351 0.022269862 -0.011452644 0.012377356 -0.01936447 -0.024041988 0.02473935 0.021390816 0.008984663 -0.023949215 0.018096212 0.01946667 0.023038788 0.018561365 0.011520541 0.0226012 0.02233327 -0.014309129 0.016256953 0.019693462 0.01806144 -0.018235927 0.0076422743 0.022611301 -0.01928 -0.010883904 -0.02433917 0.013906702 -0.00841553 -0.010311858 0.028322257 -0.019428885 -0.020932555 0.019907799 0.027052404 -0.018819587 0.012929189 -0.023420326 -0.022506816 0.026508136 -0.009219878 0.020993236 0.020288093 0.01809811 0.027441975 -0.010187664 -0.024715478 0.022396075 -0.025456538 0.025649182 -0.007723903 -0.011642778 0.0013849691 -0.013442779 -0.02616412 0.01813422 -0.008987561 -0.020275706 -0.022582993 0.011095018 0.02400028 -0.018755957 -0.024975434 0.01970218 0.022038933 0.013582808 -0.011574481 -0.027179092 0.020982744 0.024713362
Easy 0.0044220686 0.008991783 0.009904125 -0.011150552 0.012918096 -0.010501831 0.008290779 -0.015701685 -0.0010636915 -0.016910626 0.0089842845 -0.014829105 -0.015240593 -0.007101336 -0.010298558 -0.008966493 0.0022877366 0.015117154 -0.002945878 0.015346927 0.01058937 0.003319434 -0.009840005 0.00070487976 -0.0015827527 -0.009511327 -0.009295252 -0.003535301 -0.0059572905 0.007850808 0.007820155 0.0056069717 -0.018249752 0.008453931 -0.00011859427 -0.0118767815 0.00852804 0.0064260024 0.0012789501 -0.016723718 0.0020481453 0.0023084502 0.0057794903 0.014467383 0.009375079 0.016957218 0.0072555155 -0.0016078886 0.016072549 0.016986297 0.002225439 -0.011703208 0.013032461 0.0031144982 -0.017427055 -0.00079195015 -0.0014050828 -7.4688345e-05 -0.008924118 -0.017566314 0.012756694 -0.014504941 -0.017261157 0.015571358 0.016855044 0.00013384444 0.013565043 -0.010423626 -0.013668638 0.011406151 -0.017926095 0.007433576 0.0063378727 0.00596691 -0.0009803609 -0.005700264 -0.010622378 0.019176265 -0.010490339 0.004949011 -0.01246087 -0.017606584 0.007391352 -0.010762243 -0.0019746781 0.001811129 -0.019549511 -0.014804199 -0.008993849 0.0024598327 -0.0006259746 -0.015610738 -0.012450255 -0.00015566999 0.010020583 0.010542343 -0.012261266 -0.011341261 0.001896662 0.01664514
to 0.02839393 0.01159819 0.016609231 -0.014275134 0.018986817 -0.011492486 0.027972488 -0.027072642 0.015388548 -0.020553425 0.009519825 -0.014117619 -0.013691123 -0.02203113 -0.012072571 -0.021110142 0.014475965 0.02489271 -0.015960148 0.021748127 0.016679782 0.023726981 -0.021849645 -0.020270854 -0.010085589 -0.0136067225 -0.02764852 -0.021041332 -0.00508419 0.019479273 0.019652896 0.014844247 -0.02063278 0.005050147 -0.019490177 -0.021712119 0.01006681 0.026590789 0.018436389 -0.022305574 0.021108737 0.023657776 0.011543277 0.026280168 0.020638976 0.02419996 0.01855018 -0.011832828 0.014542845 0.015024259 0.026736518 -0.009183891 0.014895169 0.023032239 -0.016549371 -0.011221306 -0.026670832 0.01638379 -0.022600727 -0.026129402 0.0111014135 -0.009721982 -0.010396854 0.017898034 0.013505852 -0.011260702 0.0207147 -0.017237427 -0.018317934 0.025747402 -0.024361975 0.022318754 0.009567686 0.016919134 0.028195152 -0.025697902 -0.014408324 0.026749471 -0.010152125 0.011184492 -0.00978976 -0.016932067 0.00016588916 -0.014054664 -0.009457493 0.016245866 -0.026399378 -0.024839852 -0.016157417 0.022681672 0.016601259 -0.024015276 -0.026751913 0.022418085 0.02074675 0.008996869 -0.024333999 -0.011038421 0.01879803 0.01974386
understand, 0.012968378 0.019195475 0.020183936 -0.020386275 0.015635906 -0.011452322 0.0031201188 -0.011875634 0.0076109264 -0.003281761 0.004892904 -0.011174377 -0.011460312 -0.0062492443 -0.006197099 -0.004774535 0.012412415 0.012082184 -0.014756975 0.015586607 0.016846258 0.018881693 -0.00097130216 -4.8786053e-05 -0.0027505988 -0.01568533 -0.007835633 -0.005355885 0.00054354244 0.018182449 0.0150974225 0.007345828 -0.0012261085 0.0009769172 -0.0135352025 -0.0004484451 0.0091745565 0.01209029 0.017693436 -0.011054211 0.0071306447 0.007781289 0.010857311 0.010311048 0.020125201 0.016454805 0.0026715484 -0.010073727 0.0075909514 0.013610446 0.019034443 -0.015167832 0.008002977 0.009029017 -0.008032239 -0.018175896 0.0014372529 0.018493377 -0.0017623263 -0.01227957 0.01690616 -0.0011969666 -0.014889451 0.0030370387 0.013529594 -0.004927499 0.0031396188 -0.004484759 -0.01192747 0.019324532 0.00034444465 0.011255862 0.017608495 0.010268025 0.0077186255 -0.0068579405 -0.007809361 0.0050429883 -0.009877225 0.0037958575 -0.013451335 -0.0014015364 -0.0037775547 -0.0026240582 -0.0070254547 0.014695342 -0.011897792 0.00025303196 -0.008936371 0.014404414 0.0048643854 0.0005327293 -0.0077617657 0.011439543 0.016247747 0.012236644 -0.013698387 -0.0149194095 0.017771194 0.013280923
solid 0.0012354163 0.00714327 0.004417029 0.00358913 -0.0017612946 -0.00037503755 0.0034446022 -0.000850315 0.012723148 -0.0029190183 0.012110926 -0.011339338 -0.010824275 -0.0036197174 0.005937901 -0.004024966 0.014991513 -0.0010551076 -0.009614801 0.010934999 0.003148883 0.014693679 -0.0065823277 0.00033241243 -0.01026488 -0.0035932497 -0.006935139 -0.011699046 -0.0061365506 0.0026986562 0.0032389858 0.007963916 -0.0024787232 0.011247181 -0.0047581843 -0.012885388 0.014037775 0.007650589 -0.0011976954 0.0006465757 0.017197315 0.014914239 0.016232267 0.005771938 0.014853808 0.015703497 -0.00027110137 -0.0066885035 0.010886234 0.0056041637 0.0011509414 -0.013912748 0.00023005973 0.0056696455 -0.0067364965 -0.0072976844 -0.013212319 0.0036777589 -0.0028269223 -0.013786845 0.008430221 -0.0068519902 -0.0034895558 0.016014501 0.0020605389 -0.0076088356 0.011200016 -0.0057418677 -0.012494591 0.009640091 0.0007736803 0.012064507 0.00067743345 0.0076170824 0.0007825631 0.0016567917 -0.009486735 0.0008886581 -0.017475463 -0.00078332203 -0.004248656 0.006326671 -0.008727701 -0.009239794 0.0038022804 0.006682018 -0.0056230077 -0.006430937 -0.008762809 0.00049232517 0.0066581895 -0.0075463373 -0.009975969 0.009312085 0.0024954178 0.005849152 -0.01193683 -0.01080299 0.0053881556 0.009794233
extend 0.0160795 0.0077166758 0.0024427804 -0.0013233961 0.0071385116 -0.0068985336 0.006870404 -0.006977661 0.0025007748 -0.0029554116 0.006897532 -0.020361675 -0.020422934 -0.00797418 -0.0019901204 -0.0065154247 0.003552943 0.00991446 -0.020850468 0.0050571966 0.017924007 0.010476508 -0.011824889 -0.016752547 -0.016188538 -0.0014420539 -0.005390172 -0.0069433497 -0.007562569 0.00838741 0.018756012 0.015868042 -0.0035734312 0.011883562 -0.0029580002 -0.01514304 0.015902482 0.01804669 0.005931329 -0.010239653 0.012142852 0.017356142 0.01747623 0.014708486 0.006069241 0.010944312 0.004986061 -0.003546698 0.008403675 0.011396564 0.0023469934 -0.02025715 0.019405931 0.0062896702 -0.011506972 -0.017535016 -0.005527743 0.008055008 -0.003040391 -0.0019449656 0.0149369575 -0.0029013674 -0.016088722 0.008967781 0.018183222 -0.0065300725 0.014425587 -0.0013834022 -0.018609796 0.010621812 -0.01375723 0.009543614 0.009808486 0.0010898587 0.017013947 -0.015298847 -0.013113381 0.0132473735 -0.0042385324 0.008365142 -0.009311964 -0.016607841 0.0096803075 -0.0053439983 -0.0046993513 0.009098979 -0.012537381 -0.014004625 -0.018594775 0.0035445944 0.020340214 -0.002422187 -0.019748734 0.014868534 0.009638911 0.0040605194 -0.004496151 -0.016748317 0.017739879 0.020734716
for 0.017819414 0.0122901425 0.016846972 -0.0188334 0.016947428 -0.004474907 0.018795228 -0.017228175 0.01876029 -0.018367225 0.011816882 -0.013363891 -0.004730995 -0.020566342 -0.013029458 -0.0124185495 0.011969392 0.017849982 -0.019803824 0.01417847 0.0051530385 0.013765155 -0.0023946166 -0.008605852 -0.011886081 -0.0077741058 -0.02318329 -0.020760443 -0.011896789 0.0054419036 0.0043003093 0.007869609 -0.0067808996 0.010108804 -0.007579549 -0.006495675 0.004275861 0.019732209 0.012327465 -0.0110521 0.01616659 0.0063826945 0.0122247245 0.017764367 0.016187724 0.013755443 0.010968817 -0.011069785 0.021855026 0.0111335935 0.010071772 -0.016113102 0.01215601 0.018201549 -0.017529298 -0.019291122 -0.004455405 0.0062802723 -0.015297537 -0.01326298 0.011448572 -0.014494728 -0.011181582 0.017036507 0.010093939 -0.023824316 0.021463323 -0.013339499 -0.014325229 0.020192824 -0.01821244 0.015990306 0.02366186 0.016391248 0.021561122 -0.004709013 -0.009400492 0.019117743 -0.009491787 0.017215377 -0.006560039 -0.0044143964 0.004116208 -0.014233799 -0.022769196 0.022054888 -0.016897103 -0.003515204 -0.0138691 0.016452895 0.017437741 -0.01573711 -0.008125494 0.005041489 0.012327785 0.021157395 -0.015886502 -0.0072599603 0.0067750593 0.014363147
new 0.033001486 0.035163052 0.033527546 -0.030013496 0.015497783 -0.014187603 0.023264138 -0.017836757 0.02662808 -0.0152729135 0.01751512 -0.022443391 -0.020407327 -0.027982261 -0.02533746 -0.012069111 0.033268005 0.031221585 -0.035815995 0.022206113 0.025592491 0.01542875 -0.021271406 -0.03554086 -0.012133991 -0.016397018 -0.02574624 -0.019930813 -0.021566743 0.02289716 0.033836797 0.03481061 -0.01959544 0.017808953 -0.010762619 -0.017102549 0.018909937 0.015315375 0.024549205 -0.027298583 0.028393935 0.029226208 0.028936742 0.02872589 0.022640709 0.027068656 0.030258914 -0.026483458 0.0146683 0.019029344 0.030701665 -0.028126856 0.019210622 0.02723514 -0.03100645 -0.01300976 -0.02429637 0.010717 -0.029862832 -0.015885102 0.031630084 -0.017859941 -0.016789192 0.03163964 0.020008426 -0.031622883 0.017053677 -0.034373216 -0.016912445 0.032779243 -0.024978925 0.01669265 0.021061145 0.032464724 0.034419857 -0.008778875 -0.024436586 0.022891011 -0.017373193 0.026514092 -0.021819515 -0.017183673 0.0056692148 -0.027004845 -0.028002413 0.018974654 -0.034661923 -0.022266606 -0.016242081 0.016584218 0.020606857 -0.017860912 -0.029136155 0.014362189 0.025846299 0.016160421 -0.030327266 -0.022540065 0.01686155 0.024403283
experiments 0.011203506 0.005847639 0.011696403 -0.0065035257 0.016823739 -0.016294323 0.0051837545 -0.00426142 0.0044305483 -0.016484693 0.0054400545 -0.002156462 -0.008737847 -0.011393743 -0.00055604486 -0.014934633 0.01206346 0.013481378 -0.022984909 0.021834219 0.019514438 0.005703338 -0.022199161 -0.014002043 -0.0046911296 -0.012333542 -0.0099940915 -0.017839404 -0.016552452 0.015265094 0.010405886 0.013855836 -0.012783523 0.008973813 -0.011666612 -0.013388632 0.011106624 0.0034953984 0.006525922 -0.015541169 0.013569418 0.019091703 0.022238204 0.02054012 0.019855363 0.0060830284 0.005051392 -0.00788883 0.0068659587 0.02076473 0.021963201 -0.014257013 0.0055249077 0.017992698 -0.0054673906 -0.019190166 -0.016453696 0.016446477 -0.022186302 -0.009010039 0.017851425 -0.007599985 -0.016286427 0.0069680368 0.014944622 -0.01741141 0.02342245 -0.01671669 -0.009969863 0.00820898 -0.020989435 0.015449575 0.0046893945 0.017151635 0.0220123 -0.014259728 -0.022798598 0.011037675 -0.016010612 0.022911344 -0.015213259 -0.010810487 -0.0044516893 -0.019824278 -0.011369575 0.006377346 -0.01744303 -0.0042963894 -0.016630907 0.014505754 0.0059465277 -0.0065195123 -0.018883763 0.021312706 0.016762517 0.010686631 -0.007957382 -0.015514866 0.013184902 0.01880063
You 0.011512944 0.024220165 0.018413907 -0.023606522 0.02610888 -0.019139692 0.024841543 -0.017559247 0.026438983 -0.015790688 0.0031813285 -0.025039973 -0.01214443 -0.015558436 -0.01645876 -0.014713096 0.012656259 0.015823567 -0.026903395 0.016146637 0.013072838 0.020657213 -0.01217446 -0.007927411 -0.009161816 -0.01178703 -0.026085619 -0.020519957 -0.030264696 0.019482668 0.030316047 0.024589252 -0.018560437 0.019210894 -0.014869868 -0.020352561 0.013142798 0.018874843 0.015252151 -0.028447518 0.009197655 0.01553356 0.0139576765 0.00717472 0.012779452 0.02399396 0.009449882 -0.02390139 0.016013568 0.028490672 0.015189484 -0.01691598 0.02356122 0.01322736 -0.015469828 -0.017657708 -0.011935916 0.023723338 -0.019090123 -0.0282156 0.019477477 -0.021414187 -0.026043562 0.012385432 0.011033213 -0.026485734 0.02986332 -0.019902064 -0.02921486 0.01182315 -0.029101532 0.013081125 0.012653022 0.025294911 0.029909603 -0.014069165 -0.027349327 0.015849752 -0.009148204 0.029669132 -0.019107558 -0.016525835 0.0098479325 -0.028475113 -0.022429489 0.019623162 -0.019964168 -0.019288765 -0.030688116 0.02514168 0.02648066 -0.02658867 -0.0191962 0.021487845 0.017928455 0.020427715 -0.01867623 -0.024016265 0.025290059 0.026264315
try 0.008898849 0.0018335893 0.020850293 -0.009777645 0.01771892 -0.005754403 0.016401077 -0.008012527 0.0058096023 -0.008855408 0.008146271 -0.0020595416 -0.013932992 -0.012990628 -0.012077604 -0.007581452 0.0110645695 0.00042603433 -0.017589264 0.017934777 0.0068498985 0.0152036585 -0.009792036 -0.017087352 -0.0074724336 -0.01368742 -0.006007739 -0.01398679 -0.013915802 0.009465634 0.013580513 0.010980775 -0.018671054 0.004413387 -0.012507996 -0.0024734435 0.011259808 0.015159241 0.009140731 -0.016942918 0.010062288 0.010726199 0.0061625903 0.007512418 0.007433118 0.005575253 0.010308044 -0.02052274 0.016335698 0.00078992464 0.011649328 -0.008857366 0.018786589 0.019728106 -0.011797057 -0.020072132 -0.015390238 0.005609814 -0.009930648 -0.01644305 0.0018346291 -0.009024684 -0.00807385 0.01408456 0.017691879 -0.0054574395 0.008321416 -0.020830577 -0.015762538 0.0020708228 -0.013954053 0.009521119 0.010097655 0.009272612 0.01756446 -0.0052987607 -0.004875213 0.0077588344 -0.009483308 0.0010637753 -0.009606067 -0.011226125 0.0052591246 -0.00252386 -0.017564174 0.0075655663 -0.017058747 -0.006430052 -0.006600715 0.009085048 0.019064374 -0.007562055 -0.015231526 0.012129309 0.0025908328 0.018416187 -0.020082027 -0.016445098 0.0054946523 0.0053344145
advanced 0.017590621 0.009553285 0.016216803 -0.020549899 0.0093953805 -0.018295374 0.025813278 -0.01312156 0.015463442 -0.025600147 0.016782114 -0.022297863 -0.01254904 -0.013731857 -0.013443237 -0.013874065 0.019070914 0.01522107 -0.019072253 0.017401475 0.0080034165 0.022171425 -0.021058803 -0.017088521 -0.01800435 -0.016162435 -0.024334334 -0.012364499 -0.01730677 0.015278907 0.016732307 0.015887212 -0.021566143 0.009707186 -0.009055605 -0.02072336 0.015897103 0.022479353 0.023059653 -0.016552748 0.017716553 0.01102358 0.024601297 0.010626077 0.011320269 0.017940117 0.019341998 -0.021604601 0.018002862 0.015085885 0.008839412 -0.01010952 0.007646743 0.024559395 -0.02167511 -0.0063066 -0.011817173 0.012737768 -0.012247426 -0.012735938 0.012383133 -0.005488206 -0.020206206 0.020140577 0.020697005 -0.014087342 0.013684754 -0.0122008985 -0.00780976 0.025446996 -0.023960546 0.015803678 0.025219655 0.021728126 0.010651818 -0.019696483 -0.008333037 0.022504726 -0.013397397 0.020042019 -0.0120549835 -0.023005215 -0.00066776155 -0.007820612 -0.019135026 0.020312447 -0.020749586 -0.023976523 -0.010359298 0.0076464303 0.015211253 -0.014891496 -0.018973855 0.015585125 0.0103551345 0.015317665 -0.008076139 -0.02105455 0.012664152 0.020819614
learning 0.023316301 0.03333307 0.032651 -0.033439413 0.025796613 -0.021845475 0.028948996 -0.033039913 0.032223158 -0.027106192 0.02001617 -0.014644201 -0.02263192 -0.02803103 -0.025153691 -0.020253472 0.026646914 0.023937957 -0.015178475 0.023265345 0.025540246 0.03139288 -0.023333695 -0.013204886 -0.02213716 -0.01698048 -0.023895318 -0.020366145 -0.021629145 0.030663574 0.016927347 0.019149134 -0.03494991 0.029934496 -0.015359021 -0.035487123 0.026228746 0.030569302 0.03390386 -0.029768981 0.030539978 0.012975764 0.02451798 0.025151622 0.015857868 0.023989387 0.017568909 -0.017648011 0.030948764 0.016004648 0.026167018 -0.018456515 0.02558977 0.032171186 -0.023359004 -0.030849636 -0.014964308 0.016983561 -0.032302808 -0.026234316 0.022622444 -0.019492742 -0.011335167 0.028524369 0.021603175 -0.02212828 0.028612686 -0.027165847 -0.017884262 0.030365678 -0.01876757 0.019840943 0.026442762 0.032007538 0.026677435 -0.028433505 -0.030562647 0.03581238 -0.02215024 0.024933191 -0.024280423 -0.019944165 0.011136277 -0.025118573 -0.024268217 0.021619357 -0.032043897 -0.026442403 -0.016305294 0.0202672 0.021371419 -0.026081858 -0.02577073 0.020404615 0.021446206 0.03402766 -0.026260119 -0.014964495 0.026613962 0.025888521
optimizers, 0.021556944 0.013509446 0.028447436 -0.024623472 0.026846383 -0.021829307 0.016627543 -0.016361834 0.021166228 -0.015819 0.019424707 -0.028742215 -0.025459077 -0.023964655 -0.022545857 -0.0270128 0.017012399 0.017863689 -0.011444266 0.017620051 0.030777577 0.011749192 -0.009770876 -0.013729908 -0.016927486 -0.026848007 -0.0066528036 -0.023376163 -0.023854852 0.01789623 0.013788672 0.023248928 -0.02725328 0.018504184 -0.02007992 -0.019113287 0.029347148 0.021714903 0.025334582 -0.009244133 0.023634668 0.018817868 0.019179324 0.0236996 0.017564628 0.027010776 0.011320792 -0.016115962 0.025242548 0.015646849 0.022353435 -0.012925772 0.02740292 0.02306979 -0.02151176 -0.01548629 -0.0060983542 0.010075133 -0.026035337 -0.029419534 0.02462799 -0.015253647 -0.016948149 0.011916412 0.00967214 -0.026950281 0.01358464 -0.02436249 -0.011240258 0.025648918 -0.016243821 0.017202685 0.02653271 0.025979256 0.012354505 -0.02021948 -0.018940222 0.013652935 -0.016490605 0.027985225 -0.007860191 -0.027391113 0.0137695335 -0.014810683 -0.013836044 0.014654227 -0.028136013 -0.016531784 -0.019849563 0.0072475784 0.019687217 -0.020121787 -0.016730662 0.025047477 0.018784238 0.012523642 -0.0172674 -0.026356298 0.027006067 0.015945327
technics 0.014216154 0.033166874 0.021110408 -0.018107712 0.008457064 -0.021102594 0.029793354 -0.020322211 0.00832648 -0.018936735 0.016740365 -0.02423921 -0.022260735 -0.018761158 -0.013699187 -0.012424968 0.019665945 0.019510675 -0.01541633 0.02304896 0.027639944 0.026896182 -0.016935369 -0.006753639 -0.015437545 -0.028435461 -0.015927047 -0.02876418 -0.022489458 0.025719281 0.028304717 0.027852919 -0.027234338 0.018865626 -0.011019211 -0.017320503 0.027740965 0.026521042 0.019223657 -0.025995327 0.013603532 0.01563367 0.014497772 0.025291933 0.025676273 0.029915536 0.010898467 -0.017689392 0.02711273 0.022049315 0.016269367 -0.030369544 0.026629373 0.022345476 -0.013164243 -0.01921653 -0.027890997 0.017919572 -0.033244807 -0.01013992 0.021990364 -0.024535084 -0.021765582 0.02662974 0.033233985 -0.02027305 0.018211862 -0.017422637 -0.02199839 0.012983244 -0.027612582 0.024157323 0.022422679 0.025804868 0.032606833 -0.030042564 -0.023259146 0.016689876 -0.012694562 0.02702523 -0.030227289 -0.03268795 -0.002426534 -0.022633975 -0.025407644 0.018692734 -0.029548606 -0.008381824 -0.016073951 0.03367436 0.020127764 -0.025398167 -0.030246392 0.029469004 0.02464524 0.014048711 -0.01036991 -0.032025855 0.033751354 0.023803165
GPU 0.0005980984 -0.0010448559 0.008792564 -0.004661465 0.0025784974 -0.006773814 -0.0040333937 -0.009470084 -0.001350328 -0.0067206724 0.003052351 -0.0067528947 -0.012474371 0.0029242989 0.0046321214 -0.0023721494 0.002929347 0.008982651 -0.006019965 0.004994624 0.0024152142 -0.005067965 -0.0109384665 0.002133722 0.0065199803 0.00013723574 -0.003832511 -0.008001083 0.008978585 0.0022356603 0.011257308 -0.005719366 -0.0030163196 0.0080463905 0.004152809 -0.010960253 0.009462493 -0.0024833663 -0.0005922774 -0.012011686 0.011555987 0.0077223987 -0.005335625 0.00475262 0.00945657 0.0027846545 0.0004431532 0.0021592833 -0.0002383599 -0.0039828513 0.011543027 0.0027076998 0.00046816026 0.0007388253 -0.01280972 0.008915975 -0.0013189921 -0.003917417 0.0058650486 -0.0033230144 -0.0017147977 -0.004717711 -0.01158423 0.0066658305 0.004030878 -0.011446264 0.00011477561 -0.009754898 0.0014827696 0.0028593293 0.0016553807 -0.008877477 0.0004210763 0.0071524084 0.011070869 -0.009009015 0.0042414893 0.004042825 -0.010836168 0.007685972 -0.006807057 -0.002888654 -0.009502522 -0.0069752736 0.0043811677 -0.006776129 0.003968923 0.004784243 -0.004021235 -0.006322801 -0.0027536545 -0.0020708228 -0.0033870055 -0.0022349902 -0.0060731824 0.00433275 -0.0021404694 -0.0052893027 -0.0012995113 0.004015267
support -0.003305242 0.009162639 0.0018312166 -0.0081661735 0.0036406391 -0.011212003 -0.00655292 0.005665997 7.985835e-05 0.0028495612 0.0024986004 -0.0041189264 -0.0030398264 -0.0014076089 -0.0069915014 0.00014739239 -0.005481919 -0.0048558433 0.007866427 0.005852651 -0.005590345 0.003932462 -0.010175077 0.0031774724 0.010054883 -0.003937307 -0.012259826 -0.00410981 -0.0069486275 0.0074815876 -0.0041769044 0.0028227945 -0.00785426 0.0074577658 -0.005927807 0.0015033431 0.0037204614 0.006349205 -0.0030187047 -0.0019002426 0.0036820234 0.005430245 0.0068442435 0.0090985745 -8.156244e-05 -0.0013803979 0.008602136 -0.004331844 -0.0066508157 0.008868791 0.01149717 0.0015914998 0.005192602 -0.0037360974 -0.0021183528 0.0038915596 0.0025369427 -0.0013675811 -0.011940477 -0.001153256 -0.0020925077 -0.008070035 -0.006990866 0.01036235 0.0064783264 -0.0031419666 0.009724464 -0.0035057454 -0.00677944 -0.0044031157 0.006597358 -0.0065197274 0.0064711496 0.012983105 -0.005510444 -0.005330269 -0.0112634115 -0.006191493 0.0039637517 0.006437591 0.0043954663 -0.0023723282 0.00045354548 -0.0076620784 0.0035847696 -0.004531432 -0.0013604808 -0.009845243 -0.0006335712 0.0004015665 0.0016718097 -0.008634274 0.00015049148 -0.0047246916 -0.002843251 0.010706072 -0.010830458 -0.0054599256 -0.007886287 -0.005121338
Supported 0.0076071336 0.0007649085 0.011038812 0.0028908658 -0.002636117 -0.007867247 0.0012761533 0.002124489 -0.004957404 -0.0021948824 -0.0041264887 0.0035608106 0.002366853 0.0052346946 -0.0037406827 0.004655474 0.005016347 0.0066031744 0.0031732288 0.005405196 0.0009837443 -0.0028752265 -0.008323416 0.0065602474 -0.01264025 -0.00789348 -0.010009446 -0.005758344 -0.005771467 0.0057189856 0.0064181536 -0.0013333485 -0.005758059 0.008244486 -0.014848608 0.0057241893 0.0008426744 0.0010661348 -0.004092157 -0.0013647117 0.014925475 -0.0035341908 0.013037503 0.004979472 -0.0013683252 0.015395563 0.007442121 -0.008165619 -0.0030570999 -0.004415566 0.014453534 0.00011607376 0.00675497 0.0031204382 -0.004544989 -0.0065866965 -0.0063577453 0.0041700844 -0.0028936402 0.0011348278 0.0048592617 -0.0033986773 -0.013243771 0.009520481 -0.0060910406 0.0005232083 0.008813976 -0.003554476 -0.012000663 -0.0038549365 -0.0070498427 0.012275558 0.004493029 -0.0022245878 0.0036111935 -0.0037284615 -0.012440403 -0.0007032282 -0.014920997 -0.0052259336 0.00033007562 -0.0038366742 0.013187252 -0.009889691 0.002752436 0.009810646 -0.013170322 -0.008949358 -0.0036693644 -0.0026484895 -0.0023900294 -0.008545081 -0.007717106 0.0011183504 0.0046795183 -0.0033900102 -0.0019780798 -0.0019435002 -0.002561476 0.013192518
features 0.015434155 0.0057426244 0.017831437 -0.011543652 0.0071909414 -0.014700614 0.014198903 -0.0052166698 0.003958861 -0.012388191 -0.0059690764 -0.017289761 -0.011108612 -0.006648547 -0.0059523443 -0.010144291 0.01602891 0.015605579 -0.011764795 0.0070359968 0.007071977 0.007002224 -0.012132086 -0.0018729486 -0.015864652 -0.0010672954 -0.013195878 -0.0043452573 -0.017888272 0.0017644468 0.014207021 0.017249197 -0.018955193 0.015049631 -0.014327409 -0.0006578249 0.007619653 0.0075885444 0.016050115 -0.0023843953 0.0105048865 0.014452504 0.00040901382 0.014957136 0.015873704 0.016129985 0.008777636 -0.014431273 0.0029814595 0.0090238545 0.0031928383 -0.01584988 0.004699823 0.0038932906 -0.0039723394 -0.019470442 -0.013918684 0.0054393695 -0.00011874875 -0.006976533 0.0048382594 -0.015222929 -0.017714392 0.006832383 0.0066752615 -0.01685219 0.0062011844 -0.008162554 -0.00067831064 0.009029795 -0.01425979 0.0073792115 0.016858568 0.0020595086 0.009543359 -0.017804792 -0.013933422 0.0063699936 -0.002297913 0.009747302 -0.0017765587 -0.0006018203 -0.009318282 -0.0011836896 -0.016768845 0.011814171 -0.008402403 -0.005511239 -0.018812817 -0.0028522073 0.009236342 -0.017172784 -0.014573529 0.008809694 0.0053166356 0.014808108 -0.018411718 0.00028402056 0.010546114 0.019338122
Skip-gram -0.004314183 0.0066918377 0.0012971209 0.009956127 0.006236324 -0.002651094 -0.0033408855 0.008443551 0.005611391 0.0053491695 -0.0029229461 0.00861709 -0.0072478256 0.005121275 -0.008939887 0.007892743 0.0031960253 0.0009791348 0.004446338 -0.0063013444 -0.00035825 0.0036409236 0.008377435 -0.004715843 -0.0041814684 0.0030350294 -0.0006023804 -0.005371593 0.008518852 -0.0047710896 0.007486554 0.0033007003 0.008555172 -0.0015962413 -0.0006102156 -0.005517826 0.0031784382 0.009949015 0.0035628993 0.008327816 0.0070399735 0.003767495 -5.891826e-05 -0.00011488795 0.00680623 -0.006765728 -0.0044649565 -0.0021028863 0.00095548853 0.0098805465 -0.009962804 -0.0018346747 0.0065081734 0.0010431586 0.006424999 -0.008390561 0.0035020793 0.007717509 -0.0053907367 -0.0057497513 -0.004242556 -0.008871265 0.008083429 0.003235872 -0.007654315 0.0058474746 -0.008347861 0.0050056875 -0.007870193 0.0096278805 0.004644718 0.0039348174 -0.0054789125 -0.00016305596 0.009375572 0.008794246 0.0073908977 0.007615147 0.0037071155 0.0036098463 0.007926259 0.009081772 -0.007851572 -0.006845548 -0.008329099 0.001226169 -0.0010466948 0.0035963329 0.002761363 -0.004764693 -0.0006182166 -0.006942806 -0.0076745786 0.0068588257 0.009788012 -0.0068338187 0.000509548 0.006999947 0.0068559237 0.0046135746
Batch -0.006097176 -0.004198104 0.012765151 -0.0039586043 0.0068860915 0.0024831907 0.011461424 -0.0051951595 0.011914444 0.0049143853 0.004316076 -0.0016186015 -0.0009866684 -0.012203056 -0.006706449 0.006010373 0.005384046 -0.005425809 -0.012716511 0.0056028524 0.00049109233 0.007635371 -0.003774744 -0.010342473 -0.005825021 -0.0068653147 -0.0028338986 0.0021126727 -0.0024433983 0.007959295 0.0068326043 -0.002750381 0.003087004 0.0077903215 0.0038216272 -0.0019017053 0.008682377 -3.877224e-05 0.007827865 -0.00044620258 0.0049973447 -0.004929598 -0.002657699 0.00084035087 0.007594404 0.0071554766 0.006102709 4.7010253e-05 0.00016402837 0.002308506 0.003991239 -0.009369535 0.005971144 -0.000898718 0.0042168223 0.005795408 -0.00554684 0.00047794718 -0.0018726209 0.002848763 -0.0057119844 -0.007548303 0.0060561188 -0.0058653476 0.0066090315 -0.0063885273 0.0034321717 0.005362315 0.002581348 0.008663858 -0.011825993 0.009101693 0.012120599 0.004538805 -0.002577289 -0.0021312272 -0.010188171 -0.0030999659 -0.0029023287 0.005500553 -0.01010191 -0.0053580767 -0.0026598317 -0.0062279594 0.0059821424 0.004088631 0.0047808145 -0.0038178116 -0.008477416 -0.003375632 -0.003049368 -0.0026134853 -0.0019340807 0.0029123682 -0.0052574887 0.009754467 0.0043834606 0.00040689064 -0.006020806 0.011859487
update 0.004742087 -0.0025872325 0.0030690008 -0.010694769 0.0119502125 -0.009583447 0.012412572 -0.00852519 0.0011510596 0.0011722465 0.013555013 -0.0021687401 -0.011497032 -0.011406695 -0.009493028 -0.0037182327 0.012820708 0.008679396 0.0020534813 0.01096981 -7.7181496e-05 -0.004112524 -0.0059003485 -0.0020216596 -3.224332e-05 -0.010250779 -0.003984184 0.00018060638 -0.010682147 0.0115071 0.0027347915 0.01052175 -0.0026285583 0.008968198 -0.00055237056 -0.008447524 0.0065696654 0.014292819 0.0049788808 -0.0037412846 -0.0014384226 -0.0006840802 0.013910885 0.01178818 0.005249877 0.012386223 0.0030054618 0.00096656464 -0.0016205956 -0.0010588925 0.008680125 -0.007838961 0.009964209 0.0033292584 -0.010617266 -0.004596652 0.0007484121 0.014001443 0.00014814863 -0.014459689 0.0018720346 -0.013684436 -0.009461065 0.01098611 0.0035562473 -0.0072165946 -0.0030321628 -0.0011638434 -0.010858676 0.0033241753 -0.0038990856 0.0053342655 -0.0015286728 0.0022107223 0.0120111 -9.7633805e-05 -0.00970283 -0.002130045 0.0034812624 0.007864323 -0.013016582 0.00029604777 -0.009284931 -0.008130429 -0.0034792386 0.0018376681 -0.008732073 0.00660129 0.002172582 0.0051573757 0.0057838447 -0.0045466255 -0.00084498606 0.013275076 0.00016192847 0.01086887 -0.011761552 0.0010061711 -0.0036088247 -0.0040961546
Cosine 0.004541115 0.0050511714 0.006557443 -0.0014582219 0.003592043 0.0006816522 -0.0021858057 -0.0005293712 0.0067443205 0.003458255 -0.0015549653 -0.004763865 -0.0036964356 -0.0009736477 0.0031013996 -0.0034644622 -0.0057832086 0.005159856 0.0064259716 0.008187422 -0.002703429 -0.0007347745 -0.0077632465 0.0031620692 -0.005063059 -0.0046782335 -0.0015822704 0.0036978573 -0.006246616 0.01275151 -0.0009442788 -0.004318365 -0.010139101 0.001523033 0.005580955 -0.006214401 0.0075335833 -0.0054578995 -0.0062992126 0.0022317418 0.00047173328 0.008474072 -0.005366865 0.008188973 -0.0014044065 0.009835231 -0.0033879965 0.0050724084 0.010339153 0.00501556 0.0070555024 -0.0006262065 0.0051501575 0.007578743 -0.010504486 -0.005540355 -0.011964257 -0.00021845126 0.0010103752 -0.0022417512 0.011399837 -0.009581438 -0.0070498027 0.0023920457 -0.004751579 -0.008879842 0.003145644 0.0064522214 -0.009142892 0.009854311 -0.0071768216 -0.0013647361 0.0019368706 0.00832162 0.008233239 -0.0068282383 0.0035695697 0.0026771622 -0.0016156599 -0.0063028494 -0.011438723 -0.00973701 -0.0067254715 0.0030112274 -0.00052708096 -0.0005836665 -0.002727068 0.003074971 0.0014461844 0.008811559 0.0021507633 -0.003201448 -0.0006161948 0.0037294421 -0.0058756866 0.009686447 -0.006575876 -0.004761878 0.0020907305 -0.0007208348
Annealing 0.005538717 0.00774738 0.0034123748 0.00032377045 0.011849249 -0.0057086884 -0.0003303613 0.0077188443 -0.0051016645 0.00728318 0.0113846 0.007243982 -0.0075784326 -0.0070437556 -0.0061782934 -0.009066026 0.0066006547 -0.00065847044 -0.009849763 -0.004104083 -0.007724708 0.009347441 0.0019168478 -0.0013402493 0.0069371774 -0.0012926807 -0.002632988 -0.001968545 0.005585856 -0.00061618 -0.0078241015 0.010576994 -0.0035750964 -0.0067713857 -0.010363506 -0.00431416 0.006102926 0.0010244075 -0.00768432 0.002929737 0.011850861 0.011184784 0.0030417833 0.009974782 -0.00093788945 0.0025659245 -0.007769094 -0.006327447 -0.0067900373 0.011154018 0.009126082 0.007066355 -0.004707859 0.011383878 -0.009609503 -0.0013197176 2.3386674e-05 0.0083943475 0.005790418 0.0024857686 0.0067998795 -0.0057396493 -0.006892673 0.0016449378 0.008126017 0.0068989606 0.010086984 0.006519354 0.0006859917 0.004227466 -0.0045545083 0.0096409675 0.008107724 -0.006297829 0.006761841 0.002194324 0.00028398633 0.0038114109 -0.0011110902 0.008337659 -0.011893049 -0.007466557 0.0075071454 0.00437945 -0.001411762 0.0023442141 -0.0017475323 -0.0071893004 0.00041238382 0.0042456714 0.00010838313 -0.001364187 -0.0038971454 0.0036487994 0.006591429 0.00830454 0.002416233 0.0036401222 0.007925349 0.0051647294
Negative 0.011894562 -0.00091544853 -0.00054989883 -0.0027402123 -0.00631856 -0.004424799 -0.0041414164 0.0017418273 -0.0014911225 -0.0034410716 -0.0055963574 -0.007459849 -0.004948847 -0.010621966 0.0052953395 -0.003996999 0.012079846 -0.001055506 0.0060152984 -0.006740035 0.012506609 -0.005018451 0.0046617663 -0.0071776393 -0.0065169507 -0.008412201 -0.0050156447 -0.0117395595 -0.0045520226 0.01160322 0.0058938107 0.0017666904 -0.008717288 0.004461023 -0.0017013906 0.0050045056 0.0071735983 0.00374672 -0.0057248543 0.0056338245 0.012742296 0.0071490663 0.0059491997 -0.002730805 -0.0037309616 -0.0066756955 0.003275976 -0.008284639 0.011882985 0.00034822326 0.012495799 -0.0043217693 0.0042648893 0.012558162 -0.0043008723 -0.008948785 -7.0140115e-05 -0.002893718 -0.0037167342 -0.012995 -0.004524146 -0.010827535 -0.005690676 0.0062941913 0.00859682 -0.006781635 0.00859803 -0.0056109303 -0.0047029466 0.00857523 0.0015327494 0.011430888 -0.0012285893 -0.004047914 -0.00019363442 0.0029232996 -0.008225536 -0.0025042035 -0.007810283 -0.0066180704 -0.005878972 0.0035923598 -0.0034500377 -0.001268726 -0.0056399405 0.0070062187 -0.01092258 0.0032814215 0.006447139 -0.005367919 0.0048306733 0.0037129123 -0.012213587 -0.0007782435 0.0007435564 0.0052810796 -0.0009492178 -0.0048361314 -0.0065316944 0.0061351946
Sampling 0.0031108875 -0.0056543713 0.010035062 0.004699642 0.0050945906 0.0038104737 0.0028770007 -0.008588893 -0.0058172727 -0.007986457 0.0128939925 -0.0010284283 -0.013861075 -0.003702133 0.0070849545 -0.011754251 -0.0005813822 0.00991305 0.0031172414 0.005983815 0.0019245254 0.0016491462 -0.009815288 -0.0014672076 -4.5070774e-05 -3.827957e-05 0.004163022 -0.012947031 0.00016430859 0.013161196 0.0051907995 -0.0015060179 -0.013747761 0.0009228549 0.004870578 -0.0046756873 0.0049989577 0.0019406152 0.008013699 -0.011205326 0.0014860944 -0.0028522492 0.0022861059 -0.0029442105 0.010427167 0.0001469152 0.00494276 -0.010172684 0.013083308 -0.0019382155 0.010740586 0.0049336804 -0.0031503895 0.0017530073 -0.003541177 0.00022998487 -0.011902722 0.0031800456 -0.010093789 -0.012401146 0.01122111 -0.0027144921 -0.001809027 0.011648982 -0.005373854 0.0036989953 0.011289332 -0.0033241757 -0.01145466 0.013676867 -0.0008326266 -0.005831931 0.007752777 0.0021664542 0.0012857697 0.0005469809 0.0047385516 -0.005745938 -0.0010873186 0.0040990203 -0.008261345 -0.003925225 -0.0029475521 -0.011153474 -0.010885766 0.0062189098 0.0015299432 0.0048761102 -0.01160858 -0.005472578 0.0115754735 -0.011521274 0.00027506077 0.009696398 -0.005379838 -0.005038945 0.0002803069 -0.005545617 0.0044847815 -0.0021421937
Sub-sampling 0.0063124383 0.0028352335 0.015112115 -0.008457449 0.008346925 0.00065728044 0.004295146 -0.014055784 -0.00068481755 -0.011487943 0.008876301 -0.0030187774 0.0023033079 -0.0029221321 -0.010621194 -0.0075729513 0.014502629 0.0068993606 0.0029639623 0.010171918 0.012784662 0.013007473 -0.014151347 0.0019533837 -0.010012836 -0.01690631 -0.007894162 -0.008767916 -0.009130535 0.0070621567 0.008990493 0.0039819325 -0.004101167 0.0020914301 0.0017620712 -0.013198873 0.015159532 0.015378518 0.00065136957 -0.0065804017 0.008555167 0.013225028 0.00919137 0.0014032188 0.01537133 0.013101601 0.010143706 -0.010049466 0.00139635 0.002783104 0.008119043 -0.011103853 0.015834995 0.006284987 -0.0021534446 -0.007562892 0.0001889976 0.010953467 -0.0112879705 -0.016590212 0.013333845 -0.0044952463 -0.015771283 -0.00040389528 -0.0011496797 -0.001579647 0.014808836 -0.00497072 -0.009149111 0.014052095 -0.006600861 0.0016727101 0.013617808 -0.0017412129 -0.00027568277 -0.006143865 -0.0048758453 0.009296512 0.0029088936 0.007363139 -0.010801493 -0.012302831 -0.0077985404 -0.00022469298 -0.011764868 0.008453511 -0.010236779 -0.0011768155 -0.00010872062 0.0122942515 0.015392831 -0.002860626 -0.00942462 0.009790652 -0.00023736898 0.008393727 -0.016902754 -0.011322089 0.0041960073 0.01374499
of 0.0007207929 -0.00042686798 0.0052631926 -0.009414291 0.015726067 -0.013973714 0.012573167 0.0009502056 0.012653493 -0.008756028 0.01222811 -0.004790521 -0.015902862 -0.0036749453 -0.00313339 0.00091909035 0.007605555 -0.0009356495 -0.008491205 0.0019650408 0.003691186 -0.00029351993 -0.012021403 0.001571675 -0.0063810865 -0.0026750406 -0.0019351442 -0.011663586 -0.00056491187 0.004890159 0.013883382 0.016238987 -0.012826866 0.014813684 -0.015837997 -0.006408031 0.016888123 0.010860535 0.0015210848 -0.0121613415 0.010264623 0.007772229 0.0025622812 0.0063123885 0.010652454 0.010036789 -0.0016499379 -0.0057149627 0.0073189125 0.0023109298 0.013809613 0.0023729044 0.007825299 0.013980551 -0.010245145 -0.013743927 0.0043655206 0.015024799 -0.011743084 -0.010493949 0.00041038333 -0.013304948 -0.01356235 -0.000172548 0.0053759636 -0.0025006477 -0.0005965807 -0.0049349973 -0.0040768646 -0.0025473805 -0.009622028 0.009210554 -0.000164598 0.01578101 -0.0024794876 -0.0080953315 -0.013685177 0.009385766 -0.010675091 0.012826088 -0.010534505 -0.0081111975 -0.00015260873 -0.0031781695 -0.012445995 0.002162056 -0.014783332 -0.014769353 -0.013773608 -0.0028859037 -0.0018103528 -0.013711518 -0.0039034192 -0.0028866602 0.0046323994 0.014226359 -0.0066751637 -0.012929212 0.016269552 0.014011404
frequent 0.0149648385 0.016042724 0.01821012 -0.015247052 0.0064073172 -0.019306736 0.01311292 -0.015454918 0.004196315 -0.007029256 0.017683262 -0.018884432 -0.017357286 -0.014465505 -0.017729102 -0.016274381 0.005402966 0.019432504 -0.019823015 0.017705059 0.0083535155 0.0013711872 -0.008474102 -0.0066465167 -0.012380215 -0.008494299 -0.015295146 -0.016285233 -0.0070324857 0.010121808 0.010974528 0.00570001 -0.0030776197 0.0102312565 -0.00096624624 -0.0010996776 0.014013873 0.007911869 0.010582262 -0.0074717505 0.0155220665 0.004775067 0.000724587 0.008580524 0.01913309 0.005818599 0.00887038 -0.008636665 0.009268183 0.012807039 0.010648754 -0.016586494 0.010024042 0.0047648703 -0.0010973389 -0.018722473 -0.009046191 0.006619182 -0.008601839 -0.0050145676 0.015368429 -0.014676823 -0.016094534 0.005156502 0.009700675 -0.018081523 0.004437565 -0.0023016455 -0.013378457 0.014150042 -0.014775868 0.006958478 0.018490825 0.0049099196 0.01000053 -0.014591007 -0.016064968 0.0052866726 -0.0007297499 0.0037941341 -0.0068371086 -0.019095542 0.005875437 -0.006771274 -0.007215487 0.015230358 -0.0040914956 -0.0019450478 -0.011470739 0.0074995663 0.0019110865 -0.01653013 -0.008811715 0.019356413 0.019680608 0.0015692139 -0.005472031 -0.0072011086 0.017586512 0.0029256619
word 0.0015063868 0.0056487243 0.008499113 -0.0016186344 0.0066604065 -0.0071343356 0.011153761 -0.0025520744 0.0024952027 -0.006462807 -0.0024223481 -0.0041964585 -0.007813861 -0.012956175 0.0001113388 -0.014110794 0.006329084 0.005506375 -0.0069325916 0.0064639263 0.003115836 0.01740798 -0.0056234607 -0.011680361 -0.016881598 -0.013523727 0.0012368015 -0.015591702 -0.012165896 0.014361683 0.009937057 0.0018601868 0.0017638966 0.010178858 -0.014140481 -0.010453741 0.0060680457 -0.0012412125 0.0066548698 -0.011218688 0.009503518 0.0025579575 0.008894778 -0.00010134978 0.015432462 0.016726783 0.007953675 -0.007874287 0.00289361 0.006445667 -0.0019927016 -0.007932314 0.012176682 0.0057288655 -0.0021887696 -0.010536626 -0.008006923 0.0076927403 -0.014029971 -0.014401519 0.0023458945 -0.0012257148 -0.016012551 -0.00018436089 0.010876306 -0.008533503 0.017065357 -0.015036995 -0.004239943 0.00602551 -0.011133554 0.0035681115 0.0104580065 0.002595351 0.000349605 -0.009231058 -0.017055638 0.017973652 -0.008537139 0.017022032 -0.0153948525 0.00036366866 0.0018124159 -0.0020086006 0.0011487886 0.017845629 -0.0012901465 0.002484161 -0.016919356 0.0074916673 0.0025536346 -0.00084865896 -0.0037049023 -0.0012306079 0.0032291412 0.017827436 -0.0022654384 0.0010430744 0.015696421 0.013347717
