523147 100
Plants -0.16471677 0.16071297 -0.17646325 -0.17333017 0.1713424 -0.17630708 -0.17178956 -0.16184893 -0.15220053 0.17327915 -0.16878882 0.16043878 0.16713883 0.16704522 -0.1688885 0.17633611 -0.1753244 0.16459775 -0.18064258 -0.1729738 0.17763844 -0.17740743 0.175822 0.17737532 -0.17526196 -0.16316445 0.15520443 0.1717026 -0.17288013 -0.16674659 0.16860987 0.17448318 0.16344807 -0.162782 -0.1566085 -0.17329393 0.16803654 0.16238871 0.1763309 -0.17623492 0.16754745 -0.17901199 -0.17648426 0.16682373 0.17784415 0.17035165 -0.17023791 -0.18242797 -0.17878766 0.16815512 0.18136662 -0.1793987 0.17757374 0.18001945 -0.17692402 0.17775525 -0.17060167 -0.1637043 -0.17390013 -0.1750574 0.16853683 -0.16493964 -0.17672257 -0.17947327 0.17120323 0.16727063 0.17226112 0.16584201 0.07856019 -0.16543846 -0.16294266 0.1717253 -0.16623226 0.18953425 -0.17596611 -0.16939688 0.1758179 -0.17297974 -0.16976333 0.17605068 0.17880797 0.1760247 0.1806268 0.17384848 0.166837 0.17597006 -0.17657554 0.17906316 0.16996819 0.17586349 0.17329933 -0.17734414 0.16834971 -0.17874312 -0.11540348 0.18448935 0.17571175 -0.1816787 -0.17276506 -0.18019547
can -0.2258512 0.043043256 -0.14354861 -0.19656241 0.06678773 -0.09634344 -0.080797054 0.012601029 -0.26902333 0.19421521 0.008764866 0.27784744 0.19499786 0.18044767 -0.36665362 0.127338 -0.04703363 0.09548089 -0.43168932 -0.12074123 0.2707263 -0.15599176 0.44189158 0.105619475 -0.17114902 -0.1347706 0.34234568 0.13958067 -0.09964113 -0.09961021 0.019686205 0.14833228 0.031184401 -0.054778755 -0.42959768 -0.040249366 0.20278841 0.07940696 0.07767129 -0.09344837 0.21321253 -0.10208724 -0.29561675 0.13596907 0.057184566 0.03374151 -0.06664798 -0.20816426 -0.14204708 0.16083337 0.15918164 -0.4246996 0.023233477 0.14982733 -0.30005622 0.19310771 -0.45101658 -0.16546515 -0.049489368 -0.017541254 0.04843431 -0.16757137 -0.06174821 -0.11213895 0.088034056 0.18440259 0.14883937 0.10690927 -0.07678054 -0.12040586 -0.08838203 0.35634226 -0.44505823 0.62196 -0.12462535 -0.24466752 0.111912936 -0.1885582 -0.23866482 0.37154004 0.021237466 0.10249594 0.15939456 0.13097768 0.098614976 0.2372653 -0.0569285 0.01992864 0.11015927 0.1364387 0.256515 -0.11139277 0.07978152 -0.03867652 0.32287624 0.10975884 0.059006754 -0.305139 -0.11325588 -0.13710804
do -0.17835619 0.11382178 -0.16105466 -0.19375159 0.11385681 -0.14546405 -0.12668155 -0.07019268 -0.14732154 0.18218902 -0.05277358 0.21887004 0.19807519 0.1808498 -0.26796392 0.15179396 -0.098044485 0.11899396 -0.33444503 -0.12272249 0.23239426 -0.15497918 0.44450685 0.12479235 -0.1706496 -0.15031847 0.25214225 0.14528589 -0.14262934 -0.14180882 0.080403715 0.16247672 0.06709006 -0.13720384 -0.30432937 -0.10258071 0.17413244 0.118561044 0.115819715 -0.13283636 0.18268156 -0.14387904 -0.2534541 0.15979832 0.10967603 0.10086517 -0.10790746 -0.19381867 -0.17615923 0.15990466 0.15843286 -0.29623342 0.086129606 0.1360159 -0.25007626 0.1841993 -0.32333744 -0.16654769 -0.096248485 -0.09132637 0.08661431 -0.16029736 -0.10197087 -0.1504954 0.12717228 0.1990906 0.16826363 0.12953702 -0.19159022 -0.1477242 -0.12590772 0.24646929 -0.48932508 0.4888565 -0.1224452 -0.21497595 0.14676426 -0.1683642 -0.21191333 0.28713444 0.0956314 0.1268926 0.14019474 0.11153741 0.13631476 0.22031562 -0.10187354 0.10026363 0.13361955 0.14609903 0.18449607 -0.12762895 0.11139721 -0.103703015 0.37197077 0.122004926 0.10647538 -0.27151603 -0.15838188 -0.14776054
both. -0.054794926 0.045715883 -0.049049746 -0.043594882 0.04279544 -0.054251518 -0.045097005 -0.04093561 -0.041708604 0.04540049 -0.046932988 0.03930373 0.0540261 0.056099545 -0.049575 0.045994386 -0.047708508 0.05542545 -0.057314146 -0.041660275 0.04498003 -0.04885076 0.034860887 0.044241354 -0.05418952 -0.05461507 0.040904455 0.04497486 -0.049782444 -0.040502243 0.047101974 0.05606676 0.056558892 -0.053001318 -0.04317844 -0.04202059 0.04302729 0.0438592 0.05699939 -0.039344855 0.055414174 -0.056398477 -0.054547463 0.048764158 0.040698554 0.05505939 -0.050273284 -0.05461482 -0.05357466 0.049286053 0.04993682 -0.043143872 0.04741949 0.045348585 -0.057413284 0.055039134 -0.041323245 -0.05271659 -0.05462595 -0.041516647 0.045061555 -0.037593953 -0.05081784 -0.04647493 0.048556637 0.052504577 0.038898822 0.045758646 0.038877673 -0.045144737 -0.05112714 0.040534798 -0.046906423 0.044604782 -0.04778549 -0.05569402 0.044772945 -0.04175201 -0.048367135 0.055304915 0.053157628 0.04163468 0.05648486 0.037488095 0.04009961 0.056306854 -0.049203202 0.03898329 0.044635214 0.0407583 0.05051344 -0.03758254 0.040533397 -0.044213574 -0.044739902 0.054006953 0.040423762 -0.05365427 -0.057041176 -0.049787402
Energy -0.13431326 0.15269251 -0.13468595 -0.13158174 0.12356197 -0.14230601 -0.1392932 -0.13938487 -0.15110616 0.14053978 -0.15406354 0.12388783 0.11783441 0.14878611 -0.13296516 0.13878605 -0.13500115 0.15377635 -0.09357181 -0.12965916 0.11452069 -0.1311919 -0.017095331 0.14999287 -0.12930135 -0.1466842 0.117599666 0.14344774 -0.122227766 -0.13667528 0.1414215 0.12695603 0.13675535 -0.13645798 -0.116824515 -0.13424173 0.14423442 0.13102496 0.13771084 -0.13093042 0.12623662 -0.13700692 -0.13425176 0.13567896 0.13660942 0.1304534 -0.13671649 -0.120933205 -0.14478132 0.14595766 0.12557717 -0.11645814 0.1398387 0.14790344 -0.13308774 0.1284518 -0.10971517 -0.13188787 -0.14901318 -0.1345559 0.13597608 -0.14472975 -0.13211101 -0.14439687 0.1529227 0.14820522 0.12203073 0.123198524 0.16638778 -0.12854896 -0.14338778 0.10892593 0.014608599 0.063575655 -0.1300816 -0.12891583 0.14339508 -0.11658064 -0.13283484 0.11452069 0.1379068 0.14248012 0.12676042 0.15182531 0.15072408 0.12303801 -0.12820646 0.13330042 0.12548287 0.13072968 0.12837249 -0.14159535 0.14861633 -0.14242384 -0.17946725 0.14831258 0.14718771 -0.106187105 -0.12660502 -0.14546248
often -0.17702053 0.08281911 -0.14228757 -0.17097747 0.087165035 -0.11607894 -0.10026023 -0.05058272 -0.2084925 0.15957063 -0.056754388 0.21396805 0.16938071 0.13528211 -0.25477678 0.1241487 -0.10195585 0.08604645 -0.30185974 -0.11213392 0.20258996 -0.13408858 0.38154802 0.09771235 -0.14170864 -0.13496444 0.25311208 0.11837751 -0.12453693 -0.12640373 0.059058405 0.14848824 0.06857776 -0.08592248 -0.29302996 -0.08727735 0.16690136 0.09500183 0.086110935 -0.11342155 0.17595582 -0.11229991 -0.21936904 0.13386135 0.091920555 0.0747251 -0.10295908 -0.17391 -0.14748888 0.14456157 0.12627296 -0.28192797 0.07122917 0.13319136 -0.22478397 0.1640317 -0.3163027 -0.13341856 -0.089375034 -0.06904583 0.07546581 -0.14204289 -0.090919495 -0.13125266 0.11910646 0.16700296 0.13231027 0.11579727 0.014094783 -0.117919765 -0.105808824 0.26299578 -0.46750277 0.42146635 -0.11601799 -0.1965181 0.11636187 -0.15845591 -0.16540334 0.27337193 0.07500844 0.1076436 0.14142919 0.13716274 0.13153698 0.20101346 -0.09080193 0.07073267 0.11866096 0.12774704 0.17708917 -0.109195694 0.10650821 -0.08443661 0.11445292 0.11995681 0.08682883 -0.24084614 -0.12432054 -0.12121708
moves. -0.020863837 0.020986807 -0.02393705 -0.030077968 0.022909546 -0.025062999 -0.03180795 -0.026155964 -0.019166186 0.029783854 -0.0119497925 0.023669524 0.022064757 0.016839895 -0.027709546 0.028819079 -0.030072356 0.031439498 -0.028428195 -0.022665579 0.013470367 -0.019553138 0.018395673 0.026145358 -0.021591945 -0.017153438 0.019873757 0.01673045 -0.028759677 -0.017464746 0.019340988 0.025129493 0.024583664 -0.031458583 -0.024137871 -0.017354924 0.015567862 0.02487747 0.015613533 -0.025311353 0.030192912 -0.01292959 -0.016341893 0.029273497 0.018689115 0.019107059 -0.01931009 -0.01296611 -0.018479297 0.023382997 0.014460002 -0.013068975 0.018095145 0.016828962 -0.015710456 0.031417318 -0.019864222 -0.02359871 -0.023922658 -0.015085376 0.031614944 -0.014004276 -0.018774308 -0.029743388 0.028235286 0.025220837 0.019791704 0.023855181 0.014163277 -0.016783025 -0.028831026 0.027282692 -0.014218872 0.018904284 -0.021483837 -0.025346585 0.03064513 -0.027149705 -0.024961883 0.02043322 0.015332258 0.018683262 0.024330975 0.021300066 0.02661466 0.017812636 -0.018430723 0.026284913 0.025540516 0.022562614 0.021029362 -0.03152898 0.02258374 -0.023207065 -0.0315999 0.017449608 0.025129536 -0.015051816 -0.030490171 -0.015111821
The -0.12659986 0.15575302 -0.12507787 -0.11225597 0.13209264 -0.12862074 -0.12608294 -0.14379783 -0.16662297 0.12653282 -0.13675053 0.12024867 0.119890615 0.112936474 -0.11445507 0.12893333 -0.14900124 0.121782035 -0.07317929 -0.12989148 0.10462418 -0.112738855 0.09788898 0.12335289 -0.11401833 -0.115010984 0.10641253 0.1374225 -0.12449337 -0.13634375 0.15406032 0.116051234 0.13586894 -0.13540804 -0.09712017 -0.13260745 0.109084025 0.13622941 0.12883376 -0.1466652 0.11103495 -0.12655139 -0.08723628 0.12745366 0.15820839 0.13960049 -0.139415 -0.11699272 -0.13163407 0.118134946 0.11494959 -0.11813309 0.15124166 0.11799894 -0.10076749 0.12644352 -0.10029378 -0.12048481 -0.1355451 -0.13199005 0.14081343 -0.123322934 -0.14123768 -0.12680884 0.14903818 0.10346775 0.12551142 0.120284796 0.2976418 -0.12513302 -0.1436524 0.138543 -0.23081127 0.080898754 -0.13113113 -0.12172983 0.13277352 -0.10674744 -0.085837334 0.0886287 0.14295606 0.11463392 0.13371962 0.14792103 0.14106452 0.093151465 -0.13343047 0.14654246 0.13650504 0.12990306 0.12241788 -0.14122596 0.11845407 -0.12383958 -0.37918982 0.15743278 0.14644548 -0.10599113 -0.115285166 -0.122024424
water -0.19330192 0.13455723 -0.14728788 -0.16316256 0.14420052 -0.12305465 -0.14210664 -0.10449523 -0.16784216 0.1554309 -0.1104632 0.20204867 0.16354138 0.13425715 -0.2281386 0.15095581 -0.12821575 0.13319811 -0.22041982 -0.14841792 0.1839567 -0.1611138 0.24037552 0.14160836 -0.15114011 -0.14217386 0.24068637 0.16063018 -0.1420189 -0.13574709 0.100237325 0.15022899 0.12816295 -0.12674159 -0.24672842 -0.12609173 0.16599913 0.12998036 0.11160237 -0.13951732 0.1581757 -0.122780636 -0.16996738 0.15557553 0.111806735 0.13210914 -0.1420254 -0.17429805 -0.15504694 0.14469503 0.13956268 -0.2482779 0.13481249 0.1452096 -0.2011453 0.15943232 -0.2565676 -0.13545154 -0.1333559 -0.11495526 0.1351079 -0.15678656 -0.13142535 -0.12783743 0.12303929 0.15391275 0.14632687 0.13292563 0.12020653 -0.15443143 -0.12996742 0.21495126 0.107950345 0.27156335 -0.1558264 -0.17937276 0.14942597 -0.16119912 -0.17435038 0.24140602 0.13183592 0.13555445 0.15637498 0.13511723 0.13616312 0.1834527 -0.13761927 0.119871676 0.15156886 0.15443356 0.19792019 -0.14061074 0.13468012 -0.13330321 -0.04671515 0.1629591 0.12827535 -0.19918992 -0.13513091 -0.1342421
does -0.21645853 0.09998179 -0.16929847 -0.20723645 0.09129196 -0.12317162 -0.10173348 -0.0508798 -0.21521245 0.18199338 -0.015986783 0.23240831 0.19678107 0.15466256 -0.30798483 0.13039006 -0.084082544 0.10438455 -0.3452021 -0.13901256 0.24593265 -0.16088231 0.3788354 0.12071294 -0.16098918 -0.13445646 0.31072456 0.15170197 -0.13917641 -0.13291559 0.047050364 0.16716321 0.0538218 -0.10710855 -0.34888592 -0.08219858 0.1878074 0.11223962 0.109484896 -0.12100388 0.20838109 -0.108060725 -0.23541561 0.15904151 0.09374505 0.089550965 -0.09547496 -0.19005057 -0.13949704 0.13903782 0.16535658 -0.3219257 0.07362326 0.13134566 -0.23798274 0.17617205 -0.3827684 -0.15216638 -0.08824966 -0.071288735 0.087947 -0.14262667 -0.08598078 -0.11712475 0.116778046 0.18929233 0.17102508 0.13081746 -0.006038889 -0.1364354 -0.106373146 0.2876553 -0.26073843 0.5108986 -0.14835142 -0.20128767 0.14206693 -0.18157545 -0.19148242 0.3149035 0.07115991 0.12374457 0.16169427 0.117345735 0.12809348 0.19547658 -0.07989377 0.0759648 0.11518435 0.15030006 0.19985689 -0.13611482 0.09992442 -0.06397333 0.1929216 0.15755722 0.086021096 -0.25057662 -0.14856589 -0.14355046
not -0.22736672 0.07737594 -0.17792796 -0.21377304 0.064685084 -0.11481655 -0.11124359 0.0008590517 -0.22542396 0.19404562 0.0094808 0.28009686 0.18305878 0.19506502 -0.37271196 0.14257704 -0.06873278 0.077906445 -0.44750318 -0.09024518 0.2686242 -0.154166 0.59253895 0.1068976 -0.17563094 -0.16062123 0.3836684 0.12298894 -0.12374039 -0.11592634 0.016521636 0.15525018 0.02810671 -0.09468693 -0.43700823 -0.04251766 0.22215314 0.069310695 0.081059575 -0.069516905 0.21433058 -0.10732845 -0.31213087 0.15917893 0.057882164 0.05578976 -0.078451954 -0.20123038 -0.1807699 0.1364058 0.1522558 -0.44002187 0.035813477 0.12535615 -0.30492073 0.18105753 -0.4497687 -0.16427107 -0.0659772 0.003601788 0.053623483 -0.15812337 -0.067827746 -0.13504739 0.10346312 0.16805188 0.17992438 0.11788731 -0.13120821 -0.11910632 -0.080507375 0.34624356 -0.62082297 0.689011 -0.1303146 -0.27310434 0.11326961 -0.17297465 -0.23134367 0.42239937 0.0109220585 0.11945649 0.1468387 0.107638 0.1270409 0.25029185 -0.05384281 0.024224594 0.11395014 0.13625465 0.23141377 -0.09431559 0.07566962 -0.022357449 0.39154157 0.13467062 0.050122786 -0.34769207 -0.14360231 -0.1486762
change, -0.18921022 0.1887657 -0.20395072 -0.19856523 0.18874444 -0.1949406 -0.19443089 -0.19104657 -0.1928256 0.18935902 -0.1914881 0.20024717 0.18358871 0.19823977 -0.1852714 0.20216283 -0.1974771 0.18727748 -0.19726281 -0.19910756 0.18753776 -0.19577761 0.17658049 0.19763285 -0.18394676 -0.19774085 0.20186381 0.1910834 -0.18792342 -0.19299445 0.19173247 0.19874883 0.18605344 -0.19148543 -0.19437358 -0.20181307 0.18880172 0.19112827 0.18734829 -0.18572026 0.19218206 -0.18770465 -0.19477488 0.19490294 0.18718913 0.19966592 -0.19665942 -0.19199675 -0.18677215 0.19426595 0.2007661 -0.1924416 0.18872233 0.18291882 -0.18872501 0.1954204 -0.19097322 -0.20108926 -0.19825977 -0.19462861 0.18649164 -0.2031378 -0.18653469 -0.19574206 0.18958634 0.19311875 0.19302419 0.18551598 0.19485514 -0.19305864 -0.18994181 0.1915631 -0.16519138 0.1850091 -0.19782361 -0.18549418 0.18928626 -0.19604039 -0.18454675 0.18803962 0.18611254 0.19196966 0.190752 0.19440895 0.19702582 0.18369286 -0.19212483 0.19582069 0.1998248 0.19356751 0.19505098 -0.18828008 0.19985214 -0.1900849 -0.19957343 0.19726275 0.18350537 -0.18380493 -0.19404972 -0.19123015
it -0.2561466 0.06498356 -0.15563421 -0.1997705 0.05628703 -0.09285334 -0.082193665 0.0053513744 -0.2969467 0.17473672 0.02508273 0.29803464 0.18441072 0.16269523 -0.36322606 0.14763106 -0.0730178 0.07600762 -0.418517 -0.114143334 0.23692565 -0.14558756 0.52796495 0.09226224 -0.15269527 -0.122298986 0.4084416 0.12547797 -0.1138653 -0.10476379 0.0349443 0.13480827 0.03511807 -0.07725739 -0.4087864 -0.04878504 0.19946559 0.08422525 0.068944566 -0.07487318 0.20757131 -0.08036022 -0.26935607 0.14079112 0.05100423 0.06725903 -0.070069864 -0.19101535 -0.14970799 0.13296627 0.15453592 -0.43421715 0.06274296 0.14012478 -0.26357013 0.20709866 -0.45391223 -0.14583358 -0.07103899 -0.016785054 0.044977628 -0.14664412 -0.06786231 -0.11435779 0.099608116 0.17643492 0.149638 0.09372027 0.15401302 -0.11693623 -0.072076276 0.4017698 -0.35580483 0.62660074 -0.11986938 -0.24399884 0.10879529 -0.18495262 -0.20467332 0.39748657 0.03892022 0.115933634 0.15312019 0.15449184 0.10440057 0.23393922 -0.05940524 0.026888125 0.12433332 0.15122049 0.25619617 -0.099013984 0.06804996 -0.04725406 0.03241366 0.15238242 0.041870512 -0.3066839 -0.13138586 -0.123083495
is -0.18964252 0.11737297 -0.1147233 -0.14985207 0.09041146 -0.0972966 -0.09398857 -0.06054663 -0.25339362 0.13714708 -0.06781655 0.18730642 0.13019107 0.12775499 -0.2467495 0.1100553 -0.1010993 0.097784735 -0.1949839 -0.10828373 0.15347104 -0.1213293 0.1956545 0.0961832 -0.10720583 -0.116308756 0.24024116 0.14513367 -0.09846276 -0.11826324 0.088786066 0.11868349 0.10091705 -0.10555358 -0.26301354 -0.09155654 0.15059282 0.10085804 0.07865416 -0.09638602 0.15829882 -0.10891664 -0.15140705 0.1155962 0.09649183 0.096472 -0.108379506 -0.15614922 -0.14255387 0.14699563 0.12233675 -0.25171697 0.11547683 0.12524539 -0.17252085 0.16752994 -0.2472694 -0.114421666 -0.08576685 -0.058146585 0.09443496 -0.11475235 -0.07943075 -0.11317521 0.12754872 0.13698627 0.106349625 0.107779264 0.3219091 -0.118803054 -0.104700856 0.24774949 -0.17020449 0.27217475 -0.12554386 -0.14445797 0.10492553 -0.12900901 -0.12671706 0.22483774 0.09491524 0.09663925 0.13075441 0.1608393 0.11027643 0.13016926 -0.071018934 0.06733168 0.09386055 0.1275097 0.18632823 -0.11781768 0.07958182 -0.08020099 -0.27825594 0.16311815 0.106231086 -0.18110774 -0.09941151 -0.11680092
still -0.18136814 0.10889973 -0.1496903 -0.16718212 0.11126706 -0.11508104 -0.12589586 -0.07037002 -0.2133974 0.16606648 -0.07522632 0.20184925 0.15485898 0.15113197 -0.26030803 0.13233192 -0.11860799 0.10303563 -0.2800489 -0.12140849 0.2131009 -0.15136233 0.43851388 0.106433965 -0.14803796 -0.14697279 0.27117085 0.13675404 -0.12537897 -0.12940757 0.08249446 0.14638315 0.08717096 -0.11664017 -0.2790198 -0.100364104 0.17038916 0.10267145 0.10157511 -0.12539679 0.1767853 -0.1314725 -0.22000164 0.15240075 0.11028699 0.100051194 -0.117733605 -0.1625817 -0.1679554 0.13738129 0.14319135 -0.28956786 0.09657699 0.13555542 -0.19573608 0.1612545 -0.2810753 -0.15761985 -0.098399125 -0.08775853 0.10582057 -0.14007139 -0.10108985 -0.1219129 0.10678592 0.16098194 0.15354085 0.13535449 0.099977285 -0.1358442 -0.1102258 0.25025198 -0.4768727 0.41178635 -0.13967626 -0.20813839 0.12229407 -0.15180932 -0.17332305 0.27876168 0.10211631 0.13105193 0.13863666 0.115433194 0.13005522 0.19064969 -0.10172815 0.08882912 0.1250346 0.14052074 0.19777092 -0.12511504 0.12165121 -0.103857145 0.018815376 0.11720363 0.09478481 -0.23835619 -0.13995461 -0.14124814
water. -0.31760445 0.31106997 -0.31027663 -0.31330392 0.31630054 -0.30395043 -0.31620076 -0.30212432 -0.3246355 0.3168918 -0.29751343 0.31743053 0.31355447 0.30347374 -0.32525513 0.315518 -0.31058303 0.30967903 -0.31161004 -0.30725986 0.31867903 -0.30782768 0.34774274 0.3139206 -0.31686544 -0.3128176 0.33742145 0.31937924 -0.30392122 -0.31723604 0.30546737 0.31000498 0.3124267 -0.30282068 -0.31603372 -0.3060963 0.31618023 0.31629783 0.30643377 -0.31739983 0.31575617 -0.31702045 -0.30578056 0.31105226 0.29895887 0.30892476 -0.29793614 -0.31873205 -0.30523127 0.3055791 0.31599492 -0.31704286 0.3081419 0.31158754 -0.3130844 0.32091516 -0.33956167 -0.31635967 -0.3079654 -0.30081517 0.30908632 -0.31307733 -0.2979367 -0.30638653 0.3166434 0.30065033 0.2999812 0.31047815 0.35210842 -0.31036255 -0.31493884 0.30701998 -0.28976423 0.33191258 -0.31254607 -0.30556378 0.30876592 -0.30476382 -0.32615116 0.31985173 0.31113505 0.30588838 0.29887635 0.31764072 0.29989123 0.3168002 -0.31285363 0.30474502 0.303981 0.31271678 0.31465003 -0.3184206 0.31065336 -0.30678836 -0.3216724 0.32081518 0.30013233 -0.31445026 -0.3078336 -0.30203572
energy. -0.29998878 0.29289517 -0.29292467 -0.29756922 0.28778467 -0.28704828 -0.28962895 -0.281479 -0.30338815 0.29834878 -0.29132858 0.29583177 0.29146793 0.283907 -0.29828757 0.28292078 -0.2891027 0.28423864 -0.3146739 -0.28477386 0.29237953 -0.2832031 0.22792809 0.299409 -0.29436573 -0.28645617 0.32034674 0.28252962 -0.29478428 -0.29376242 0.2805803 0.28987578 0.2822948 -0.29199222 -0.313821 -0.27478856 0.2875264 0.28943074 0.2889256 -0.28392822 0.29252845 -0.28191438 -0.3059076 0.28709024 0.29584077 0.2854487 -0.29450068 -0.3007168 -0.29135957 0.30000302 0.28400436 -0.2785377 0.29083705 0.2878339 -0.29368988 0.28995 -0.32340413 -0.28431726 -0.29216722 -0.28787568 0.2922118 -0.28686205 -0.29127663 -0.29037723 0.2818875 0.284187 0.2902461 0.29616484 0.328093 -0.29255342 -0.28660354 0.3078919 -0.24408533 0.28394535 -0.29638684 -0.3025804 0.2840257 -0.30004445 -0.30184937 0.29885083 0.2882251 0.2808856 0.2926055 0.30385545 0.28809905 0.30696008 -0.28167114 0.28536695 0.28065452 0.28971004 0.29045436 -0.2803824 0.2966823 -0.2902167 -0.3369931 0.3066322 0.27644193 -0.29680854 -0.2854208 -0.29244772
- -0.05501726 0.14872818 -0.12033692 -0.08737301 0.15391159 -0.14100285 -0.1536358 -0.1939154 -0.050653532 0.11174057 -0.19635022 0.066252135 0.11011925 0.12613317 -0.009617033 0.13566996 -0.1563834 0.14258331 0.028136173 -0.14048754 0.066599816 -0.1097196 -0.13975114 0.15438765 -0.12658207 -0.11254576 0.0054915687 0.14345382 -0.13552098 -0.13192414 0.17511183 0.105404034 0.17292146 -0.15124652 0.010633031 -0.17656365 0.08683752 0.1525733 0.1715067 -0.15289527 0.09574167 -0.14476734 -0.051640727 0.10454284 0.17330563 0.16354392 -0.15124628 -0.09127385 -0.117514014 0.11348657 0.12194141 0.036061384 0.17041306 0.1190092 -0.054122858 0.10002857 0.033211756 -0.13734294 -0.15280208 -0.15840608 0.17681524 -0.12258357 -0.16435108 -0.12097666 0.12476095 0.12032611 0.122720934 0.12329229 0.11982537 -0.14340499 -0.14284568 0.019673299 0.073648036 -0.1560065 -0.14463112 -0.056847684 0.1444187 -0.122017555 -0.095671125 -0.010253295 0.17236947 0.13515013 0.09438115 0.13544032 0.14656027 0.05464137 -0.17962392 0.17964453 0.1207705 0.12733881 0.07157927 -0.15261516 0.15066434 -0.14579001 -0.21954194 0.1348395 0.17060593 -0.035984114 -0.12714508 -0.12223454
moving -0.20383695 0.1457338 -0.17136398 -0.19397841 0.14030755 -0.1493311 -0.14644767 -0.13295493 -0.21399122 0.18564478 -0.1315314 0.21424764 0.17416605 0.16931148 -0.20904474 0.16018215 -0.14019416 0.15494095 -0.23651388 -0.15299037 0.18685925 -0.1579139 0.1551682 0.15256348 -0.15879385 -0.14723298 0.24091971 0.1571723 -0.16635993 -0.1678087 0.14335601 0.16672435 0.15112774 -0.14904645 -0.22367199 -0.15220954 0.17605983 0.14909303 0.13745542 -0.15806448 0.19352888 -0.13971376 -0.1918411 0.17303877 0.15453859 0.15341906 -0.1490291 -0.16104645 -0.15344158 0.15058595 0.179092 -0.22223113 0.14747557 0.17398767 -0.19737063 0.19178374 -0.22758654 -0.16988735 -0.15868029 -0.13881391 0.14751476 -0.17409289 -0.13475181 -0.15088835 0.1683268 0.16615418 0.16880062 0.16831961 0.22465712 -0.15548816 -0.15483288 0.24032025 -0.040309854 0.25510395 -0.16727972 -0.18959343 0.14866315 -0.17610031 -0.1949051 0.2131781 0.1439292 0.1525365 0.18574433 0.1648597 0.15514386 0.18528241 -0.14060502 0.13052452 0.16804485 0.1785969 0.1922397 -0.15595198 0.14414199 -0.15074274 -0.19874856 0.18804578 0.15235585 -0.19990402 -0.16106208 -0.15885116
And -0.13505344 0.14233491 -0.13266212 -0.13470161 0.13204762 -0.14242952 -0.123231426 -0.12654434 -0.1342401 0.13978072 -0.13988866 0.13229758 0.13696545 0.14591433 -0.121372685 0.12360382 -0.1320364 0.12770852 -0.12294185 -0.12858544 0.14286065 -0.12531826 0.14491849 0.12850298 -0.14125527 -0.12854712 0.1339403 0.13794965 -0.13497958 -0.13377304 0.13780238 0.13140167 0.12590787 -0.13445407 -0.137513 -0.12915388 0.13087144 0.13371277 0.12828179 -0.12615314 0.12412806 -0.12757733 -0.13100328 0.13812736 0.12893611 0.12413054 -0.13401803 -0.12862894 -0.13118593 0.12080018 0.13663219 -0.13471769 0.13669465 0.13176915 -0.13391395 0.124946624 -0.12620704 -0.14113502 -0.12394372 -0.1391159 0.13717283 -0.14159043 -0.13107967 -0.13968374 0.13755967 0.12937441 0.14224647 0.131363 0.09772897 -0.13394505 -0.13222857 0.124268316 -0.1537358 0.13719852 -0.13666484 -0.1357435 0.13846818 -0.12991329 -0.13428584 0.12515484 0.12241101 0.14140776 0.13372515 0.124588944 0.13715927 0.14034715 -0.13668953 0.13217218 0.14359953 0.11806807 0.12703694 -0.12686995 0.1262851 -0.138232 -0.100056 0.12559785 0.13350534 -0.14735955 -0.12866284 -0.12818725
the -0.19561249 0.11977055 -0.12946676 -0.13999563 0.09183394 -0.07991976 -0.093619846 -0.059166428 -0.25844973 0.12243373 -0.07952585 0.2058765 0.13935822 0.11952334 -0.26035032 0.094413646 -0.08875136 0.08022967 -0.1965783 -0.11923661 0.14637844 -0.1240435 0.42711765 0.08738202 -0.09916543 -0.10138947 0.28112593 0.122980095 -0.09911956 -0.12788677 0.09804115 0.10287012 0.09196634 -0.10253446 -0.2500738 -0.08982621 0.15534128 0.1125332 0.061964225 -0.11083124 0.14656508 -0.075227976 -0.1413503 0.10771575 0.105329305 0.07321287 -0.117027216 -0.13721922 -0.119602 0.13975635 0.103967875 -0.24085312 0.10804677 0.117942974 -0.13678676 0.13820551 -0.28961256 -0.13048024 -0.108544804 -0.069134526 0.10149622 -0.10235373 -0.10662403 -0.09509813 0.12474784 0.14488155 0.12995648 0.10533314 0.41848552 -0.11960587 -0.12308623 0.2662761 -0.48852557 0.35200852 -0.111449316 -0.15408857 0.10890515 -0.11137217 -0.12359867 0.24997781 0.080384746 0.11294828 0.110363856 0.13142884 0.12309373 0.1347758 -0.089479454 0.07978155 0.089491144 0.118022405 0.18370208 -0.107545786 0.089604236 -0.078866474 -0.39777872 0.15961757 0.09764985 -0.16995347 -0.10349777 -0.109910525
plant -0.15141289 0.13898994 -0.14200807 -0.14832814 0.12952876 -0.13656875 -0.12710838 -0.1194903 -0.16951056 0.14735311 -0.1305892 0.15786836 0.13637526 0.13611954 -0.15899034 0.13051221 -0.12133225 0.13677523 -0.18533474 -0.1370336 0.14256802 -0.13989715 0.197013 0.13623741 -0.14225549 -0.1379887 0.19122107 0.13324787 -0.1349149 -0.14192688 0.12996843 0.13667722 0.118279524 -0.12641674 -0.16740051 -0.11418467 0.13505961 0.122000635 0.12778439 -0.12453121 0.14176342 -0.1395762 -0.16094984 0.1434366 0.12246133 0.13259153 -0.1354996 -0.14919226 -0.15111196 0.13437386 0.13893616 -0.18284929 0.13501401 0.15251558 -0.1550616 0.1507609 -0.17386217 -0.14541264 -0.12316809 -0.12138926 0.13518354 -0.13624479 -0.12713318 -0.13855736 0.13410422 0.14620699 0.1387824 0.1327803 0.14312497 -0.13737148 -0.13213536 0.16433275 -0.22896396 0.21439795 -0.13279662 -0.16301338 0.1278239 -0.14729267 -0.13863991 0.18542792 0.12465532 0.12895669 0.14183104 0.14014624 0.14197893 0.15979235 -0.1259599 0.119156614 0.12342193 0.14557216 0.15570982 -0.13152258 0.12584092 -0.11827389 -0.14558055 0.14301842 0.12061852 -0.15334468 -0.1430639 -0.12500466
food -0.18953747 0.114222296 -0.14457326 -0.18174729 0.12693354 -0.13407569 -0.13954727 -0.10647837 -0.17624688 0.15690517 -0.09797699 0.18452395 0.17410627 0.1497888 -0.20758158 0.14981352 -0.12849665 0.12653778 -0.2505283 -0.14915481 0.20730641 -0.17078176 0.30938274 0.14139569 -0.14754471 -0.15207352 0.15192288 0.14770788 -0.14202434 -0.14356536 0.1089668 0.1500074 0.10955096 -0.13067518 -0.22070083 -0.11716324 0.18646064 0.13434559 0.11982857 -0.13702396 0.17720972 -0.14354068 -0.20492107 0.15306692 0.12901637 0.12032043 -0.12919907 -0.1874703 -0.15315706 0.1440957 0.14505507 -0.26155207 0.11872728 0.13974352 -0.19659127 0.16205308 -0.261574 -0.15054607 -0.11743285 -0.1119007 0.11971747 -0.15275577 -0.13005082 -0.14473936 0.1385202 0.17792638 0.14969848 0.14609459 -0.10313864 -0.13699932 -0.14359953 0.22780846 -0.3211069 0.33862132 -0.15482865 -0.17910069 0.13747928 -0.1717107 -0.17586248 0.22161382 0.115399614 0.1467166 0.15650691 0.12117083 0.14844242 0.19721909 -0.11460754 0.103790626 0.13354515 0.13207513 0.1698296 -0.13468233 0.12078169 -0.12262575 0.20235664 0.12851329 0.11668212 -0.21299829 -0.15426107 -0.13501805
to -0.19710371 0.09494636 -0.11729871 -0.17525928 0.05647652 -0.083191134 -0.075311616 -0.03298997 -0.2575325 0.18438466 -0.016969739 0.2122782 0.16491167 0.16424827 -0.29476693 0.10382248 -0.06483501 0.06423094 -0.33398047 -0.086738795 0.21500623 -0.12815966 0.5832074 0.09132736 -0.13188271 -0.09824282 0.32618698 0.111324154 -0.11004039 -0.107894264 0.03226757 0.14185826 0.051519834 -0.10279309 -0.35240555 -0.042525794 0.16772407 0.094980195 0.05083698 -0.08672382 0.16730954 -0.0790585 -0.23101507 0.13776456 0.07772071 0.06377988 -0.09649008 -0.1627064 -0.14149918 0.12354766 0.1467221 -0.3494885 0.08184577 0.11891679 -0.21419622 0.18178217 -0.36009154 -0.12559192 -0.056976214 -0.018116124 0.050955597 -0.13063143 -0.07264543 -0.12376521 0.10634312 0.16761 0.15113004 0.108645044 0.09568779 -0.10493957 -0.10937306 0.31677246 -0.70093995 0.57219213 -0.100253806 -0.22287083 0.09977537 -0.14340328 -0.16970082 0.31439614 0.050342392 0.09337633 0.1300383 0.12975392 0.10587065 0.2134305 -0.044818807 0.03337558 0.118934564 0.14399967 0.21073323 -0.10405596 0.066652924 -0.054999933 0.074004784 0.14428324 0.06391343 -0.27567562 -0.098106235 -0.1259385
animal. -0.13267113 0.12615669 -0.13276222 -0.13576047 0.12588853 -0.12707187 -0.12825356 -0.12536106 -0.12610184 0.13175069 -0.12787111 0.12902714 0.1330583 0.13340978 -0.122132264 0.13752618 -0.12841502 0.13769127 -0.124567576 -0.122757606 0.13219655 -0.1350106 0.11548556 0.12855047 -0.12877461 -0.13376082 0.13147177 0.1244842 -0.12668961 -0.12811017 0.13240881 0.13326603 0.12819481 -0.1372222 -0.12155563 -0.13283902 0.12197244 0.1252993 0.12794498 -0.13429707 0.12643887 -0.13371907 -0.13610289 0.13200478 0.12425238 0.12093925 -0.12142285 -0.13025306 -0.13528812 0.13277762 0.13237952 -0.12087623 0.13819759 0.12463666 -0.1371445 0.136778 -0.13378783 -0.13178019 -0.13740699 -0.13870084 0.12991257 -0.133494 -0.13319854 -0.13034393 0.12911037 0.13401575 0.12838383 0.1394567 0.13735197 -0.12627088 -0.127988 0.1312817 -0.114775546 0.12714379 -0.1272697 -0.12333864 0.12865353 -0.12333761 -0.12608646 0.1217027 0.1359589 0.13994896 0.13503437 0.12560949 0.1270511 0.12499944 -0.13598487 0.12595229 0.12818086 0.1316436 0.124262944 -0.12523802 0.121927865 -0.13274035 -0.12790589 0.1370368 0.12823999 -0.12316728 -0.12208315 -0.12789609
Animals -0.14287426 0.14453883 -0.161172 -0.15472466 0.15240465 -0.14419389 -0.16013405 -0.13900274 -0.11805123 0.15213454 -0.16028312 0.14559849 0.1446913 0.16137873 -0.148936 0.14909492 -0.15983343 0.15055653 -0.15969267 -0.15106523 0.14974959 -0.143653 0.15574683 0.15074615 -0.15147439 -0.14081198 0.14098114 0.1544341 -0.15018125 -0.14730968 0.1494208 0.16177097 0.15606682 -0.152037 -0.14266978 -0.15370236 0.14951749 0.14554504 0.15152276 -0.15987809 0.15596619 -0.14846164 -0.15143266 0.14743617 0.15166633 0.15122078 -0.15593436 -0.14529617 -0.15729944 0.15472232 0.15306346 -0.15995142 0.14447366 0.13673517 -0.1616374 0.1525301 -0.1577297 -0.1505418 -0.14447665 -0.14525923 0.14206645 -0.14180726 -0.16032076 -0.14163433 0.1504496 0.15948568 0.14968015 0.15870817 0.02718985 -0.1476528 -0.1474947 0.1254905 -0.17366506 0.16439709 -0.16031288 -0.15245643 0.14119801 -0.14139894 -0.15263788 0.15037894 0.13903388 0.14370364 0.14450143 0.14578193 0.15661743 0.16273625 -0.15597953 0.14603244 0.13974886 0.1537334 0.14824866 -0.14611663 0.14534202 -0.14669302 -0.023989854 0.14018698 0.1577424 -0.16084614 -0.15949647 -0.14241402
get -0.19435735 0.11396397 -0.15259708 -0.20532066 0.100688435 -0.12563197 -0.1232766 -0.06982879 -0.20663287 0.19972204 -0.04115451 0.26068273 0.20436738 0.16373253 -0.3041139 0.1592309 -0.090787664 0.12028945 -0.36508948 -0.124557994 0.2360651 -0.16243125 0.5057679 0.13425402 -0.16749088 -0.14881752 0.2968139 0.13966754 -0.14537877 -0.12751827 0.06608902 0.16459249 0.08966978 -0.13129054 -0.34662637 -0.091545105 0.20597064 0.11957601 0.10988103 -0.12446391 0.20859067 -0.13765119 -0.23917016 0.15314257 0.08016628 0.09741528 -0.11591354 -0.2054745 -0.16326231 0.14658538 0.16602269 -0.33908197 0.08168498 0.15197487 -0.2566323 0.19927767 -0.3688752 -0.17339082 -0.103423566 -0.055547606 0.085236974 -0.16741265 -0.10367275 -0.13818379 0.11140947 0.18478757 0.15595956 0.13035959 -0.067649 -0.15194428 -0.12923916 0.29476145 -0.4675189 0.54999065 -0.13800503 -0.24082069 0.12686133 -0.17310904 -0.21015853 0.31550962 0.080342606 0.1443967 0.16346554 0.13636534 0.13635539 0.23253894 -0.10380727 0.070737444 0.15571597 0.13645546 0.20636883 -0.112537235 0.11161467 -0.08994305 0.24829094 0.14490949 0.09693465 -0.27417424 -0.15005653 -0.14747156
their -0.17329586 0.09907327 -0.14904198 -0.17824692 0.090796344 -0.11943997 -0.08754113 -0.059674457 -0.22639127 0.17405896 -0.05400026 0.20920382 0.19200337 0.15903875 -0.2660987 0.11216495 -0.09223896 0.099307105 -0.32115248 -0.12289991 0.22047324 -0.15906547 0.6046422 0.1088996 -0.13887073 -0.1259345 0.24394712 0.10935188 -0.13279696 -0.1129757 0.0535835 0.15946119 0.05893697 -0.0958806 -0.27961835 -0.05954597 0.18611714 0.10548383 0.07315643 -0.10058796 0.1659111 -0.1174926 -0.24571243 0.14736651 0.087725386 0.07323362 -0.10050596 -0.1911593 -0.16833204 0.14518277 0.14871272 -0.32137516 0.080895156 0.13583049 -0.21685365 0.17727077 -0.35251218 -0.1552861 -0.08256942 -0.056783773 0.07456632 -0.13053805 -0.08531587 -0.12118526 0.11254578 0.18426436 0.14691594 0.13071235 -0.13240688 -0.1311456 -0.11221211 0.291684 -0.69869435 0.51665556 -0.1172796 -0.21439071 0.102624014 -0.15066206 -0.1945261 0.30137548 0.08232258 0.118098564 0.13942233 0.12686677 0.10792082 0.2331437 -0.08226345 0.07472623 0.1260434 0.1215848 0.16905864 -0.102013655 0.10394559 -0.082587905 0.25617397 0.10836787 0.090635575 -0.2638635 -0.11891645 -0.12650605
from -0.10228586 0.19984889 -0.1294364 -0.17005359 0.17580348 -0.18183763 -0.21723877 -0.19130796 -0.021677587 0.115992375 -0.18651041 0.11094169 0.13348027 0.16474777 -0.062488064 0.20453578 -0.18279164 0.1750576 -0.08490614 -0.1535826 0.18006793 -0.14736742 0.14090942 0.16972613 -0.118015476 -0.19373178 0.018515421 0.15540084 -0.1815844 -0.1705739 0.1964338 0.1594318 0.17771703 -0.17572774 -0.0034697917 -0.18208084 0.13698576 0.19210874 0.18691096 -0.16708209 0.16836864 -0.16981834 -0.13506445 0.1691238 0.17559904 0.17010248 -0.17436594 -0.11435425 -0.11744092 0.17857572 0.15307397 -0.006228604 0.14590038 0.15701509 -0.12196949 0.15203588 -0.025043674 -0.14853121 -0.17727774 -0.2059295 0.17153576 -0.1571296 -0.19737302 -0.17870153 0.20014128 0.16303399 0.19049147 0.14379904 -0.029599918 -0.16129787 -0.16399616 -0.0022389 -0.18722387 0.037539475 -0.16329831 -0.14149067 0.16832426 -0.114835985 -0.13246132 0.08072435 0.15963255 0.19184586 0.12332335 0.13836667 0.19337805 0.1454209 -0.18028134 0.20661885 0.16068575 0.16701375 0.10562778 -0.174614 0.20057668 -0.20507708 -0.0024493397 0.11550459 0.1698251 -0.100288235 -0.19698568 -0.17359667
plants. -0.28175485 0.28314242 -0.28415433 -0.26884547 0.27679735 -0.27141145 -0.27582562 -0.2798571 -0.27854025 0.2818581 -0.27749872 0.28416687 0.2722662 0.285977 -0.27027386 0.27227724 -0.28660414 0.283178 -0.2883474 -0.2784385 0.2786997 -0.272672 0.3073315 0.26160473 -0.28796193 -0.2756515 0.2942703 0.27217066 -0.26963282 -0.269095 0.27014402 0.2725191 0.27060738 -0.27021122 -0.27485794 -0.28360027 0.2759101 0.27528432 0.27402833 -0.2806105 0.26930636 -0.2852889 -0.28575155 0.28381595 0.26539528 0.27877918 -0.2804879 -0.2658924 -0.269648 0.27822974 0.26785862 -0.27952328 0.27745393 0.28342873 -0.29087928 0.275361 -0.27557373 -0.28115806 -0.2752282 -0.27049202 0.27532485 -0.28312212 -0.26805702 -0.28248268 0.2659129 0.280349 0.27471173 0.27760854 0.26998827 -0.26879045 -0.27510077 0.29218173 -0.31362626 0.28554776 -0.2799221 -0.27656418 0.2822865 -0.2837587 -0.26880676 0.29561743 0.27317405 0.27498692 0.2789711 0.28372803 0.2784542 0.28969473 -0.28193417 0.270881 0.27836004 0.28353998 0.28146553 -0.26896113 0.27735072 -0.28004047 -0.25662112 0.25892738 0.26812154 -0.2834675 -0.27778092 -0.28563476
a -0.17633592 0.10060563 -0.12347954 -0.13716274 0.080149494 -0.09732298 -0.07722901 -0.047106385 -0.2419676 0.123138495 -0.06223532 0.18875624 0.14657107 0.12406613 -0.2584802 0.09683522 -0.1076747 0.07762877 -0.21566822 -0.10983365 0.15916698 -0.12041947 0.31726262 0.09394144 -0.108602 -0.10075531 0.2641254 0.10921625 -0.11199623 -0.10037948 0.080619566 0.10733902 0.086882606 -0.09917922 -0.25989982 -0.08269067 0.14505024 0.108080246 0.07196401 -0.11436029 0.15923741 -0.10314558 -0.16354318 0.11627587 0.09434236 0.073474064 -0.09842435 -0.1398115 -0.12567686 0.14118013 0.1162341 -0.26724616 0.09448425 0.12216724 -0.17417754 0.16109484 -0.28714138 -0.12069177 -0.08978271 -0.065642826 0.08961849 -0.12272723 -0.096892 -0.10513743 0.12221242 0.14334092 0.11372369 0.108428635 0.3127319 -0.09874923 -0.107321486 0.27246287 -0.36218396 0.34833238 -0.1007905 -0.18009247 0.10323419 -0.122460485 -0.13483973 0.2491489 0.093233876 0.09120152 0.1338617 0.14750388 0.12036496 0.16534515 -0.07412562 0.055717867 0.09571011 0.13104713 0.1745154 -0.115204014 0.093758814 -0.083269395 -0.25801355 0.16160527 0.08197658 -0.18766528 -0.09424483 -0.12575966
plant. -0.2799136 0.2783607 -0.2740177 -0.26055458 0.2681891 -0.2641038 -0.25895587 -0.2623744 -0.28121072 0.2615089 -0.27792156 0.27991697 0.27671894 0.27009213 -0.2781493 0.28002512 -0.2601785 0.27145022 -0.26953316 -0.25992638 0.25653014 -0.27781314 0.28257737 0.27777493 -0.27648515 -0.26306435 0.28423324 0.25756037 -0.26613414 -0.26017186 0.26539978 0.26930505 0.26829335 -0.2731953 -0.26983774 -0.26723433 0.26134562 0.26208404 0.27183953 -0.25966772 0.26178545 -0.27883786 -0.25921068 0.27075413 0.26999632 0.27296773 -0.27415198 -0.2770646 -0.26576024 0.2698409 0.26250395 -0.26631486 0.26149845 0.27071446 -0.27871138 0.27329975 -0.25846308 -0.27534202 -0.2799478 -0.2737217 0.27383116 -0.26611155 -0.27416328 -0.26291642 0.26258805 0.26325098 0.26371998 0.25873187 0.2686379 -0.26903555 -0.2657839 0.26614654 -0.27007347 0.26668233 -0.25964695 -0.2661031 0.26243454 -0.26028103 -0.27201107 0.2835061 0.27410764 0.26213902 0.27578098 0.26344213 0.28066203 0.2794092 -0.2646599 0.27162823 0.27278984 0.27141783 0.28124294 -0.26669663 0.27913994 -0.27849972 -0.29228872 0.26589262 0.27007726 -0.2819591 -0.267071 -0.2639693
Both -0.16791543 0.1465751 -0.15314935 -0.14141469 0.13995056 -0.14177391 -0.13263807 -0.1391616 -0.16807956 0.15325408 -0.14136222 0.14874987 0.16259937 0.15911947 -0.162702 0.13516556 -0.14207754 0.13392842 -0.19451143 -0.13491435 0.16284911 -0.14774062 0.22709733 0.12625407 -0.15929522 -0.13535257 0.17823806 0.12831208 -0.1459757 -0.15007336 0.14083083 0.15920486 0.12790708 -0.13277377 -0.19014426 -0.14033844 0.14902784 0.137319 0.12474234 -0.13051188 0.1577932 -0.14082521 -0.16210647 0.1504284 0.1425675 0.14266407 -0.140384 -0.1469102 -0.15683009 0.14103612 0.14970376 -0.17830187 0.14316203 0.14102197 -0.16848002 0.1598405 -0.17408398 -0.14215647 -0.12844294 -0.13133503 0.1444241 -0.15103419 -0.13720138 -0.14474505 0.12925754 0.14772679 0.1421682 0.13737118 0.10409342 -0.13966857 -0.13116337 0.17396954 -0.23815683 0.21835779 -0.1484265 -0.16972113 0.14527564 -0.15600644 -0.14608002 0.17734763 0.12348731 0.13523427 0.1496044 0.13264616 0.14385164 0.16994867 -0.14367497 0.1339841 0.15118814 0.13654988 0.17056961 -0.13935255 0.14272784 -0.13909592 -0.062954634 0.14374825 0.13038516 -0.1683785 -0.144989 -0.13851967
animals -0.16248718 0.1332081 -0.16300517 -0.17917089 0.13397555 -0.15148365 -0.13613197 -0.10807869 -0.10730154 0.17103842 -0.108606316 0.19605911 0.18309596 0.16356842 -0.22864205 0.1343212 -0.12460754 0.14456671 -0.26621866 -0.14775644 0.2177583 -0.17439665 0.37933958 0.1355983 -0.17584813 -0.15456674 0.18811715 0.13883652 -0.15537657 -0.15117809 0.11480738 0.16567846 0.123045824 -0.12196943 -0.25621638 -0.12269185 0.17958239 0.13361266 0.13320413 -0.14023496 0.18105213 -0.15372425 -0.22058587 0.16024677 0.12003779 0.113644145 -0.13620923 -0.18943313 -0.17184778 0.16498639 0.14899027 -0.25420824 0.12061824 0.15054515 -0.20993033 0.15687206 -0.2622696 -0.16560622 -0.10591542 -0.11993978 0.124425985 -0.16057946 -0.1264777 -0.15803905 0.1268528 0.17455599 0.16241688 0.15310837 -0.25050876 -0.15147573 -0.1430706 0.18043643 -0.42812905 0.3526706 -0.13894667 -0.20183757 0.15276925 -0.165405 -0.17320086 0.23282945 0.117044084 0.15367968 0.13344482 0.11470961 0.15617031 0.21123892 -0.12228644 0.11128549 0.15235415 0.13392745 0.2014143 -0.14559326 0.15113275 -0.139308 0.3798437 0.07668392 0.11531853 -0.2367535 -0.16311374 -0.15317039
and -0.1403592 0.13450375 -0.10386878 -0.10174676 0.10661894 -0.09748829 -0.10488861 -0.101156816 -0.17526771 0.14216052 -0.099281274 0.14069802 0.1386835 0.13641463 -0.16299284 0.10251764 -0.1294754 0.083533615 -0.14164276 -0.117599614 0.12986663 -0.1226774 0.34632936 0.106503755 -0.12555657 -0.1135357 0.1813036 0.12553848 -0.11705713 -0.112522535 0.10414406 0.11982676 0.091183126 -0.12153425 -0.15992847 -0.10775804 0.11893303 0.13321696 0.10275221 -0.12486092 0.11421226 -0.118759334 -0.13882883 0.12055031 0.12515749 0.11563754 -0.113598295 -0.13324638 -0.14765179 0.12728825 0.1259667 -0.16765906 0.12457873 0.119044475 -0.13974117 0.14541212 -0.18520193 -0.12571064 -0.12300947 -0.101257734 0.10552077 -0.1175497 -0.1179811 -0.11937962 0.12839657 0.14780785 0.12738462 0.11945132 0.18723053 -0.12426502 -0.1341931 0.16358866 -0.45203257 0.23862241 -0.1038492 -0.16291396 0.106707126 -0.10579218 -0.108613566 0.17439516 0.10998144 0.12276946 0.1112041 0.100071415 0.11889989 0.15386802 -0.09410132 0.11176027 0.12074585 0.1256424 0.15318829 -0.11840934 0.10991967 -0.11344672 -0.17329276 0.13916093 0.11187315 -0.16117968 -0.11344232 -0.11824057
plants -0.16659857 0.13648747 -0.15284166 -0.14079788 0.12116787 -0.13627075 -0.1311875 -0.115482606 -0.16503657 0.16044141 -0.12201508 0.16961728 0.16372341 0.1552796 -0.15734701 0.1260034 -0.13380957 0.11913823 -0.21172775 -0.12903988 0.17690115 -0.14641999 0.2909507 0.1090762 -0.15512435 -0.13461806 0.18673152 0.12181494 -0.1462613 -0.12981384 0.12115059 0.14434843 0.12180487 -0.13430524 -0.17566995 -0.122580975 0.16340986 0.12470013 0.11944161 -0.13849664 0.16322891 -0.13374475 -0.17362109 0.139485 0.122850224 0.11290085 -0.13128085 -0.14358777 -0.15027876 0.15469953 0.13838205 -0.1968362 0.12125652 0.14646778 -0.18568991 0.13639477 -0.1909615 -0.15050793 -0.12335985 -0.12294034 0.118488684 -0.14232251 -0.1262931 -0.13316192 0.10801852 0.14984842 0.14315908 0.13738634 -0.045842934 -0.13712361 -0.14027917 0.16919976 -0.2983596 0.27729493 -0.13148107 -0.17040072 0.13612278 -0.153248 -0.16803932 0.20784657 0.10341872 0.13618822 0.14882927 0.10582067 0.14538026 0.18101324 -0.12950768 0.12203337 0.13548061 0.12842445 0.17598261 -0.12522286 0.1343125 -0.12575 0.13050206 0.091432095 0.12617634 -0.18434848 -0.13505074 -0.13163008
need -0.18665802 0.12037369 -0.16960733 -0.18855347 0.1332833 -0.13926145 -0.13225982 -0.1011683 -0.18141986 0.18715146 -0.09410053 0.2121141 0.18717283 0.17682743 -0.22422607 0.17111522 -0.13705736 0.13815972 -0.2953216 -0.13579826 0.22686496 -0.16343482 0.3651738 0.14219204 -0.17355733 -0.16488017 0.25752115 0.15051293 -0.14023353 -0.13774344 0.10015547 0.17918925 0.109383665 -0.13259825 -0.29717734 -0.12558332 0.19718884 0.1379474 0.13150777 -0.12753583 0.18550758 -0.14900915 -0.23473549 0.16591766 0.11282395 0.12850565 -0.13961074 -0.19220154 -0.16761462 0.1664704 0.16605268 -0.25928462 0.1247583 0.15095802 -0.23375292 0.18478012 -0.27516064 -0.15919851 -0.13050897 -0.1053292 0.11731046 -0.15686092 -0.12236463 -0.16123492 0.14690964 0.17999715 0.1659271 0.15089534 -0.14297535 -0.14587462 -0.13115792 0.25923446 -0.38868666 0.4126048 -0.1512392 -0.22387302 0.14849839 -0.17319463 -0.19461943 0.28259626 0.11706248 0.15477332 0.17429146 0.150037 0.15354581 0.2198675 -0.12817046 0.11630288 0.16005035 0.1646569 0.18907046 -0.13162884 0.14479266 -0.11358034 0.2739596 0.15739469 0.111599244 -0.25401232 -0.1605041 -0.1589333
cannot -0.28464648 0.28237656 -0.28733978 -0.2836137 0.29130983 -0.2957696 -0.2918085 -0.29515207 -0.30432186 0.29483092 -0.28883687 0.28798538 0.28550234 0.29960364 -0.30660135 0.28417724 -0.29611683 0.28317797 -0.29029876 -0.29319322 0.29112712 -0.30077654 0.3121149 0.2852719 -0.28545436 -0.2917029 0.3081055 0.28148034 -0.29913756 -0.28710178 0.29121584 0.29873464 0.2951064 -0.28699476 -0.2949301 -0.297356 0.2930049 0.29923838 0.293528 -0.28538013 0.29776496 -0.30080846 -0.30020913 0.28889248 0.28579667 0.28664795 -0.29257128 -0.30601427 -0.29078847 0.3016189 0.29553688 -0.3006661 0.28470904 0.29584634 -0.301902 0.3020737 -0.30520394 -0.2926443 -0.291168 -0.28478742 0.28054523 -0.2886192 -0.2933154 -0.2952664 0.28712827 0.28852525 0.29581767 0.2844902 0.289426 -0.28372452 -0.29961094 0.30673343 -0.33140004 0.3154295 -0.28254583 -0.29222926 0.28891715 -0.29399022 -0.30142352 0.29325354 0.29929417 0.29024258 0.28833976 0.29281837 0.30274695 0.30308574 -0.29619977 0.29703724 0.29729402 0.2961554 0.286168 -0.2863416 0.28946617 -0.29174563 -0.29646012 0.3068759 0.2850627 -0.2987662 -0.29336143 -0.29505917
survive -0.2024653 0.17639522 -0.19556206 -0.1918596 0.16326667 -0.18165514 -0.16410771 -0.16030283 -0.19838683 0.1962741 -0.16372433 0.20610459 0.18658525 0.18128128 -0.22791637 0.17890368 -0.16821793 0.1819162 -0.2407562 -0.18087007 0.20186278 -0.19291753 0.28484783 0.16672988 -0.18516913 -0.17795734 0.21931729 0.17338666 -0.17198679 -0.17533226 0.15678912 0.18752387 0.17021278 -0.1670111 -0.22977388 -0.16320445 0.19742855 0.17177732 0.1627549 -0.18112452 0.18407182 -0.18431213 -0.2170892 0.18165872 0.16757305 0.16904882 -0.18031134 -0.19824964 -0.1884266 0.18378396 0.19197775 -0.23840801 0.1619034 0.17486915 -0.21075264 0.19930632 -0.21997076 -0.18229344 -0.1644127 -0.16595204 0.1781749 -0.19105442 -0.16331801 -0.18779497 0.17129761 0.19477715 0.1740534 0.173065 0.06150968 -0.1707632 -0.16685854 0.22132468 -0.28597665 0.2774772 -0.19031395 -0.20941113 0.17456228 -0.19273226 -0.1881025 0.22336692 0.15967311 0.16840333 0.18575722 0.17773584 0.16530423 0.1941237 -0.16539432 0.16385925 0.18215139 0.1844264 0.20288569 -0.16758047 0.16792513 -0.17756315 0.0007162034 0.1726354 0.16440931 -0.2141058 -0.16894822 -0.1802778
without -0.17265919 0.09737412 -0.14039111 -0.17163688 0.097025014 -0.13192348 -0.1155221 -0.078661606 -0.20136572 0.17686073 -0.07845326 0.208531 0.17489137 0.14737761 -0.24001761 0.1488979 -0.1028862 0.10800888 -0.28501883 -0.1250038 0.19688164 -0.14700577 0.32808876 0.12395316 -0.16117139 -0.13444032 0.24246643 0.13997835 -0.1262723 -0.116143666 0.08085618 0.14753124 0.10186967 -0.12138398 -0.26889327 -0.10457231 0.17459543 0.111607134 0.10451025 -0.12433481 0.16643697 -0.1308957 -0.20112304 0.1409003 0.09187199 0.096445926 -0.12453017 -0.18001118 -0.15907054 0.12709671 0.14565079 -0.2812297 0.09169634 0.1298138 -0.19412626 0.18109174 -0.29287547 -0.1403977 -0.107825056 -0.077225454 0.08771433 -0.15604238 -0.111759394 -0.13980453 0.121349186 0.15909399 0.13581914 0.11569953 0.06239568 -0.13859987 -0.112993814 0.262133 -0.32110816 0.3884163 -0.13968895 -0.19763139 0.122912265 -0.16213961 -0.18225512 0.2554673 0.10438172 0.13539271 0.14349261 0.1341093 0.12912853 0.19066004 -0.10649297 0.086960316 0.13445921 0.15572885 0.19370955 -0.10772055 0.116402045 -0.10330517 0.041680783 0.14595857 0.0926756 -0.22162722 -0.13972723 -0.13005431
Many -0.16108215 0.12163932 -0.13636778 -0.15941216 0.10767206 -0.116970345 -0.12576859 -0.08945746 -0.1420461 0.15679437 -0.093026586 0.17113487 0.16380419 0.14844103 -0.21740432 0.12704596 -0.10393252 0.11531517 -0.2713921 -0.12970671 0.20181334 -0.15711868 0.4611625 0.12309681 -0.1498521 -0.14907606 0.22865286 0.120237045 -0.1409261 -0.14009692 0.0997202 0.15643659 0.08158046 -0.12155758 -0.24094799 -0.086653724 0.15691353 0.10919293 0.11313128 -0.116818145 0.16925246 -0.1233255 -0.20380104 0.12539442 0.10844406 0.10862462 -0.11159256 -0.17644492 -0.15670969 0.14587459 0.14822234 -0.23248431 0.09554882 0.14192988 -0.20081562 0.16237558 -0.2527808 -0.14550132 -0.1052356 -0.089666285 0.09767362 -0.14742453 -0.12105907 -0.13902436 0.12689975 0.16779941 0.14883077 0.115656644 -0.07384866 -0.14017633 -0.11627398 0.19874078 -0.59379834 0.39722282 -0.1269572 -0.19429056 0.13118905 -0.14201961 -0.15731841 0.24412984 0.095954426 0.14254273 0.12857561 0.108495496 0.13571407 0.20470968 -0.11329624 0.08574386 0.1274357 0.12923978 0.17889246 -0.1191806 0.11815291 -0.096851304 0.22102618 0.091362305 0.10102015 -0.22968537 -0.13893765 -0.12684946
be -0.2541289 0.052944347 -0.15440635 -0.20701331 0.05099101 -0.101200536 -0.0906458 0.0033209915 -0.2894806 0.20039627 0.003006322 0.29316264 0.20921423 0.15843709 -0.35063124 0.10966031 -0.063274175 0.08201743 -0.40233994 -0.10297191 0.2522872 -0.1518295 0.43642637 0.08159398 -0.15718925 -0.122602165 0.40211174 0.1313038 -0.11436212 -0.102292426 0.024359733 0.13066176 0.019886643 -0.06840322 -0.40245146 -0.041421615 0.20600252 0.062774815 0.060951028 -0.07116357 0.21925725 -0.106581375 -0.25178275 0.117943615 0.060161404 0.041271828 -0.07283035 -0.19081278 -0.13750002 0.14301273 0.13807507 -0.42539424 0.029712534 0.11516199 -0.25675672 0.18080693 -0.44648102 -0.14661407 -0.0825294 -0.009094654 0.059282996 -0.17513081 -0.076551996 -0.118932195 0.10017575 0.18035977 0.14186859 0.10779202 0.049909856 -0.10893033 -0.09166358 0.38422623 -0.451963 0.60097617 -0.13441686 -0.2425748 0.12888971 -0.18325213 -0.2188036 0.39843845 0.027323147 0.11420417 0.16478544 0.12537979 0.083301544 0.2077095 -0.061576266 0.015412751 0.12675646 0.14904088 0.24263461 -0.09386064 0.078703016 -0.026021797 0.18561436 0.12350844 0.07080339 -0.29450244 -0.09574467 -0.107247874
grown -0.16332811 0.13276069 -0.15087086 -0.16421676 0.13991472 -0.1458885 -0.13821633 -0.12663488 -0.17404205 0.16731483 -0.13061017 0.16850026 0.17342435 0.15478496 -0.18781157 0.13915451 -0.13534445 0.15043738 -0.20889263 -0.15953954 0.171298 -0.16396415 0.25624835 0.13640927 -0.16133904 -0.15904698 0.19133732 0.1549485 -0.14802666 -0.15327808 0.12560137 0.16008711 0.14264406 -0.13819383 -0.20274182 -0.13333747 0.17430575 0.14490017 0.14436887 -0.14082927 0.1591984 -0.14724128 -0.18459971 0.14227526 0.14018202 0.12884733 -0.14857437 -0.17295335 -0.16471225 0.14798437 0.14349411 -0.19182654 0.13775192 0.14860633 -0.17031291 0.14624861 -0.19645393 -0.16523814 -0.12996386 -0.14268242 0.12909374 -0.16066507 -0.14177032 -0.14722218 0.1437682 0.16153595 0.1533241 0.14266603 0.10720694 -0.14892219 -0.14017224 0.18525913 -0.24956752 0.24474932 -0.15473858 -0.17092477 0.14029565 -0.1634561 -0.15805204 0.18823251 0.13751467 0.15851007 0.15011463 0.13694046 0.1468682 0.16140297 -0.14819357 0.13666739 0.14857149 0.15650414 0.16811872 -0.13583449 0.1410376 -0.13083062 -0.047450773 0.14763539 0.13004893 -0.175543 -0.1441199 -0.13986075
in -0.13830665 0.17451592 -0.10464066 -0.11227533 0.13041195 -0.14206958 -0.14294703 -0.13135964 -0.14164479 0.122658394 -0.16578385 0.10666931 0.09802282 0.12899844 -0.1345388 0.11177641 -0.13420469 0.12334286 -0.090564035 -0.12432293 0.11195792 -0.13430165 0.2911466 0.13021736 -0.109607086 -0.13666837 0.15340297 0.13106626 -0.12266565 -0.15082021 0.15946269 0.10316399 0.123266146 -0.1360599 -0.11493001 -0.13848478 0.09921364 0.14649263 0.12705676 -0.13154191 0.11103496 -0.1238183 -0.0889174 0.119363 0.14579256 0.12995538 -0.14437608 -0.103498444 -0.12974277 0.15305573 0.12916483 -0.09638785 0.1441019 0.140625 -0.09010576 0.12826464 -0.10940865 -0.13065846 -0.13631944 -0.13958372 0.13642019 -0.10400525 -0.1496713 -0.12977238 0.16831195 0.13909934 0.11752853 0.13662618 0.27151957 -0.13372749 -0.14997526 0.10445962 -0.47782943 0.09920157 -0.12248045 -0.13192323 0.12892067 -0.09809705 -0.077676095 0.15833373 0.14857917 0.13588043 0.1004016 0.11601567 0.14993908 0.1211102 -0.14112306 0.14263089 0.11672111 0.13418965 0.14949748 -0.14860567 0.15733102 -0.13871664 -0.34222227 0.15354116 0.1496171 -0.09052871 -0.13693695 -0.14209218
Water -0.13012603 0.12004926 -0.12520169 -0.10144092 0.1197579 -0.128989 -0.12542346 -0.1311843 -0.09412394 0.112170294 -0.1245306 0.110256694 0.11627243 0.12812164 -0.122209735 0.13399035 -0.11714355 0.13186096 -0.0979376 -0.124371186 0.11270876 -0.13158213 0.08366938 0.12782088 -0.11255738 -0.13354799 0.120600104 0.12778318 -0.11616746 -0.13440447 0.13557349 0.11642713 0.12685207 -0.11693553 -0.104421645 -0.13377066 0.11190946 0.12952273 0.12493684 -0.12889363 0.12787524 -0.120654404 -0.10958996 0.12762117 0.120157294 0.12531042 -0.13437937 -0.121177666 -0.121508405 0.13271315 0.12464302 -0.1032894 0.12078736 0.12642543 -0.112672985 0.11128729 -0.1035611 -0.1146876 -0.13706051 -0.13091427 0.11362078 -0.11477556 -0.13090244 -0.12543824 0.12962484 0.120754644 0.12532489 0.11152923 0.13614824 -0.13340859 -0.12978111 0.10218006 0.08583311 0.07819181 -0.12030338 -0.10809147 0.12667343 -0.12453203 -0.11142536 0.106815 0.13676469 0.13266182 0.122563705 0.11675622 0.12083129 0.10603001 -0.116785474 0.13596612 0.11936862 0.12514783 0.13396284 -0.13774607 0.12778763 -0.1238264 -0.12601651 0.12690416 0.119730674 -0.11328428 -0.13005579 -0.12843092
when -0.19486763 0.09815356 -0.14484303 -0.17778711 0.095099434 -0.10419878 -0.1036269 -0.061113432 -0.24366742 0.16168685 -0.05737373 0.22031642 0.14907463 0.15403004 -0.2823053 0.123413175 -0.090482876 0.093678065 -0.29233813 -0.122771375 0.19261147 -0.1513306 0.39673495 0.110119276 -0.15751094 -0.12807305 0.29769868 0.1354349 -0.11802779 -0.121996015 0.07410773 0.15062386 0.08522073 -0.101908885 -0.2951622 -0.08735798 0.179603 0.118698604 0.09893202 -0.11247526 0.17616828 -0.10828355 -0.20660843 0.13536628 0.08777212 0.08767936 -0.11682501 -0.1658824 -0.14862393 0.14289752 0.14066368 -0.29954642 0.090786956 0.13506234 -0.19185792 0.16228834 -0.30254826 -0.14853519 -0.09181066 -0.073922694 0.08769283 -0.13746518 -0.09286945 -0.11836952 0.1160508 0.16595572 0.14971302 0.13146354 0.21709464 -0.13007809 -0.124652065 0.27975467 -0.30427107 0.40969488 -0.13016793 -0.20150802 0.12119856 -0.16133188 -0.17026532 0.27548784 0.0950176 0.12914023 0.14312007 0.15315895 0.12743385 0.20774284 -0.087941125 0.07685045 0.13168006 0.14273943 0.21939312 -0.1131804 0.1114991 -0.090355136 -0.13976574 0.14176892 0.08863066 -0.23407724 -0.132115 -0.12462477
needed. -0.07944598 0.063898385 -0.080806546 -0.082843 0.078478925 -0.071442775 -0.06656439 -0.08412253 -0.07105292 0.074644074 -0.07262065 0.07227324 0.06940895 0.06323547 -0.074053004 0.06287515 -0.07637889 0.07006692 -0.06814249 -0.07723233 0.071495585 -0.06908037 0.06132174 0.07598179 -0.07969077 -0.06970379 0.07251693 0.072270155 -0.082319394 -0.067658246 0.06454802 0.075514235 0.07115987 -0.07095062 -0.079246074 -0.06588233 0.08076803 0.06638331 0.075539164 -0.08413509 0.0790972 -0.07798892 -0.069800496 0.07689464 0.066243574 0.074569024 -0.074626505 -0.08130184 -0.07594497 0.073194146 0.06604241 -0.07227881 0.06532728 0.07862682 -0.07007745 0.074051835 -0.07066548 -0.06653207 -0.07516651 -0.08300013 0.07330215 -0.08126648 -0.06793583 -0.075062506 0.068834975 0.070309035 0.063674875 0.07070289 0.07350277 -0.06644571 -0.08025744 0.06264699 -0.058586173 0.07498253 -0.073154055 -0.07150584 0.08197846 -0.068282925 -0.06384139 0.068376884 0.070621766 0.06706698 0.079714626 0.07297399 0.07931071 0.066271655 -0.076693036 0.07662073 0.06419015 0.07628585 0.069401346 -0.080606975 0.07352166 -0.07829305 -0.07579251 0.07937565 0.0815585 -0.06777126 -0.08224282 -0.07517359
nutrients -0.25797006 0.24565226 -0.25821507 -0.24620911 0.2414952 -0.2396244 -0.23685367 -0.24384665 -0.24458613 0.25142255 -0.24822022 0.26905262 0.2630936 0.24871543 -0.2816702 0.24473798 -0.25178277 0.25151637 -0.2801225 -0.2562682 0.26319784 -0.24813399 0.28707996 0.24627334 -0.25335377 -0.24616803 0.25329062 0.2580305 -0.24290515 -0.2425536 0.23016559 0.24428537 0.25558987 -0.24650487 -0.2719023 -0.24310753 0.24275137 0.2466082 0.23555337 -0.24516651 0.24967673 -0.25038603 -0.24675459 0.24740215 0.24472049 0.24681151 -0.24864303 -0.2559141 -0.25404757 0.256318 0.2606673 -0.2758701 0.24854654 0.25453806 -0.25786787 0.2610059 -0.25917062 -0.24544747 -0.2548124 -0.24453667 0.23996045 -0.25236514 -0.24152145 -0.24106361 0.2446841 0.2515874 0.24794878 0.24434032 0.17760144 -0.24292383 -0.25222957 0.26403776 -0.28131858 0.31188753 -0.25199756 -0.25391072 0.24333918 -0.2613148 -0.25315225 0.25921193 0.23672517 0.24608095 0.24918641 0.25046638 0.23761787 0.253092 -0.24421126 0.24366437 0.24234761 0.26283073 0.24233165 -0.2561547 0.25669172 -0.2479713 -0.20758502 0.24244973 0.23715928 -0.26244724 -0.24264611 -0.24322216
for -0.1467947 0.12448105 -0.12687771 -0.13911583 0.09943883 -0.11241467 -0.11430391 -0.09295217 -0.1797665 0.1370799 -0.07415344 0.17171644 0.15193072 0.14273983 -0.19690672 0.1284659 -0.10070613 0.09731861 -0.20900734 -0.10615613 0.168239 -0.13425255 0.35932294 0.10930911 -0.13985236 -0.12348619 0.19488847 0.12575705 -0.13623247 -0.12764074 0.10911914 0.13501629 0.09262823 -0.10723417 -0.2166944 -0.11018392 0.14166303 0.108628936 0.112383746 -0.1085067 0.13240837 -0.11763861 -0.17050701 0.13360389 0.11466602 0.096390575 -0.09859937 -0.15771163 -0.1474302 0.15059702 0.13209616 -0.23313971 0.11282184 0.13736448 -0.17179655 0.16092525 -0.22946632 -0.13145015 -0.10761677 -0.09507302 0.09816653 -0.11801908 -0.109203756 -0.1252422 0.14279352 0.14294173 0.13247171 0.12196965 0.13199769 -0.11972148 -0.10896224 0.20937394 -0.58788687 0.32504565 -0.10590824 -0.19307071 0.10738615 -0.11716136 -0.13369021 0.20743462 0.10850763 0.10733588 0.13497439 0.1383716 0.13733043 0.17403682 -0.08071925 0.09259844 0.13552637 0.13938354 0.15480347 -0.13580866 0.119733825 -0.093130514 -0.08301764 0.14295731 0.10917323 -0.19116414 -0.12537104 -0.11648679
make -0.20714231 0.082194716 -0.14584756 -0.17322898 0.07377298 -0.11213361 -0.0902971 -0.04633926 -0.22567905 0.17616436 -0.032029983 0.23448342 0.18971105 0.16185696 -0.28721678 0.13081789 -0.09125443 0.09231204 -0.3397559 -0.111889 0.23968533 -0.1560703 0.4303631 0.10454684 -0.1476526 -0.13766417 0.23657973 0.13428347 -0.12570426 -0.11655976 0.038426753 0.15473552 0.052537173 -0.08949935 -0.29587975 -0.06378387 0.18848795 0.10545387 0.08995266 -0.09684693 0.18565017 -0.113081776 -0.24292378 0.14447923 0.08248942 0.06523995 -0.0950256 -0.1895391 -0.16217947 0.13267337 0.15207464 -0.33547553 0.06852729 0.13763116 -0.23421761 0.18638214 -0.36935568 -0.1431532 -0.09333182 -0.05485391 0.0803699 -0.13843445 -0.083142824 -0.11823914 0.102429636 0.1722695 0.1371526 0.11630966 -0.095596366 -0.120415345 -0.1000006 0.2941186 -0.41633224 0.5171318 -0.12551782 -0.22129577 0.10775778 -0.1378039 -0.20350637 0.31158906 0.07195517 0.11273392 0.13844766 0.106816694 0.10388526 0.22637703 -0.0769472 0.061814167 0.12683982 0.12992653 0.1658973 -0.098074004 0.093749985 -0.06914027 0.28971404 0.107473604 0.07660004 -0.2777325 -0.13577154 -0.12498584
own -0.1565441 0.1128693 -0.16451837 -0.16413832 0.12666154 -0.1432758 -0.13239262 -0.10922521 -0.19206353 0.16460939 -0.108636 0.21508028 0.19040403 0.14378709 -0.25110087 0.14664966 -0.11103986 0.12458782 -0.26717427 -0.12625724 0.20683596 -0.161821 0.4105544 0.1289965 -0.15478538 -0.15113276 0.16687362 0.14629799 -0.13679498 -0.13616805 0.10843867 0.15081386 0.10885959 -0.14852343 -0.20754114 -0.11862132 0.18784274 0.12485586 0.123604886 -0.13119084 0.19025363 -0.12753235 -0.21755141 0.13974397 0.12373971 0.119771995 -0.13962404 -0.18878154 -0.1670738 0.15537824 0.15697838 -0.2516755 0.1272222 0.15550368 -0.19664104 0.18659773 -0.28107983 -0.15678674 -0.11946006 -0.10351982 0.12820072 -0.16193944 -0.13415469 -0.1524299 0.14822727 0.17227584 0.16281618 0.1378059 -0.019670667 -0.143003 -0.14625618 0.25809154 -0.41454786 0.39838767 -0.14065175 -0.21166079 0.15041155 -0.16500643 -0.18799892 0.20885469 0.12009605 0.13196145 0.17074981 0.13422279 0.1302382 0.18905988 -0.123889774 0.09024574 0.14638823 0.15090792 0.14850752 -0.141399 0.117150575 -0.11578483 0.08692983 0.13086313 0.12802474 -0.22886814 -0.16163525 -0.14913888
energy -0.186049 0.15824302 -0.17210041 -0.20321074 0.16914846 -0.16898137 -0.17000909 -0.16474067 -0.24077289 0.18510836 -0.15093161 0.20897436 0.20296009 0.18827087 -0.17545566 0.18717875 -0.16207276 0.17419496 -0.19295074 -0.18017328 0.1874019 -0.1687455 -0.0032575736 0.1644012 -0.17659068 -0.18739206 0.22649527 0.18616723 -0.18204913 -0.17426169 0.16353507 0.18651456 0.1751085 -0.1752545 -0.20049265 -0.17571054 0.19333193 0.17871436 0.172326 -0.1612019 0.1896098 -0.1768652 -0.18959963 0.17617604 0.16932766 0.16443035 -0.1595465 -0.19363493 -0.17022343 0.17492127 0.18888259 -0.17933777 0.15531462 0.18731762 -0.20317906 0.19095811 -0.24497376 -0.18492699 -0.17822891 -0.16352661 0.16165303 -0.17523843 -0.1572137 -0.16509256 0.18373288 0.19330297 0.1777591 0.16903731 0.19298738 -0.1818285 -0.16655406 0.23722778 0.15004219 0.20684464 -0.17627193 -0.16756466 0.17246187 -0.17593654 -0.2008854 0.2129544 0.16738571 0.16789061 0.18394217 0.19480908 0.17146988 0.18666086 -0.15583761 0.16785035 0.17263989 0.19168463 0.16989052 -0.1841507 0.1776832 -0.16998294 -0.15789585 0.1835788 0.1692619 -0.19146483 -0.16962525 -0.16668881
eating -0.14772399 0.123149924 -0.14003195 -0.1594614 0.13185364 -0.1361331 -0.14460325 -0.11392793 -0.17352147 0.15527342 -0.12847134 0.16576092 0.15969506 0.15775624 -0.17445664 0.14206156 -0.12921757 0.14155062 -0.21440391 -0.13848826 0.17863975 -0.16480592 0.25207448 0.12737703 -0.14905536 -0.14086369 0.1848626 0.14722867 -0.14028539 -0.13396049 0.11466483 0.15829161 0.12844451 -0.14300694 -0.19666898 -0.13083325 0.17246397 0.14426574 0.14117004 -0.14771622 0.15652162 -0.1499542 -0.17144758 0.15348993 0.13702561 0.12915227 -0.14005846 -0.167441 -0.15060742 0.14215948 0.15850422 -0.19403589 0.11608344 0.14713389 -0.17123093 0.15174486 -0.191467 -0.14318517 -0.11672965 -0.13203396 0.13684346 -0.15749937 -0.13829271 -0.1516665 0.13658409 0.14741038 0.1574091 0.14482984 0.040540364 -0.135794 -0.13919634 0.19545767 -0.28083095 0.25109032 -0.13838053 -0.16351855 0.14056343 -0.15200797 -0.16301256 0.19267637 0.12783667 0.14542434 0.14171232 0.1317697 0.14776658 0.18201573 -0.1394781 0.11912887 0.13882999 0.14927168 0.15293373 -0.12394347 0.12942392 -0.14076142 0.018287048 0.11104345 0.124388054 -0.17683113 -0.15503962 -0.1485081
or -0.1788034 0.08662403 -0.14194967 -0.15247045 0.09477595 -0.09090665 -0.08887449 -0.049859013 -0.22389913 0.1451835 -0.041266263 0.1816267 0.15965237 0.14143048 -0.24102628 0.120806076 -0.08479214 0.097616866 -0.2680798 -0.11298824 0.1819566 -0.14408565 0.299496 0.099122204 -0.13605279 -0.11946385 0.23852131 0.13272068 -0.11171694 -0.10552093 0.061879996 0.13523735 0.0724524 -0.09234976 -0.28534356 -0.08462198 0.16532445 0.085336976 0.0754856 -0.09626253 0.15751673 -0.11147637 -0.187633 0.121627145 0.07162042 0.07110996 -0.10352125 -0.16625145 -0.12841116 0.13763444 0.13803102 -0.27193502 0.07894693 0.11907989 -0.20832191 0.16219556 -0.29290992 -0.13945487 -0.07038437 -0.06478222 0.06688119 -0.13920797 -0.07845896 -0.10201954 0.102476865 0.14140476 0.118528076 0.11164011 0.069967754 -0.10880449 -0.09403541 0.2301097 -0.30772868 0.3881498 -0.11719761 -0.18384865 0.11782354 -0.14990845 -0.15226963 0.25367796 0.079992466 0.1057316 0.1289198 0.116408676 0.1139439 0.19308902 -0.08174277 0.05967534 0.1142083 0.1273541 0.17762399 -0.10010473 0.08276036 -0.07768655 0.056657936 0.12581559 0.07128143 -0.2132765 -0.10229559 -0.1201182
other -0.20171566 0.09468721 -0.1570568 -0.1673529 0.08028108 -0.11442088 -0.100338764 -0.053894367 -0.20994331 0.17037833 -0.060463656 0.21477447 0.19391446 0.15770748 -0.26936626 0.12419701 -0.100165136 0.101993494 -0.3458934 -0.107619986 0.24631497 -0.14654085 0.49793342 0.08726766 -0.14877762 -0.126408 0.29119235 0.11240201 -0.12880634 -0.111950204 0.049572997 0.14775333 0.06622034 -0.10732982 -0.31444114 -0.06674468 0.18419632 0.08347543 0.08425484 -0.09162071 0.20514229 -0.12250322 -0.23491627 0.14233583 0.0895638 0.08125247 -0.093644366 -0.17820689 -0.14190654 0.14297329 0.14884491 -0.32005647 0.071995884 0.13240273 -0.22036433 0.17176601 -0.3175874 -0.1540802 -0.09154707 -0.04971269 0.0637424 -0.12649763 -0.09382308 -0.12271865 0.08901074 0.17432152 0.14549392 0.11886746 -0.06035025 -0.13067429 -0.10594559 0.2768333 -0.5813153 0.51476884 -0.123285934 -0.22345878 0.13318965 -0.15225092 -0.17839357 0.30846596 0.06058224 0.12650934 0.12499496 0.10372096 0.12570512 0.2273469 -0.08803209 0.05428411 0.11978727 0.11563968 0.21399903 -0.116172194 0.09438815 -0.09094378 0.22175886 0.08991982 0.09041251 -0.26852638 -0.13173646 -0.13257919
which -0.19451231 0.08466334 -0.13005649 -0.18673563 0.09251297 -0.09542429 -0.088295795 -0.038029548 -0.27305514 0.1585843 -0.051394895 0.21253349 0.17131923 0.12890385 -0.27574566 0.1240386 -0.0771501 0.09115978 -0.28160536 -0.11498787 0.1974864 -0.12642814 0.35688478 0.08585958 -0.11950834 -0.12335896 0.27133784 0.13289665 -0.108082056 -0.11039814 0.054953124 0.13142899 0.07058604 -0.084668055 -0.30698654 -0.06274876 0.18615295 0.09225176 0.08669262 -0.08706059 0.17173687 -0.08654614 -0.20627846 0.1274855 0.08397918 0.07630421 -0.09157616 -0.16313837 -0.13936777 0.14919221 0.14151643 -0.32129607 0.086688384 0.13879107 -0.2195602 0.17559898 -0.34008396 -0.122278266 -0.068422474 -0.051605385 0.069677964 -0.11902504 -0.069046736 -0.10644104 0.1215758 0.15951326 0.11973595 0.10870939 0.19351733 -0.11655922 -0.10417974 0.28458804 -0.35680193 0.43144307 -0.12885511 -0.20803091 0.10399714 -0.14057596 -0.1648521 0.28397852 0.0638793 0.10160662 0.14157173 0.15233573 0.105281875 0.18257222 -0.07684346 0.053245004 0.1183673 0.14516363 0.18545634 -0.115119345 0.09831382 -0.06773822 -0.08022098 0.140751 0.08715382 -0.2258719 -0.11730521 -0.108201414
eat -0.16520892 0.12793404 -0.15799396 -0.15685761 0.12375263 -0.14062503 -0.14013396 -0.09808193 -0.17217608 0.18257666 -0.09517733 0.17781766 0.19113901 0.16887218 -0.19002847 0.15241052 -0.12192814 0.1406354 -0.26942956 -0.14798142 0.19916162 -0.17454565 0.373128 0.13336982 -0.16355607 -0.15411176 0.19867373 0.12420614 -0.14372896 -0.14290124 0.10758226 0.16774775 0.10828132 -0.118710846 -0.22261834 -0.123503774 0.18181245 0.12023267 0.12014955 -0.13573067 0.16865084 -0.14013526 -0.21290672 0.16244943 0.12448148 0.1207893 -0.12729883 -0.17420356 -0.17365886 0.16372256 0.16057074 -0.22557233 0.10072102 0.14528449 -0.1964788 0.17803529 -0.24410538 -0.16261734 -0.101071365 -0.09746517 0.11398841 -0.16131775 -0.12788546 -0.15684754 0.119774334 0.16975895 0.14951336 0.13698281 -0.15441006 -0.15345404 -0.13254374 0.21789086 -0.36942577 0.35517564 -0.1381908 -0.18755826 0.15197593 -0.17433046 -0.1753418 0.22773638 0.11223636 0.15240626 0.13748719 0.10656519 0.13003764 0.19419308 -0.12879372 0.10352824 0.153062 0.12438903 0.17828113 -0.12794198 0.13569845 -0.13178384 0.2950133 0.067616604 0.111890756 -0.22860344 -0.15947624 -0.14463623
take -0.19589633 0.10955379 -0.15078393 -0.17867716 0.11290938 -0.13513176 -0.1335041 -0.082945816 -0.18927763 0.17603405 -0.07894212 0.21449277 0.16988112 0.15792897 -0.26184088 0.15209174 -0.13319418 0.12844537 -0.298562 -0.1299354 0.21347256 -0.16947308 0.3713775 0.12802605 -0.15967327 -0.14758514 0.24872555 0.14753717 -0.14287995 -0.14700472 0.09072879 0.17143981 0.09636508 -0.12847081 -0.28298384 -0.11017172 0.17776363 0.13580285 0.124278784 -0.13698179 0.17479484 -0.13777213 -0.20372823 0.1609475 0.11885404 0.119268216 -0.12486831 -0.19612202 -0.15577936 0.15162028 0.16145839 -0.29431093 0.11689472 0.15612821 -0.21166542 0.17036249 -0.28617963 -0.1470922 -0.12613618 -0.08543021 0.10797345 -0.15155998 -0.11823715 -0.1357841 0.12845966 0.17937137 0.15838403 0.14838144 -0.0061653475 -0.15626137 -0.1297993 0.2585087 -0.3556632 0.3967166 -0.15279675 -0.21671964 0.130051 -0.17276452 -0.18091136 0.2797654 0.10329433 0.13795489 0.15994516 0.13392203 0.12583332 0.19705465 -0.12302514 0.08982929 0.14780913 0.15108386 0.19079177 -0.13447747 0.13281946 -0.10166759 0.10075291 0.16576736 0.109424524 -0.24345124 -0.1332309 -0.14703906
water, -0.33094686 0.31597713 -0.32551882 -0.31523708 0.3121742 -0.32349667 -0.32603723 -0.3237064 -0.3458001 0.32929212 -0.3234013 0.3188778 0.32073578 0.32517216 -0.3442041 0.32861826 -0.31744885 0.3190705 -0.32507554 -0.32660574 0.3348223 -0.32385013 0.3575917 0.32414898 -0.31736234 -0.3290609 0.34258014 0.31229898 -0.31803322 -0.32456163 0.32222083 0.32970414 0.30910945 -0.31708503 -0.32882658 -0.3084119 0.32728377 0.31256658 0.32242107 -0.32572863 0.31968904 -0.3195703 -0.32271272 0.30910546 0.32411495 0.31890696 -0.30906346 -0.3202809 -0.32723853 0.32388508 0.321491 -0.34306604 0.323606 0.31432775 -0.32635587 0.33159563 -0.35233623 -0.3124507 -0.31603563 -0.31162432 0.31188515 -0.32709432 -0.3163731 -0.31208783 0.31846458 0.3328823 0.3139692 0.3153346 0.34000915 -0.3254552 -0.31478277 0.32692668 -0.35486868 0.34251606 -0.32817975 -0.3374061 0.32539415 -0.3323797 -0.32705438 0.32566017 0.3281287 0.3126981 0.3180135 0.31535363 0.32071686 0.3218299 -0.32154197 0.31223765 0.32291433 0.330952 0.3190575 -0.31638753 0.3274466 -0.3111681 -0.33791983 0.32323876 0.31709874 -0.3179128 -0.3139367 -0.32150617
food. -0.26165694 0.25422844 -0.2591779 -0.2664163 0.26140025 -0.2633241 -0.25634345 -0.26387537 -0.24049471 0.27077624 -0.2568589 0.2559468 0.27081618 0.25466534 -0.24746516 0.25362626 -0.25833634 0.26465493 -0.24645631 -0.2657638 0.2597013 -0.25874528 0.25652978 0.25911584 -0.26259816 -0.27110988 0.23846728 0.2552162 -0.2671465 -0.2670708 0.25081882 0.2638789 0.2633505 -0.25941435 -0.25782028 -0.25175905 0.2674771 0.2568856 0.2669782 -0.2648107 0.2609585 -0.26267427 -0.27371874 0.25472 0.26354912 0.26712236 -0.26603547 -0.26092413 -0.26856568 0.2606623 0.25742018 -0.27824974 0.2553632 0.26408362 -0.2532385 0.2667534 -0.26331827 -0.2683907 -0.27327463 -0.26613295 0.2662251 -0.2623451 -0.25245327 -0.2647859 0.269248 0.26998264 0.26334605 0.25493672 0.21672052 -0.26293853 -0.27131584 0.2741691 -0.28068766 0.26635507 -0.25311133 -0.27270567 0.25388265 -0.2576012 -0.2681491 0.2513342 0.2576463 0.24960203 0.25808257 0.26254284 0.25150472 0.26597807 -0.26991886 0.26642415 0.2700975 0.26978037 0.24780934 -0.26575765 0.26576537 -0.256993 -0.21329506 0.26830032 0.2630712 -0.27262324 -0.25729945 -0.2699911
grow. -0.21940266 0.21993624 -0.21334016 -0.21631627 0.22266741 -0.20812795 -0.22313029 -0.22425427 -0.20262288 0.22225282 -0.2084475 0.206616 0.22422662 0.21633954 -0.21907172 0.21696964 -0.22472556 0.21626341 -0.2241602 -0.22515266 0.22113231 -0.22289641 0.22104846 0.22416858 -0.20661932 -0.20840287 0.19906652 0.22526625 -0.21471435 -0.21402702 0.2155721 0.22471423 0.21750838 -0.21503022 -0.22271779 -0.22444782 0.21982524 0.21953282 0.20946278 -0.22288896 0.21812916 -0.21189724 -0.2111663 0.2185076 0.21858566 0.21469893 -0.22174095 -0.21702114 -0.22470796 0.21521156 0.21356899 -0.21552482 0.22412539 0.21333785 -0.22092438 0.21869232 -0.21931921 -0.21647847 -0.22770071 -0.22283079 0.22185907 -0.21693696 -0.21420467 -0.20963052 0.21431403 0.20679218 0.2134724 0.20751746 0.17945252 -0.21125638 -0.21094894 0.20456141 -0.200426 0.21083628 -0.21132673 -0.22887155 0.2229766 -0.21893899 -0.22437774 0.22654918 0.20691684 0.21131472 0.22828147 0.20411114 0.21457814 0.21714757 -0.22414352 0.20847394 0.22470392 0.22274049 0.21423188 -0.22315869 0.20530593 -0.21351458 -0.17073615 0.22882214 0.20951116 -0.21282014 -0.21953368 -0.21871234
Also -0.14942215 0.12139863 -0.13161689 -0.14809212 0.13273874 -0.13161345 -0.13461828 -0.121445134 -0.15419613 0.15567644 -0.12415418 0.14733164 0.14130616 0.13865663 -0.16853563 0.13367543 -0.13081798 0.13251069 -0.17499922 -0.14096747 0.1438947 -0.14590503 0.19079913 0.1406805 -0.13776688 -0.13918398 0.17761128 0.13490863 -0.1421413 -0.13160369 0.12081772 0.13491891 0.13389109 -0.13497324 -0.1827114 -0.1245192 0.15125394 0.12665692 0.1317831 -0.12066331 0.14892863 -0.1397374 -0.15860252 0.13555045 0.12388319 0.12241625 -0.13450572 -0.14932935 -0.14180619 0.14156811 0.13585803 -0.17220122 0.11882909 0.13187319 -0.15626116 0.1392987 -0.17629427 -0.14087814 -0.12160167 -0.11945188 0.11811371 -0.14863238 -0.12671256 -0.12676413 0.1395592 0.14253639 0.14307949 0.1342331 0.11926036 -0.14971778 -0.1319947 0.16122203 -0.17900388 0.1944928 -0.13600683 -0.14502427 0.13779204 -0.14090396 -0.13877302 0.17387432 0.12601921 0.12714507 0.14673735 0.14058793 0.13844258 0.14419913 -0.13275 0.12210659 0.13146736 0.14236993 0.1516662 -0.13247715 0.12594783 -0.12449783 -0.07556637 0.14297336 0.12984894 -0.14912793 -0.14432894 -0.1321767
because -0.20387965 0.08528853 -0.13252763 -0.18555118 0.07447808 -0.10648056 -0.09342874 -0.020610591 -0.22960128 0.18032213 -0.03041219 0.23133951 0.1818999 0.1600289 -0.30767804 0.1294262 -0.08587883 0.087063186 -0.3589472 -0.11127423 0.23170806 -0.15421535 0.56226337 0.10078607 -0.15397733 -0.13401769 0.3090223 0.12853229 -0.124584176 -0.10564502 0.04212436 0.15825173 0.04415585 -0.112297274 -0.3676617 -0.06114879 0.19181694 0.09539281 0.076394245 -0.09039434 0.19042972 -0.09679814 -0.23389018 0.1500872 0.065130115 0.07412752 -0.090883315 -0.19018947 -0.15398113 0.14707348 0.15453497 -0.35813197 0.061548024 0.12946442 -0.24241923 0.1702856 -0.3821159 -0.1405028 -0.07859495 -0.03325665 0.06949421 -0.13402455 -0.07829242 -0.11065463 0.096623376 0.16167943 0.14227599 0.119264446 -0.0038272773 -0.13637853 -0.11141429 0.31297967 -0.5558968 0.5697187 -0.113249525 -0.24283934 0.12323983 -0.17430386 -0.18840952 0.3412261 0.055337004 0.12590991 0.15242867 0.12700509 0.12399062 0.22565146 -0.08123538 0.052702144 0.11762215 0.13926242 0.21601063 -0.106566936 0.090495035 -0.060563467 0.17639284 0.13056582 0.069480754 -0.2771852 -0.1214675 -0.13246372
some -0.19397078 0.099732324 -0.14214377 -0.16714963 0.080295816 -0.10371638 -0.11614463 -0.043271773 -0.20755802 0.17903821 -0.05913043 0.2160678 0.18758807 0.14915368 -0.27525285 0.10756299 -0.09894479 0.08211044 -0.33799818 -0.12123583 0.22662102 -0.16109975 0.54423755 0.099326275 -0.1444453 -0.12920365 0.3057877 0.1223102 -0.114156164 -0.118383616 0.05165831 0.13942793 0.072904356 -0.10505708 -0.31827107 -0.08324825 0.1947745 0.10235484 0.06918671 -0.09697875 0.17846057 -0.124034144 -0.23508632 0.13230504 0.08368121 0.07712877 -0.08625934 -0.17881209 -0.16180754 0.14090201 0.14133759 -0.33392948 0.069094926 0.14659624 -0.2415899 0.1687003 -0.3435917 -0.155583 -0.08697072 -0.06762789 0.08315069 -0.14265022 -0.08162912 -0.119055025 0.10063814 0.16977668 0.1349424 0.122029796 -0.014135502 -0.14643826 -0.12437882 0.27508178 -0.61843383 0.5141923 -0.12184186 -0.21147665 0.111324176 -0.16433704 -0.18343814 0.30937222 0.061533116 0.1201494 0.1382832 0.1079301 0.11957203 0.2089941 -0.07811093 0.06761156 0.11517647 0.12620707 0.2053955 -0.11161854 0.11419247 -0.09294816 0.1925252 0.09398669 0.093440875 -0.2652346 -0.13552216 -0.11634708
Some -0.15206923 0.098858766 -0.14083982 -0.15492724 0.10379526 -0.118188225 -0.12010442 -0.08451955 -0.1571372 0.18238978 -0.088471234 0.18668297 0.17107756 0.16560292 -0.22601455 0.10562118 -0.09668243 0.11552068 -0.28252086 -0.11605604 0.21874186 -0.14258043 0.46017462 0.10406328 -0.15432942 -0.1341004 0.21679199 0.120407425 -0.12681334 -0.13720605 0.075909086 0.13978703 0.07576781 -0.10917925 -0.27031925 -0.07984348 0.1665954 0.10108344 0.097169876 -0.10339986 0.16430329 -0.12182078 -0.22750494 0.12903059 0.11433744 0.10007743 -0.11182976 -0.17697269 -0.1445908 0.14064993 0.14939664 -0.24488595 0.07576517 0.1411364 -0.21875209 0.14300469 -0.2567596 -0.14842951 -0.10413828 -0.08705056 0.09244327 -0.1410932 -0.09969592 -0.12879008 0.09646585 0.15549009 0.15214463 0.12216392 -0.1278845 -0.14315094 -0.11842195 0.20863412 -0.6019703 0.41282302 -0.12144084 -0.18928099 0.121214375 -0.14821467 -0.16427492 0.25498956 0.0714401 0.12669575 0.12208095 0.08249673 0.1325907 0.21079527 -0.100055315 0.077392764 0.12180378 0.111901276 0.18683855 -0.10151813 0.13152443 -0.08973305 0.30342376 0.07631558 0.10843443 -0.23147354 -0.1352295 -0.12146021
eats -0.15258072 0.1475067 -0.15670994 -0.14635465 0.15170993 -0.14501964 -0.15093334 -0.14696617 -0.16800225 0.15576974 -0.15532814 0.14949897 0.15499485 0.16178171 -0.15586507 0.148101 -0.15751854 0.14867546 -0.17429231 -0.1563373 0.14942119 -0.16254354 0.1739546 0.14087331 -0.14386456 -0.14382407 0.16685957 0.15216354 -0.16261858 -0.15757361 0.14925165 0.14999072 0.13893111 -0.14072643 -0.17137125 -0.15809168 0.16016851 0.15379325 0.15179405 -0.15848115 0.14936239 -0.14189383 -0.16172694 0.14884102 0.15964524 0.1568641 -0.14659335 -0.15881492 -0.15663838 0.14578702 0.15947093 -0.151875 0.14851399 0.15571678 -0.14937368 0.16211264 -0.15714365 -0.14622785 -0.13728063 -0.15108833 0.13943018 -0.15501131 -0.15121533 -0.15947309 0.14336817 0.15951191 0.14554459 0.1602405 0.1194539 -0.15872082 -0.14485893 0.1513961 -0.18066545 0.1741949 -0.15651426 -0.14753328 0.1546489 -0.14991474 -0.15875863 0.17712277 0.15475297 0.15554659 0.14902265 0.15107201 0.14203034 0.15564585 -0.14168736 0.1416977 0.14959939 0.15005514 0.15081902 -0.15217473 0.14544356 -0.15244706 -0.10811246 0.13220632 0.13949984 -0.1531672 -0.15219676 -0.14783002
both -0.16487275 0.11960458 -0.13419923 -0.15888031 0.116444945 -0.12135477 -0.10994058 -0.09324265 -0.18713321 0.15664141 -0.10371356 0.16448383 0.14672603 0.14529662 -0.21547714 0.12637928 -0.11471941 0.10026878 -0.24112235 -0.12245322 0.18212436 -0.15559316 0.33580428 0.12207622 -0.15135355 -0.1287367 0.22764231 0.12634501 -0.12895058 -0.1217651 0.095512666 0.13644096 0.099487856 -0.11060539 -0.23531464 -0.10050929 0.14825648 0.1131087 0.10676726 -0.12257912 0.1643218 -0.11936363 -0.18798372 0.13076495 0.10178605 0.11322039 -0.109275214 -0.16454414 -0.1572172 0.13541406 0.13594194 -0.247613 0.10513453 0.14007188 -0.17907308 0.14315797 -0.23773435 -0.14187615 -0.09769926 -0.10204355 0.10374742 -0.12560625 -0.10646662 -0.12235505 0.11137881 0.14334127 0.14494286 0.13859145 0.10601593 -0.12298928 -0.11107406 0.208341 -0.38879025 0.3252724 -0.13180286 -0.18983942 0.11820289 -0.1589306 -0.14948037 0.24377272 0.108997546 0.11584064 0.13078663 0.13092901 0.12659219 0.1761272 -0.10306479 0.09503196 0.12131022 0.13527888 0.178213 -0.11157371 0.11865873 -0.11390882 -0.018669944 0.11184319 0.11424849 -0.20241214 -0.123731636 -0.13168772
animals. -0.252138 0.2501482 -0.25524154 -0.25449368 0.2639556 -0.26707593 -0.26868635 -0.257646 -0.23905416 0.26525015 -0.26886767 0.252113 0.26767343 0.250906 -0.26702604 0.25915325 -0.2577609 0.2529803 -0.26940966 -0.25588846 0.26616427 -0.26501495 0.27426103 0.26080182 -0.25127745 -0.26468894 0.2697798 0.25161535 -0.265578 -0.25951678 0.26283538 0.26069024 0.26939887 -0.2703708 -0.25748882 -0.2656003 0.2570736 0.26525733 0.25562185 -0.2523398 0.2575739 -0.25338474 -0.2659112 0.25358397 0.26923144 0.2646293 -0.2591184 -0.2589346 -0.25648245 0.2673649 0.25959653 -0.25361615 0.25561443 0.25024414 -0.27011558 0.26522583 -0.2534919 -0.26325154 -0.257839 -0.26765943 0.27000904 -0.25692347 -0.26966986 -0.25282404 0.25796404 0.26901245 0.26945645 0.26970607 0.20383638 -0.25684565 -0.26178753 0.26032344 -0.28460762 0.26600766 -0.25996822 -0.25695673 0.25718406 -0.257382 -0.25605294 0.26299286 0.26217443 0.25872627 0.24725081 0.25654036 0.26058963 0.26350644 -0.2685031 0.2508844 0.26217932 0.25644687 0.24935122 -0.262788 0.270526 -0.25405106 -0.18645956 0.24867658 0.2534029 -0.26846406 -0.25834605 -0.26005748
also -0.16792178 0.090108044 -0.12436435 -0.15445916 0.09010818 -0.10017312 -0.10317502 -0.060500972 -0.18649445 0.124707825 -0.07707652 0.17940389 0.15171033 0.12905075 -0.20944563 0.11492221 -0.09606547 0.09335749 -0.22571403 -0.11829845 0.1658529 -0.12618057 0.3192506 0.109062195 -0.13794133 -0.12221556 0.19102518 0.119337 -0.11772122 -0.11748085 0.071314976 0.11726341 0.0819014 -0.09423696 -0.21773371 -0.09798515 0.15853207 0.09520024 0.09672754 -0.09751847 0.15504906 -0.12209854 -0.16542403 0.13108177 0.09806329 0.086143844 -0.09840707 -0.1354864 -0.14789532 0.1320909 0.13205968 -0.25299424 0.095700346 0.12729052 -0.18264368 0.14118664 -0.23904695 -0.13826005 -0.073079415 -0.07998501 0.08628107 -0.13219962 -0.09009792 -0.11741086 0.11825142 0.15678501 0.1370424 0.11949958 0.050123557 -0.10200582 -0.108168565 0.2110517 -0.4056252 0.32729328 -0.10546803 -0.17362952 0.1225377 -0.14457726 -0.14435898 0.21415447 0.091766395 0.10789047 0.139641 0.10343077 0.11759453 0.1630653 -0.08300949 0.08027887 0.12111188 0.1304358 0.1671996 -0.11312981 0.102503985 -0.08973591 0.029535238 0.11126388 0.10144729 -0.18990047 -0.11487743 -0.13321868
depend -0.20469806 0.20554112 -0.22028388 -0.2104352 0.21402699 -0.21351407 -0.21004213 -0.194091 -0.21125862 0.2135272 -0.20687667 0.220167 0.21943358 0.21176462 -0.20448625 0.20917147 -0.21091087 0.20971613 -0.23439658 -0.2150511 0.21659198 -0.20248549 0.23144706 0.20283328 -0.21153104 -0.20354693 0.20433022 0.20212093 -0.21853055 -0.21879624 0.2058622 0.20341925 0.20841031 -0.19649805 -0.22357996 -0.21045426 0.20530564 0.20238961 0.19695395 -0.20870885 0.21311241 -0.21416831 -0.2295666 0.2101393 0.21131833 0.20838611 -0.21308526 -0.22221984 -0.20409541 0.206196 0.21029626 -0.23036964 0.2015193 0.21237874 -0.20898022 0.2079472 -0.21330686 -0.20742597 -0.21107683 -0.20308156 0.21328369 -0.20837401 -0.21522161 -0.21354106 0.21593891 0.22128673 0.20478764 0.20663846 0.1554504 -0.22059017 -0.20351832 0.21992598 -0.22582336 0.22071223 -0.19844043 -0.21116886 0.20422754 -0.21710786 -0.20171358 0.2245758 0.19844818 0.2041894 0.21588895 0.20849977 0.21448451 0.22633284 -0.21440445 0.215103 0.21868515 0.19849457 0.21159822 -0.20613582 0.21178639 -0.20810142 -0.12417957 0.20132226 0.20987043 -0.22427128 -0.21808204 -0.21103768
on -0.16412465 0.15521835 -0.12546143 -0.13043448 0.13172989 -0.12189498 -0.1333075 -0.122595794 -0.17997451 0.1411398 -0.12181323 0.14924692 0.13755377 0.14629818 -0.18768695 0.11788262 -0.15368581 0.12556271 -0.1301616 -0.12444862 0.11481796 -0.1451339 0.32309103 0.1338423 -0.1284808 -0.10015358 0.20409197 0.12561755 -0.13777417 -0.13426384 0.14536357 0.109022655 0.1297884 -0.13572437 -0.17501827 -0.12691033 0.120713174 0.15070586 0.11119929 -0.13438532 0.10650186 -0.12704805 -0.12574673 0.115891546 0.13111894 0.13672239 -0.13755435 -0.14509502 -0.1464414 0.120682545 0.124993436 -0.17207825 0.14625214 0.15561053 -0.10219208 0.14817779 -0.19473433 -0.14055023 -0.12704591 -0.13859956 0.13291667 -0.14269422 -0.11344563 -0.12093467 0.11662931 0.12743804 0.12025453 0.15018359 0.37724084 -0.11832615 -0.14356603 0.17644727 -0.39384866 0.19939291 -0.13556801 -0.17255011 0.11160147 -0.12201822 -0.12396248 0.1738914 0.14708476 0.13551381 0.1252693 0.16652215 0.12576355 0.14466083 -0.11119411 0.11949117 0.13566646 0.12550502 0.17298009 -0.15238057 0.13209353 -0.12602276 -0.39911085 0.17004484 0.13291581 -0.11921511 -0.10368854 -0.12200998
by -0.12186084 0.14293139 -0.12144615 -0.118306346 0.10449045 -0.12640716 -0.12608863 -0.1100642 -0.1973595 0.12542889 -0.1149462 0.12794104 0.1284061 0.15002057 -0.15525517 0.12578854 -0.13341792 0.107416674 -0.121039025 -0.1058734 0.12717526 -0.11627286 0.21139829 0.12780313 -0.13384223 -0.11373194 0.14762034 0.12626962 -0.123195745 -0.13042657 0.13181812 0.105068475 0.12677664 -0.13389234 -0.12216181 -0.1279126 0.11346171 0.124859914 0.13006185 -0.12745841 0.11168342 -0.13868624 -0.12154686 0.12076671 0.14156887 0.12302629 -0.11753475 -0.12410205 -0.13817832 0.14214301 0.12999897 -0.14975002 0.12382628 0.12876749 -0.13312514 0.1293225 -0.14664021 -0.12786855 -0.120895885 -0.104112335 0.103923514 -0.116006345 -0.1345507 -0.12180908 0.15486081 0.14233276 0.1366478 0.12244328 0.24701162 -0.11603367 -0.13426384 0.14884631 -0.35275275 0.18399274 -0.10503486 -0.15029746 0.11198878 -0.102599815 -0.112403676 0.14064927 0.12572266 0.12922153 0.12030217 0.14814822 0.14173287 0.12870964 -0.111652814 0.112467855 0.1180514 0.12030808 0.1420852 -0.13735873 0.12055828 -0.107721634 -0.26454926 0.12114985 0.124454446 -0.13070592 -0.10542842 -0.116901286
could -0.19931525 0.10591273 -0.1466759 -0.19164173 0.0835351 -0.11852111 -0.11670221 -0.057288185 -0.24755475 0.1900925 -0.04526767 0.23900633 0.19447938 0.17422047 -0.29916358 0.1351635 -0.08696278 0.10795538 -0.34745696 -0.12718628 0.23042071 -0.1698209 0.47041786 0.1188411 -0.17088228 -0.14958267 0.30334267 0.14831679 -0.12547033 -0.11894133 0.07781175 0.14805806 0.061227724 -0.116187096 -0.33889255 -0.07564257 0.19456986 0.114182815 0.0905503 -0.10068336 0.18354614 -0.11847818 -0.24308869 0.15651138 0.08660519 0.0807708 -0.09764106 -0.1719409 -0.1466679 0.15816255 0.16193947 -0.3257458 0.08142769 0.15087362 -0.2461848 0.18741885 -0.34774452 -0.16607738 -0.09233894 -0.058889885 0.08309695 -0.16003019 -0.09443784 -0.14269923 0.123146124 0.18732195 0.16730055 0.122526385 0.050094876 -0.13588153 -0.11438467 0.29351142 -0.5289042 0.49611002 -0.13359752 -0.23287946 0.1351809 -0.15999664 -0.19641675 0.32455343 0.07677602 0.13126487 0.15056485 0.12999071 0.12734674 0.22365351 -0.09105231 0.06724633 0.1296261 0.15641643 0.21205406 -0.1291297 0.098700225 -0.08538343 0.08978706 0.15326373 0.07883706 -0.25889674 -0.13580592 -0.13783813
But -0.16209742 0.13387734 -0.16155738 -0.17121157 0.13784522 -0.14371544 -0.14645389 -0.11809938 -0.18720175 0.17451976 -0.117511146 0.18495291 0.16461623 0.15738566 -0.20605357 0.14792176 -0.13874762 0.12646525 -0.22244915 -0.1323242 0.17590486 -0.1578606 0.30627373 0.1300972 -0.15017098 -0.14087158 0.22393242 0.1423376 -0.1476809 -0.13958506 0.11848146 0.1549884 0.121479064 -0.14360127 -0.22725776 -0.13771947 0.17254512 0.13306826 0.13046765 -0.14238995 0.16280515 -0.13428247 -0.18556648 0.1617531 0.13786931 0.12007381 -0.13255262 -0.1569117 -0.16323829 0.14733797 0.14719407 -0.23287892 0.11582998 0.13930991 -0.18923432 0.16920884 -0.24629715 -0.1630682 -0.12217269 -0.1085407 0.118778616 -0.15018521 -0.12561709 -0.13720018 0.14631419 0.17498565 0.15310447 0.14070801 0.09991464 -0.14584629 -0.12758118 0.22589768 -0.33157757 0.31707004 -0.14002962 -0.17205675 0.14395888 -0.16510953 -0.17361633 0.23050603 0.13112743 0.14216477 0.16080566 0.14049457 0.13735278 0.18685886 -0.12417078 0.11502875 0.15332662 0.14422095 0.17989922 -0.13648723 0.14473246 -0.11617323 -0.03294178 0.14038476 0.122272626 -0.19411126 -0.15868413 -0.15971401
form -0.16179232 0.11006781 -0.13967264 -0.15326625 0.11425294 -0.101294145 -0.11743616 -0.08939839 -0.21222387 0.14858109 -0.08138782 0.1668784 0.13787949 0.13750088 -0.22802281 0.12556407 -0.113371864 0.100764275 -0.2135427 -0.12387795 0.16849491 -0.12756729 0.18492715 0.11742376 -0.1419628 -0.1365399 0.22160362 0.11765452 -0.116002366 -0.11542808 0.10161845 0.123568624 0.10225957 -0.1137654 -0.23987538 -0.10225142 0.16397472 0.09158778 0.1021638 -0.12331748 0.16343042 -0.11704131 -0.16837355 0.119392924 0.1175192 0.10160273 -0.10091539 -0.16064882 -0.14301108 0.13726035 0.12867862 -0.24349909 0.10202313 0.13205132 -0.17243332 0.14115725 -0.2405177 -0.13924658 -0.098570116 -0.09621396 0.10506652 -0.13822034 -0.09857497 -0.11416807 0.12756385 0.13235167 0.115280196 0.12991162 0.16761953 -0.12793632 -0.12336066 0.21404414 -0.12676476 0.26423523 -0.121316746 -0.14015177 0.12738876 -0.15805264 -0.16481516 0.19953644 0.090180814 0.11486149 0.13591267 0.15305549 0.11155522 0.13806759 -0.099240795 0.089590214 0.12680568 0.12592112 0.1812546 -0.12184392 0.103276685 -0.09742987 -0.10361604 0.14318156 0.102274254 -0.16792908 -0.12361249 -0.12283147
of -0.1435079 0.14782578 -0.10806748 -0.12082669 0.10633263 -0.11555337 -0.1210939 -0.10005856 -0.18086112 0.1361941 -0.14059174 0.1371625 0.12156298 0.13414752 -0.16326725 0.10067907 -0.12727612 0.10366155 -0.11992923 -0.13395488 0.13908194 -0.12000426 0.27464947 0.10535689 -0.10276244 -0.13540722 0.18447366 0.14614971 -0.11435391 -0.14704353 0.15160784 0.10119771 0.12423091 -0.13696778 -0.15062988 -0.1330744 0.12079964 0.13695724 0.12137398 -0.12586732 0.117708266 -0.108933896 -0.11649368 0.111515984 0.14178005 0.10902493 -0.12936725 -0.1170145 -0.115832224 0.13015327 0.11869387 -0.14646266 0.14715587 0.13281353 -0.113383695 0.14956091 -0.15228675 -0.121992275 -0.13668779 -0.11778911 0.12092138 -0.103922375 -0.10901706 -0.11535813 0.1406243 0.1214608 0.13349311 0.101658225 0.28908458 -0.120262966 -0.124992505 0.15798186 -0.40696064 0.16238114 -0.119389616 -0.14732973 0.11864153 -0.11639594 -0.114309736 0.16286057 0.13311908 0.13688087 0.12102301 0.12885992 0.13258077 0.11810873 -0.11130511 0.12078491 0.12458587 0.12805615 0.16188352 -0.13798055 0.11533676 -0.12989016 -0.33481345 0.16194037 0.14123285 -0.1349713 -0.10565287 -0.1061851
All -0.13877262 0.1343482 -0.14291997 -0.14300007 0.13074695 -0.13279024 -0.1308509 -0.14158851 -0.14156649 0.14810961 -0.13708392 0.11160156 0.14272077 0.14547461 -0.1430105 0.13141914 -0.13605125 0.12654208 -0.14392552 -0.14222509 0.15054074 -0.14285803 0.16263455 0.14208165 -0.14806975 -0.13409294 0.14952314 0.14563872 -0.13354735 -0.15009092 0.14495386 0.14815481 0.13966021 -0.12977058 -0.1497403 -0.12478403 0.14166223 0.14395702 0.12996835 -0.1332667 0.13493964 -0.13916367 -0.14987132 0.1456504 0.15564963 0.13165754 -0.13654774 -0.13781591 -0.15464857 0.14235684 0.13339956 -0.12010947 0.15410571 0.13513663 -0.14081089 0.14924616 -0.12552962 -0.1481288 -0.13364445 -0.13859095 0.13039497 -0.14871788 -0.14150305 -0.14268091 0.13404743 0.13280588 0.12747848 0.13901654 0.04112719 -0.12697583 -0.14039518 0.14429958 -0.24916063 0.1435443 -0.12845895 -0.1554164 0.14026241 -0.13587013 -0.14543693 0.15021884 0.13568754 0.13740276 0.13759477 0.14234607 0.14048626 0.15032876 -0.14635055 0.13723142 0.14350772 0.13382085 0.13511002 -0.13475345 0.14336632 -0.14337476 -0.023616187 0.12301139 0.14054559 -0.14673373 -0.13825926 -0.13554488
use -0.19816554 0.089062445 -0.15901148 -0.1916867 0.08299659 -0.1258517 -0.11336466 -0.053875122 -0.22184938 0.17231268 -0.047726866 0.22263564 0.18343031 0.15067007 -0.26194236 0.13936248 -0.10749569 0.10147253 -0.3066488 -0.11669806 0.2277793 -0.14130534 0.40870625 0.11016457 -0.15374391 -0.13475952 0.22822551 0.13318545 -0.12597203 -0.12503481 0.055035274 0.16194913 0.076106645 -0.112299055 -0.29995906 -0.07720156 0.17984587 0.101520434 0.0981239 -0.11252189 0.17667614 -0.11526604 -0.22348052 0.13287711 0.095160544 0.081387706 -0.1012443 -0.18848033 -0.15316898 0.14411773 0.1519703 -0.2921781 0.07960586 0.13588072 -0.21880156 0.18480532 -0.32712564 -0.15822184 -0.09501534 -0.058158495 0.08143813 -0.16014831 -0.078673124 -0.13191412 0.100677855 0.1729133 0.13182952 0.12124412 -0.056140322 -0.11467245 -0.12593193 0.2716789 -0.49988282 0.46842718 -0.11811825 -0.21292762 0.13276239 -0.14909814 -0.18587081 0.26674128 0.06550782 0.118298754 0.13992076 0.1459578 0.11842358 0.20286077 -0.081089266 0.07049194 0.1269271 0.12682797 0.18044652 -0.11137842 0.10890541 -0.08359053 0.23589632 0.11985045 0.07741752 -0.2459414 -0.13136218 -0.11734587
change -0.203464 0.11161194 -0.16555251 -0.19393784 0.11699173 -0.13714921 -0.13583761 -0.08242657 -0.22554229 0.17774089 -0.08341135 0.20865482 0.18704486 0.16765197 -0.27223685 0.15700676 -0.111339666 0.1176326 -0.29055443 -0.14306393 0.21210994 -0.17421658 0.22908223 0.14800298 -0.173831 -0.16110665 0.2809052 0.14649977 -0.12595853 -0.13304913 0.09519509 0.15841246 0.10809048 -0.13144104 -0.29220027 -0.109494396 0.19114603 0.118880585 0.12959324 -0.116683915 0.20113687 -0.1435248 -0.22249402 0.15088934 0.10431079 0.10774454 -0.12807664 -0.19017547 -0.1498853 0.14626749 0.14898258 -0.28085417 0.1142243 0.15227106 -0.20729607 0.1743307 -0.30111706 -0.15901211 -0.12020828 -0.10679004 0.11492374 -0.15863766 -0.12186236 -0.14113328 0.14102875 0.16483867 0.14689848 0.14516173 0.1449588 -0.13189983 -0.12466487 0.26562732 -0.03366063 0.35729292 -0.14760214 -0.20714907 0.13755791 -0.16931294 -0.19959919 0.27297744 0.11565318 0.13751894 0.16746803 0.17415059 0.13800831 0.17916512 -0.11548216 0.09208128 0.14028795 0.15821171 0.20529313 -0.11827434 0.12480767 -0.106585585 -0.02636239 0.16729118 0.11847773 -0.23482479 -0.14594871 -0.14235301
temperature -0.18181108 0.14217351 -0.15306926 -0.17932907 0.16715494 -0.14953028 -0.15832978 -0.13099326 -0.2257138 0.16996989 -0.14031409 0.18863916 0.1686729 0.1721132 -0.22673894 0.15884368 -0.14675345 0.16177613 -0.21706848 -0.14676137 0.19013649 -0.16593736 0.1454007 0.15299413 -0.17075396 -0.15816177 0.24477771 0.17149058 -0.15339494 -0.14384355 0.14046097 0.17288895 0.13740551 -0.15717985 -0.24187717 -0.137411 0.17455027 0.14827704 0.13624537 -0.14361946 0.17349026 -0.1545791 -0.185982 0.16075982 0.14403729 0.15334319 -0.15380882 -0.18972549 -0.15000805 0.17379771 0.15193963 -0.21262002 0.13694142 0.1582238 -0.20224823 0.17974469 -0.2514842 -0.1534911 -0.15273318 -0.12767795 0.1582845 -0.16787253 -0.14878887 -0.15100832 0.16088113 0.17386156 0.15188567 0.16578682 0.24875371 -0.17018193 -0.15332614 0.23205271 0.099796005 0.22245494 -0.17467031 -0.18050778 0.15081605 -0.17851557 -0.17535904 0.2232561 0.14045298 0.14331758 0.16258624 0.18551058 0.14575748 0.1812017 -0.13911979 0.13160877 0.16949123 0.16492957 0.20056468 -0.14991799 0.14112628 -0.13447808 -0.22264011 0.16743653 0.14399591 -0.17556489 -0.14165694 -0.1594278
. -0.10893037 0.14141594 -0.123887785 -0.088973545 0.13569394 -0.14136663 -0.13156757 -0.14820506 -0.099282816 0.112553395 -0.14644974 0.088178284 0.12136487 0.11965023 -0.08885197 0.1153747 -0.14478755 0.1282479 -0.04605483 -0.1342746 0.10127613 -0.12457412 0.05865865 0.14107107 -0.1185327 -0.12486648 0.08043647 0.12689735 -0.12867703 -0.12528332 0.15851946 0.110234305 0.14099257 -0.13849454 -0.06649895 -0.14245209 0.09875974 0.14231987 0.13612874 -0.15006064 0.09418415 -0.13995747 -0.08560666 0.11183164 0.16250771 0.13751297 -0.14336003 -0.11878277 -0.12579304 0.12479874 0.11866098 -0.07203659 0.14007935 0.11362321 -0.0837683 0.124428846 -0.051224295 -0.12180575 -0.1326099 -0.13646226 0.13479345 -0.12918113 -0.14238906 -0.12489529 0.12371405 0.12425339 0.120571785 0.11819795 0.1376843 -0.118943 -0.13560314 0.083864644 -0.11756584 0.021860527 -0.11752417 -0.09653246 0.13363998 -0.120639935 -0.09674812 0.07132117 0.14756191 0.13810077 0.12331321 0.12063351 0.12361185 0.09679339 -0.13452221 0.143613 0.12429569 0.1265331 0.109039694 -0.1328171 0.14051698 -0.13418847 -0.19300461 0.12976366 0.14893968 -0.099897295 -0.11998658 -0.12744509
most -0.18576759 0.11608465 -0.12634496 -0.16225047 0.08032945 -0.10516861 -0.10127652 -0.07360865 -0.22510743 0.15164107 -0.08175624 0.18579653 0.15734968 0.13541551 -0.27195713 0.105329975 -0.08170723 0.103912525 -0.25562927 -0.12950511 0.18815237 -0.15010794 0.45032364 0.1155223 -0.1513188 -0.1357463 0.2654743 0.13785309 -0.12061347 -0.13610278 0.09737886 0.12009061 0.09920099 -0.10180974 -0.26177123 -0.10204668 0.15775399 0.10287496 0.104064606 -0.09544749 0.17319493 -0.10769205 -0.18294227 0.1276713 0.113256946 0.09923846 -0.124388404 -0.16832948 -0.15016407 0.14730959 0.14306684 -0.26196828 0.08334044 0.13695614 -0.1848264 0.16134122 -0.26949367 -0.14791845 -0.09363688 -0.08128721 0.10993629 -0.1315933 -0.10627654 -0.13112019 0.13369279 0.16071446 0.13481061 0.13243876 0.15275563 -0.14967039 -0.13249819 0.25612065 -0.59221536 0.38238728 -0.10588752 -0.18401441 0.11505721 -0.15415303 -0.14724056 0.2571363 0.10342395 0.13033628 0.12555143 0.11695494 0.14472927 0.17131187 -0.09422596 0.071907654 0.1266938 0.13116822 0.19504964 -0.1265455 0.12243037 -0.093741514 -0.08327458 0.12074197 0.08744767 -0.21884991 -0.13785459 -0.12184942
soil. -0.23706973 0.23787001 -0.24464937 -0.24278012 0.25651458 -0.25414205 -0.24354069 -0.25004828 -0.22694182 0.25080463 -0.25321963 0.24250814 0.24590515 0.22857258 -0.23597822 0.24545167 -0.24993987 0.25486085 -0.24626587 -0.2504771 0.2608046 -0.25061724 0.25650415 0.25228614 -0.2510059 -0.23746486 0.26098904 0.24856403 -0.24908566 -0.2464912 0.24499036 0.23947145 0.25006816 -0.2575434 -0.24611144 -0.23977642 0.25080454 0.24065909 0.25041375 -0.2581802 0.2537839 -0.25361627 -0.24048084 0.24916884 0.2531896 0.23635966 -0.25933406 -0.25136143 -0.25040945 0.2357219 0.25391576 -0.26255304 0.24142511 0.25358304 -0.24633238 0.2577277 -0.22365001 -0.2395818 -0.24909796 -0.25322092 0.26053482 -0.25407535 -0.24734585 -0.24223118 0.24265218 0.2417672 0.24499169 0.24917215 0.24969397 -0.25600508 -0.25132766 0.24717274 -0.251699 0.26382905 -0.25062227 -0.258317 0.2503398 -0.24511902 -0.23803179 0.23782003 0.23957457 0.25888085 0.25311354 0.24972375 0.24912181 0.24327508 -0.25272697 0.24064504 0.2497183 0.25507194 0.24904023 -0.24666147 0.24065521 -0.25642234 -0.26107368 0.2533211 0.25878686 -0.25763354 -0.25092256 -0.25119546
both, -0.008375878 0.0085782 -0.010424525 -0.006307649 0.001447319 -0.0109830825 -0.010994341 0.0028182655 -0.012164159 -0.0017069111 -0.0056498614 0.0071141184 -0.0011860724 -0.0017135973 0.0035207602 0.0033003709 -0.0071554743 -0.004156886 -0.010441503 -0.0001243909 -0.0045745336 -0.002977448 0.008541782 -0.002215083 -0.012213444 0.0037491247 0.0026950845 0.004530444 -0.005571893 0.0017628244 0.01119065 0.00028792315 0.010992707 -0.009944442 -0.014246503 0.001555826 0.0005162731 0.007751141 -0.00064967695 -0.0037399917 0.00023379808 -0.0032863 -0.00068953534 0.009946219 0.0055328067 0.011506488 0.00020069603 -0.005511121 -0.006488949 0.00229103 0.009048469 0.0044324608 0.0055751544 -0.0034101175 0.0055159307 0.009737541 0.0010593242 -0.010950888 0.0017317516 -0.011656564 0.0139023075 -0.0023959775 -0.011958971 -0.0059191915 -0.000903312 0.009266027 -0.0038570254 0.012752594 0.0023562293 0.004198872 0.0031397126 0.0059278216 0.0021848343 0.0058404417 -0.003523266 0.003045328 0.0049373466 -0.006741612 -0.013782498 -0.004514393 0.008268631 0.0057958444 -0.0007456503 -0.000117228214 -0.0018265956 0.011697411 0.0034292866 0.0066169756 0.005255129 -0.0042225006 -0.0019666338 -0.008275814 0.004228195 -0.0010045763 -0.00018703376 0.005775257 0.0046470654 -0.0062107393 -0.007941155 -0.00021383626
as -0.16889359 0.07848551 -0.11158208 -0.15320724 0.088919915 -0.11324975 -0.10200118 -0.053393893 -0.22367373 0.13686572 -0.081022106 0.1773102 0.1281722 0.11750076 -0.21789122 0.10157044 -0.08413007 0.10639208 -0.22690408 -0.11242126 0.17380053 -0.12416455 0.35186672 0.11444858 -0.13893056 -0.115272544 0.22782639 0.10178538 -0.118700795 -0.10590774 0.07883606 0.11098215 0.065134324 -0.09902046 -0.24612193 -0.090232685 0.16176105 0.11160374 0.074664526 -0.11690842 0.1419774 -0.10115992 -0.18352151 0.13373794 0.09619985 0.103927255 -0.09491239 -0.13685639 -0.14292806 0.13818268 0.12733902 -0.2552306 0.10390666 0.1113044 -0.17371339 0.12920254 -0.24661545 -0.13758582 -0.0776543 -0.0497066 0.11051625 -0.12717222 -0.09325196 -0.114269 0.12024597 0.1575609 0.13282245 0.12280899 0.14617296 -0.13097373 -0.111479 0.22560352 -0.41306502 0.3410009 -0.10408184 -0.16482154 0.10550977 -0.12606882 -0.15255569 0.21357964 0.07657542 0.08711907 0.1519333 0.09980878 0.115270376 0.16081561 -0.0737094 0.08560575 0.101424895 0.12606053 0.18384244 -0.12271632 0.109049514 -0.068888225 -0.027146926 0.1292978 0.087838076 -0.17809935 -0.11831888 -0.12379784
well -0.17632008 0.114471145 -0.1530705 -0.15361066 0.10347102 -0.101145305 -0.11053539 -0.06863178 -0.18751964 0.1531207 -0.077062055 0.19862601 0.16794153 0.14612415 -0.23522672 0.10590984 -0.10453511 0.11515136 -0.28097326 -0.12431324 0.2099726 -0.14380483 0.40415597 0.12558854 -0.14502619 -0.14060059 0.23999274 0.1373985 -0.13953346 -0.11665819 0.0920521 0.13021152 0.09156088 -0.11979995 -0.27475756 -0.09807194 0.18765819 0.12241518 0.10609471 -0.1208979 0.15701558 -0.10744093 -0.20353448 0.123762526 0.11126134 0.09836302 -0.11512408 -0.15806767 -0.15416032 0.14418037 0.13937074 -0.25954083 0.08842112 0.12655218 -0.20019682 0.16646847 -0.28417447 -0.1236163 -0.10178364 -0.07538776 0.10328319 -0.15219632 -0.09860403 -0.12429726 0.11523613 0.1676419 0.14552926 0.106811866 0.05806236 -0.14124513 -0.11402102 0.24487165 -0.44906074 0.40194067 -0.119492725 -0.20722073 0.13337007 -0.14386429 -0.15941598 0.25759906 0.09954464 0.14205064 0.15214908 0.104034014 0.13597882 0.20071664 -0.09853062 0.08840216 0.12516616 0.11204827 0.17860183 -0.11339763 0.09870334 -0.09033987 0.053076107 0.13341698 0.08310158 -0.2298183 -0.14497389 -0.1398298
